[{"size":{"inSize":2,"hlSize":5,"outSize":1},"layers":{"w1":[[0.6560329209997279,-0.3203464241482675],[-0.9422342863269415,0.4053611240404191],[-0.6874603641468994,-1.2703143612569463],[0.3108406569659673,0.459328305120907],[0.21911705450023763,-1.1232473715668632]],"b1":[0.0,0.0,0.0,0.0,0.0],"w2":[[-0.18285765358524483,-1.2735449431880463,0.43089726477180534,-0.08710483655491733,0.07266911219726518]],"b2":[0.0]}},{"size":{"inSize":2,"hlSize":5,"outSize":1},"layers":{"w1":[[0.638288084562579,-0.32154157184175225],[-0.943858857474551,0.258311616760762],[-0.6874896742838043,-1.2702909365341863],[0.30227129482804743,0.4487073184139664],[0.22578473324246154,-1.1231576170483266]],"b1":[-0.017572767377984688,-0.14858013097014428,1.8377066143415575E-4,-0.018512641972481602,0.0066176611161498046],"w2":[[-0.12128880278874342,-1.2279419770459705,0.4308749689599588,-5.169238988178559E-4,0.09138663272545372]],"b2":[0.21295936597158613]}},{"size":{"inSize":2,"hlSize":5,"outSize":1},"layers":{"w1":[[0.633588367099349,-0.32068842231711936],[-0.9443464003463043,0.1819869461652095],[-0.6874534821927263,-1.270192898788022],[0.30225100702041485,0.448678960122949],[0.23008492546052886,-1.1230189978151244]],"b1":[-0.021790223323432466,-0.22610929188558984,-0.0034252273312352717,-0.018563912780167224,0.010165396341373567],"w2":[[-0.09490562271832692,-1.2216419362751882,0.4305266512621164,0.0341261570926911,0.10056416985144911]],"b2":[0.2977669159453509]}},{"size":{"inSize":2,"hlSize":5,"outSize":1},"layers":{"w1":[[0.6317596158051655,-0.31876127922383357],[-0.9438014595838552,0.16892820534242212],[-0.6874635044938229,-1.2700870513859759],[0.30291667782003073,0.449518767662876],[0.23404344086211293,-1.1230259837716239]],"b1":[-0.022874760243797688,-0.2386511638712376,-0.006840637629131943,-0.016465922209520797,0.012849279487179068],"w2":[[-0.07643405409500811,-1.2215966698061138,0.4302575431927174,0.04992215568153306,0.1099703313131601]],"b2":[0.3421841933342442]}},{"size":{"inSize":2,"hlSize":5,"outSize":1},"layers":{"w1":[[0.6325738097719472,-0.31596444891774766],[-0.9438014595838552,0.16892820534242212],[-0.6873831884520117,-1.2699977007298935],[0.3023763325598949,0.4492729922720266],[0.23691642760016535,-1.1229593350348193]],"b1":[-0.02194997622321218,-0.2386511638712376,-0.011902641924384574,-0.01554671063295231,0.014620199910782172],"w2":[[-0.071223018831222,-1.2215966698061138,0.42994593884329046,0.04412721545395133,0.11561103897106265]],"b2":[0.344127046259079]}},{"size":{"inSize":2,"hlSize":5,"outSize":1},"layers":{"w1":[[0.6315540313843244,-0.314213250614743],[-0.9438014595838552,0.16892820534242212],[-0.6871888718720495,-1.2697280240136357],[0.30304372361258525,0.44956277569006153],[0.24146095484891922,-1.1228736823743304]],"b1":[-0.022867738003576204,-0.2386511638712376,-0.018455378813193347,-0.013718462122759756,0.01671297719043394],"w2":[[-0.0546798186606314,-1.2215966698061138,0.4290200924911885,0.05100668583410392,0.12435661843679244]],"b2":[0.36436925002162235]}},{"size":{"inSize":2,"hlSize":5,"outSize":1},"layers":{"w1":[[0.6314167786779837,-0.3123222586598415],[-0.9438014595838552,0.16892820534242212],[-0.6872406354658056,-1.2695845456059578],[0.30320418585194037,0.44920872985154375],[0.24601122305453224,-1.1229101316457597]],"b1":[-0.02271442621253774,-0.2386511638712376,-0.02164740301573677,-0.01246303157929864,0.018908163569359846],"w2":[[-0.04216399216966254,-1.2215966698061138,0.42881567974882895,0.04850189004819565,0.13381593108168713]],"b2":[0.37390256212562134]}},{"size":{"inSize":2,"hlSize":5,"outSize":1},"layers":{"w1":[[0.6306188668137982,-0.3113539675574745],[-0.9438014595838552,0.16892820534242212],[-0.6872197487876932,-1.2694949302772038],[0.304147345278365,0.44897166471034083],[0.2518911966133177,-1.1227371372796369]],"b1":[-0.02329788244575592,-0.2386511638712376,-0.023928724233945937,-0.011217576446802432,0.022675247840495624],"w2":[[-0.02335692745112394,-1.2215966698061138,0.4286320490322437,0.051882294569256936,0.14370646500517292]],"b2":[0.383169698858022]}},{"size":{"inSize":2,"hlSize":5,"outSize":1},"layers":{"w1":[[0.6303539224723679,-0.3106771750775035],[-0.9438014595838552,0.16892820534242212],[-0.6871456562855914,-1.2694427801264938],[0.3047624058108157,0.4493298830387198],[0.25762904270818415,-1.1226356676433296]],"b1":[-0.02334370608776617,-0.2386511638712376,-0.025582919352564064,-0.009245541760508022,0.026342811971470304],"w2":[[-0.00722752296600427,-1.2215966698061138,0.4284511493445665,0.058161458977999486,0.15354980862524123]],"b2":[0.4103872252982075]}},{"size":{"inSize":2,"hlSize":5,"outSize":1},"layers":{"w1":[[0.6304400072591363,-0.31041822768018423],[-0.9438014595838552,0.16892820534242212],[-0.6869203299524792,-1.2692832883878205],[0.30411866533941656,0.4499295527485718],[0.26133152294923206,-1.1225449393727682]],"b1":[-0.023255123513255458,-0.2386511638712376,-0.03172748301596809,-0.00728953900292585,0.02807891469804045],"w2":[[-0.0033184370170657356,-1.2215966698061138,0.4279841141391714,0.059110151146300395,0.15939641620670428]],"b2":[0.4257996033902043]}},{"size":{"inSize":2,"hlSize":5,"outSize":1},"layers":{"w1":[[0.6304998281336358,-0.3102771315379582],[-0.94360460888724,0.1656184426775388],[-0.686883398063597,-1.2692779745132612],[0.30303790792386864,0.45025016662139716],[0.26522366582413803,-1.1225079101328503]],"b1":[-0.02318665077881072,-0.24177067959251852,-0.032647933662690504,-0.005975168160976563,0.03010881525333129],"w2":[[-0.0010047924591336057,-1.2215963225685307,0.42797731366430725,0.0558280413881415,0.16587441658003216]],"b2":[0.4412479154841826]}},{"size":{"inSize":2,"hlSize":5,"outSize":1},"layers":{"w1":[[0.6305000509086011,-0.3102483780327737],[-0.94360460888724,0.1656184426775388],[-0.6867236706384937,-1.269154338587131],[0.30303666670730484,0.45068590846382006],[0.27014732708356654,-1.1223909392960887]],"b1":[-0.023185279087579294,-0.24177067959251852,-0.03585806464965811,-0.004448700467071166,0.031719757163968],"w2":[[0.0077660739804809985,-1.2215963225685307,0.4275991666790898,0.05917216372663918,0.1732479126053417]],"b2":[0.45252565681576723]}},{"size":{"inSize":2,"hlSize":5,"outSize":1},"layers":{"w1":[[0.6303896731499268,-0.3105637707171018],[-0.94360460888724,0.1656184426775388],[-0.6865750407172122,-1.269008930266685],[0.30220157337902115,0.4504416673959877],[0.274695613947921,-1.122283116648583]],"b1":[-0.023303119647228802,-0.24177067959251852,-0.03996451921517566,-0.0035875430912076433,0.033255472997608365],"w2":[[0.011756385254117725,-1.2215963225685307,0.4272732451538893,0.052970414217387574,0.17992274575356823]],"b2":[0.45274182998196755]}},{"size":{"inSize":2,"hlSize":5,"outSize":1},"layers":{"w1":[[0.6302661988398042,-0.3110012101373596],[-0.9433460924976991,0.1622294683132523],[-0.6863944205679278,-1.2689292240042715],[0.301671907004293,0.45015635466767734],[0.2794633216150846,-1.1222439470752226]],"b1":[-0.023456541043064525,-0.24499514635410227,-0.04296332639522943,-0.002997866313106065,0.03407223894917019],"w2":[[0.0169953342701013,-1.2215753398655005,0.42702677206161244,0.047482478205852635,0.18710844629698628]],"b2":[0.445300301799392]}},{"size":{"inSize":2,"hlSize":5,"outSize":1},"layers":{"w1":[[0.6299373235968594,-0.3116372892449644],[-0.9433460924976991,0.1622294683132523],[-0.6863273101539651,-1.2687764727329705],[0.30077399933512994,0.45050877797778177],[0.28302009555487573,-1.1221410894295936]],"b1":[-0.0238689806076094,-0.24499514635410227,-0.04513439387628502,-0.0020901867786979164,0.03408080465321513],"w2":[[0.01700809239035805,-1.2215753398655005,0.4266834247713683,0.04506160565377922,0.19180544613498698]],"b2":[0.45035848371264214]}},{"size":{"inSize":2,"hlSize":5,"outSize":1},"layers":{"w1":[[0.6301356635088157,-0.3118428742837326],[-0.9431131467966336,0.15904103885035112],[-0.6862411877765501,-1.2687412844318267],[0.30128085568876006,0.4520580532451214],[0.2876014706518128,-1.1220679357357892]],"b1":[-0.023756176896482194,-0.24797951890529996,-0.047196259407122756,-2.7383698657591576E-4,0.03283991257462283],"w2":[[0.027962711146042617,-1.221570551914043,0.4266583636215027,0.06384954712648044,0.19791706535718184]],"b2":[0.46939137435322487]}},{"size":{"inSize":2,"hlSize":5,"outSize":1},"layers":{"w1":[[0.6302034661849235,-0.31259232198737935],[-0.9431131467966336,0.15904103885035112],[-0.6861998089171881,-1.268536794498886],[0.30147597986427116,0.4524404830487928],[0.2934913797073921,-1.1219387720169025]],"b1":[-0.02380601989373907,-0.24797951890529996,-0.050175386813460954,0.001331400690784916,0.03350280782088603],"w2":[[0.03789089328608591,-1.221570551914043,0.4263132701217672,0.0674709992443448,0.20585364959293484]],"b2":[0.4749257990071431]}},{"size":{"inSize":2,"hlSize":5,"outSize":1},"layers":{"w1":[[0.6297973181053229,-0.3141399805209859],[-0.9431131467966336,0.15904103885035112],[-0.6861451780275304,-1.2683650984592254],[0.30076045056953904,0.4514578725441059],[0.2997110056794487,-1.1217653303960486]],"b1":[-0.024424136304538102,-0.24797951890529996,-0.05251003228024949,0.001643333042571444,0.037112662059121476],"w2":[[0.04429203925157811,-1.221570551914043,0.42598921567604164,0.057690910508709406,0.21436336503861364]],"b2":[0.4664412726629547]}},{"size":{"inSize":2,"hlSize":5,"outSize":1},"layers":{"w1":[[0.6291728589218453,-0.3156921616379817],[-0.9431131467966336,0.15904103885035112],[-0.686108479370179,-1.2682081583494078],[0.29995509272891224,0.45133989125292995],[0.3043026939206238,-1.1215549523737085]],"b1":[-0.025194671929720705,-0.24797951890529996,-0.05581204942245527,0.002089037610497198,0.036252523941232996],"w2":[[0.04684642816404069,-1.221570551914043,0.4258698489502553,0.05258177067908682,0.21953338424081092]],"b2":[0.453798380604302]}},{"size":{"inSize":2,"hlSize":5,"outSize":1},"layers":{"w1":[[0.6289455774534461,-0.31706081782803003],[-0.9431131467966336,0.15904103885035112],[-0.6860588237589117,-1.2680184884223686],[0.2996969755841656,0.4515040503272087],[0.30982549303579654,-1.1213300459881608]],"b1":[-0.025699303080553765,-0.24797951890529996,-0.06000769765713755,0.0029630748452732286,0.03564865907830832],"w2":[[0.053288514104017845,-1.221570551914043,0.42577488482384507,0.052553127355014995,0.2259400005176995]],"b2":[0.4484320263711713]}},{"size":{"inSize":2,"hlSize":5,"outSize":1},"layers":{"w1":[[0.628470939066322,-0.31835551301059456],[-0.9431131467966336,0.15904103885035112],[-0.6860466769029692,-1.2677399936071],[0.29919470595019715,0.4525636796669779],[0.31329771758743086,-1.1212369717927895]],"b1":[-0.026649320269121528,-0.24797951890529996,-0.06411583518103883,0.003856309122682928,0.03199826924342601],"w2":[[0.055847980827843084,-1.221570551914043,0.42550490610499736,0.05884285710427627,0.22966349032566058]],"b2":[0.45102543820314744]}},{"size":{"inSize":2,"hlSize":5,"outSize":1},"layers":{"w1":[[0.6279083212420467,-0.3201828932805539],[-0.9431131467966336,0.15904103885035112],[-0.6860466769029692,-1.2677399936071],[0.29862086335590365,0.45295525573247797],[0.318542210606569,-1.1211668386886036]],"b1":[-0.027393402323859943,-0.24797951890529996,-0.06411583518103883,0.004454751206389406,0.03274442111328254],"w2":[[0.06028855161048728,-1.221570551914043,0.42550490610499736,0.05897592706149844,0.23657938030719525]],"b2":[0.4568124269026009]}},{"size":{"inSize":2,"hlSize":5,"outSize":1},"layers":{"w1":[[0.6277169102003048,-0.32198495927827653],[-0.9427815453821876,0.15586552780238672],[-0.6860466769029692,-1.2677399936071],[0.2984124207068531,0.4534391673490277],[0.3248213544079379,-1.1211528483315356]],"b1":[-0.027759159464221986,-0.25122882468814306,-0.06411583518103883,0.005302497690489561,0.03621791653008397],"w2":[[0.0680316709785031,-1.2215607178978374,0.42550490610499736,0.061701131969455335,0.2454483883193764]],"b2":[0.4688771374984813]}},{"size":{"inSize":2,"hlSize":5,"outSize":1},"layers":{"w1":[[0.6283825279708858,-0.3238503968087879],[-0.9427815453821876,0.15586552780238672],[-0.6860154107790766,-1.2676980360462229],[0.2989929818792402,0.4534900221227041],[0.3337526348810662,-1.1211085231519164]],"b1":[-0.0272550928774777,-0.25122882468814306,-0.06520207929148866,0.006762015694185431,0.04037052669888914],"w2":[[0.08279641037725682,-1.2215607178978374,0.42549316511228347,0.06500812643427072,0.257678145571095]],"b2":[0.4823622919921609]}},{"size":{"inSize":2,"hlSize":5,"outSize":1},"layers":{"w1":[[0.6268157674872553,-0.3265060903257168],[-0.9427815453821876,0.15586552780238672],[-0.6858453053550815,-1.2675700780331876],[0.2977484084593646,0.4540325406817275],[0.3375545105453683,-1.1209098450914006]],"b1":[-0.029136635605044908,-0.25122882468814306,-0.06829486831177149,0.007463475618199809,0.03780063050378314],"w2":[[0.0819123636892138,-1.2215607178978374,0.4253116092248081,0.06314145701486475,0.2613354145583302]],"b2":[0.4734088979073491]}},{"size":{"inSize":2,"hlSize":5,"outSize":1},"layers":{"w1":[[0.6259445660731943,-0.3291438652885126],[-0.9424397436681576,0.15267548799717903],[-0.6858453053550815,-1.2675700780331876],[0.29706362696663147,0.4536747103659858],[0.34321251385127305,-1.1208679292357997]],"b1":[-0.030619194695236936,-0.25438278884210197,-0.06829486831177149,0.0069217398001700705,0.036214242505436554],"w2":[[0.0862873270659806,-1.2215385373560008,0.4253116092248081,0.05727522496109611,0.26823434242796584]],"b2":[0.45271871277013304]}},{"size":{"inSize":2,"hlSize":5,"outSize":1},"layers":{"w1":[[0.6252467394671725,-0.3309970979269001],[-0.9424397436681576,0.15267548799717903],[-0.6858453053550815,-1.2675700780331876],[0.29659303481064025,0.45513368117277453],[0.34674602908943924,-1.1209634617800315]],"b1":[-0.032114851298921505,-0.25438278884210197,-0.06829486831177149,0.007156886731445464,0.03263737443773496],"w2":[[0.08882507148301463,-1.2215385373560008,0.4253116092248081,0.06641931774729377,0.2726718519364903]],"b2":[0.45486622324247994]}},{"size":{"inSize":2,"hlSize":5,"outSize":1},"layers":{"w1":[[0.6246307421207073,-0.3332342092911654],[-0.9424397436681576,0.15267548799717903],[-0.6857300376045202,-1.2674245676679943],[0.2961255932621159,0.45594263002336943],[0.35201202434509654,-1.1207348890523614]],"b1":[-0.03287562580436049,-0.25438278884210197,-0.07049356319553614,0.007689039055878031,0.03068155748063078],"w2":[[0.09310043192671723,-1.2215385373560008,0.42504512025403673,0.06993258049377335,0.27819463885772877]],"b2":[0.4507122789915003]}},{"size":{"inSize":2,"hlSize":5,"outSize":1},"layers":{"w1":[[0.6226359018729792,-0.33733157215307635],[-0.9424397436681576,0.15267548799717903],[-0.685726542424034,-1.2673599264611972],[0.2946125088230748,0.4554477373515575],[0.35840078548759724,-1.1205747971766207]],"b1":[-0.034861681746135346,-0.25438278884210197,-0.07166540650427186,0.00814347359267133,0.03257641461674892],"w2":[[0.09508362101901757,-1.2215385373560008,0.4250410802276885,0.06034889969867023,0.28584265597663494]],"b2":[0.44967393458345195]}},{"size":{"inSize":2,"hlSize":5,"outSize":1},"layers":{"w1":[[0.6215636319596234,-0.34063921271214115],[-0.9424397436681576,0.15267548799717903],[-0.6856041699014693,-1.2673101611711648],[0.29395114383379894,0.45480355690611013],[0.3652903261265029,-1.1204543672518954]],"b1":[-0.036002151388710706,-0.25438278884210197,-0.0727144194408464,0.007573626270669087,0.03170102007781708],"w2":[[0.10021485739648017,-1.2215385373560008,0.42487213965720216,0.05218176717192928,0.29390915261209294]],"b2":[0.42885771513108095]}},{"size":{"inSize":2,"hlSize":5,"outSize":1},"layers":{"w1":[[0.620266567860407,-0.34383233003027064],[-0.9424397436681576,0.15267548799717903],[-0.6855727047847853,-1.267236837077963],[0.29324484967504527,0.4547971447304479],[0.3708470257561829,-1.1204062576121498]],"b1":[-0.03751787255200976,-0.25438278884210197,-0.07372017723750676,0.007471125907152477,0.032263641365184385],"w2":[[0.103568275526951,-1.2215385373560008,0.42477478356948695,0.04813229612015149,0.3006926760749072]],"b2":[0.41625857332971494]}},{"size":{"inSize":2,"hlSize":5,"outSize":1},"layers":{"w1":[[0.6188255486868208,-0.3475070028249471],[-0.9424397436681576,0.15267548799717903],[-0.6855689337623485,-1.267152382323866],[0.2925987439139543,0.45467690963876856],[0.3772106628897304,-1.120269970572088]],"b1":[-0.039614355621790394,-0.25438278884210197,-0.07462827083398718,0.007630981580430867,0.03350333958662871],"w2":[[0.1078969261143009,-1.2215385373560008,0.42467434289767814,0.043084636214026376,0.3081662077205827]],"b2":[0.4106712798699046]}},{"size":{"inSize":2,"hlSize":5,"outSize":1},"layers":{"w1":[[0.6170625035706319,-0.3509650492868518],[-0.9424397436681576,0.15267548799717903],[-0.6855689337623485,-1.267152382323866],[0.2919063615638465,0.4548464530816635],[0.3824897642056117,-1.1200056886109544]],"b1":[-0.04184286908941043,-0.25438278884210197,-0.07462827083398718,0.007670964912256068,0.030578621231003467],"w2":[[0.109740900103181,-1.2215385373560008,0.42467434289767814,0.04017878354315469,0.3133493793004734]],"b2":[0.400156368534812]}},{"size":{"inSize":2,"hlSize":5,"outSize":1},"layers":{"w1":[[0.6176002627449612,-0.35389892136519335],[-0.9424397436681576,0.15267548799717903],[-0.6854035783364588,-1.2669113551006677],[0.292095887505629,0.45484171851583927],[0.3927741166344342,-1.1196309207849229]],"b1":[-0.04133323652203747,-0.25438278884210197,-0.07772920337866396,0.008218352642359785,0.03645859866768306],"w2":[[0.12195323926702793,-1.2215385373560008,0.42423314946922885,0.04160663462841902,0.32513724066331695]],"b2":[0.40466862780890317]}},{"size":{"inSize":2,"hlSize":5,"outSize":1},"layers":{"w1":[[0.6175301285798944,-0.3567861850252732],[-0.9424397436681576,0.15267548799717903],[-0.6853150955978331,-1.2668798134662738],[0.29210516833679034,0.45532953822015076],[0.4001010964242965,-1.1195080388885492]],"b1":[-0.04173246751371489,-0.25438278884210197,-0.07873137372567308,0.009184826047871143,0.03410917640529829],"w2":[[0.13011199036878351,-1.2215385373560008,0.42417962008862076,0.047195514060569335,0.33330182062652225]],"b2":[0.40617013381449096]}},{"size":{"inSize":2,"hlSize":5,"outSize":1},"layers":{"w1":[[0.6153543750955849,-0.36159803651255423],[-0.9424397436681576,0.15267548799717903],[-0.6853150955978331,-1.2668798134662738],[0.29130736570799703,0.4552122908928947],[0.407199198238311,-1.1194212070804375]],"b1":[-0.04444282155257551,-0.25438278884210197,-0.07873137372567308,0.009215087111794307,0.03643416721293408],"w2":[[0.13384968254173696,-1.2215385373560008,0.42417962008862076,0.04113242722598489,0.3417687798750489]],"b2":[0.40470611787182653]}},{"size":{"inSize":2,"hlSize":5,"outSize":1},"layers":{"w1":[[0.6153752835888248,-0.36585871109927204],[-0.9424397436681576,0.15267548799717903],[-0.6853150955978331,-1.2668798134662738],[0.29128031743534977,0.45507755369584973],[0.4179383898764638,-1.1192287837302715]],"b1":[-0.04462730835488024,-0.25438278884210197,-0.07873137372567308,0.009891523054424266,0.04341461198733431],"w2":[[0.1455173741039829,-1.2215385373560008,0.42417962008862076,0.039601275837707735,0.3546778411989484]],"b2":[0.41491132603159164]}},{"size":{"inSize":2,"hlSize":5,"outSize":1},"layers":{"w1":[[0.6131405943831477,-0.3703320835937295],[-0.9424397436681576,0.15267548799717903],[-0.6853099586308055,-1.2668038312906054],[0.2906511280066852,0.4552642467439048],[0.42335235451544195,-1.11876884881488]],"b1":[-0.04718981573633675,-0.25438278884210197,-0.07963055106100249,0.010034286032860685,0.039642635009856916],"w2":[[0.14809993581388645,-1.2215385373560008,0.4241112828621704,0.037154421902697195,0.3591443518381708]],"b2":[0.40335819145723817]}},{"size":{"inSize":2,"hlSize":5,"outSize":1},"layers":{"w1":[[0.6134724293656936,-0.37409295154735606],[-0.9424397436681576,0.15267548799717903],[-0.6853143492416695,-1.2667193126589966],[0.2907335815686089,0.45572208093303085],[0.43316183886130555,-1.118625827397325]],"b1":[-0.04687840217836509,-0.25438278884210197,-0.0807473352750161,0.010931297821421215,0.04468328192681422],"w2":[[0.1587787791686308,-1.2215385373560008,0.4240756095490069,0.04365167360320395,0.3708184458124001]],"b2":[0.4229018024537564]}},{"size":{"inSize":2,"hlSize":5,"outSize":1},"layers":{"w1":[[0.6096957867057012,-0.379385048987706],[-0.9424397436681576,0.15267548799717903],[-0.6852964669226447,-1.2666584081428343],[0.28970757044236745,0.4556541983266491],[0.43678559644603465,-1.1183334069478645]],"b1":[-0.05132274421783428,-0.25438278884210197,-0.08168109363077689,0.010381959399288232,0.03674665941655904],"w2":[[0.15796767491864985,-1.2215385373560008,0.424042583745724,0.035971865560898736,0.3732129601646879]],"b2":[0.3944757903408972]}},{"size":{"inSize":2,"hlSize":5,"outSize":1},"layers":{"w1":[[0.6088558773673028,-0.38274655449705697],[-0.9424397436681576,0.15267548799717903],[-0.685229255412158,-1.266479663730904],[0.2895218475570296,0.4563570156049392],[0.44272611580682136,-1.1182935945954127]],"b1":[-0.052092002362264404,-0.25438278884210197,-0.08351680510101529,0.01069192585916543,0.032307361200338246],"w2":[[0.16304907012750347,-1.2215385373560008,0.4237536387030085,0.04346812333400977,0.3796089878583431]],"b2":[0.39642759343759604]}},{"size":{"inSize":2,"hlSize":5,"outSize":1},"layers":{"w1":[[0.6063344219553003,-0.38761527936977136],[-0.9424397436681576,0.15267548799717903],[-0.6852042073040115,-1.2664228246674063],[0.2888348935934625,0.45654517027916],[0.4479437497064769,-1.1182929639868784]],"b1":[-0.0549293914281331,-0.25438278884210197,-0.0844295258149568,0.010523720782931786,0.03032079080696989],"w2":[[0.16596898865422544,-1.2215385373560008,0.4237231452856976,0.040826626473402364,0.38552322279263623]],"b2":[0.38638229495078213]}},{"size":{"inSize":2,"hlSize":5,"outSize":1},"layers":{"w1":[[0.6021546343304414,-0.39417864525631613],[-0.9424397436681576,0.15267548799717903],[-0.685125234395944,-1.266293092836878],[0.2878360404332374,0.45612166399850074],[0.45382310453016905,-1.1180997708826246]],"b1":[-0.05943847624516721,-0.25438278884210197,-0.08626378265363185,0.009966443650971029,0.027184045066272974],"w2":[[0.16751983905880355,-1.2215385373560008,0.42357318301497304,0.02888054950522178,0.3915474127964444]],"b2":[0.36430727263130547]}},{"size":{"inSize":2,"hlSize":5,"outSize":1},"layers":{"w1":[[0.6026576803000059,-0.39758499522515234],[-0.9424397436681576,0.15267548799717903],[-0.685125234395944,-1.266293092836878],[0.28791104364022324,0.45690072794729186],[0.46325691241773137,-1.117956560219277]],"b1":[-0.05887859223237925,-0.25438278884210197,-0.08626378265363185,0.011080714393581922,0.03290152021460896],"w2":[[0.1771446287810473,-1.2215385373560008,0.42357318301497304,0.04231664729485804,0.4024696667445725]],"b2":[0.39690980359759925]}},{"size":{"inSize":2,"hlSize":5,"outSize":1},"layers":{"w1":[[0.5994347594305206,-0.4030012011642499],[-0.942040420400261,0.14901452291912334],[-0.6850619058724821,-1.2662232488590517],[0.28715927854560436,0.45742161441558604],[0.4688843932197679,-1.1176873168973382]],"b1":[-0.062336356638632885,-0.2580153358586177,-0.08729299179589904,0.011463603630274596,0.03189034872799058],"w2":[[0.1794854985031773,-1.221529351966375,0.4234715537236224,0.04292620928765767,0.40811654687410004]],"b2":[0.3994805661563532]}},{"size":{"inSize":2,"hlSize":5,"outSize":1},"layers":{"w1":[[0.5992576761367387,-0.4080058453519873],[-0.942040420400261,0.14901452291912334],[-0.6850056691211951,-1.2660610880393801],[0.28712068859700574,0.4575929148123568],[0.4800597911904995,-1.1173989613169157]],"b1":[-0.062411949440553095,-0.2580153358586177,-0.08928318090110347,0.0123752203983808,0.034866901904807256],"w2":[[0.19015733513223218,-1.221529351966375,0.42330595134941473,0.04473688525519219,0.42039882672457524]],"b2":[0.40910588870100395]}},{"size":{"inSize":2,"hlSize":5,"outSize":1},"layers":{"w1":[[0.5996450656086013,-0.4116740032249868],[-0.942040420400261,0.14901452291912334],[-0.6850056691211951,-1.2660610880393801],[0.28719544441636147,0.45887896123727606],[0.48886845303812776,-1.1173640430821068]],"b1":[-0.06205914009345849,-0.2580153358586177,-0.08928318090110347,0.01395959234264479,0.03780646031044384],"w2":[[0.19913283138750956,-1.221529351966375,0.42330595134941473,0.058809313921268876,0.4306085604099606]],"b2":[0.4425793810369245]}},{"size":{"inSize":2,"hlSize":5,"outSize":1},"layers":{"w1":[[0.5953433504805536,-0.4193087975803716],[-0.942040420400261,0.14901452291912334],[-0.6850056691211951,-1.2660610880393801],[0.28587363467291926,0.4588285252540552],[0.49559780823059546,-1.1173729204445313]],"b1":[-0.06644099268617866,-0.2580153358586177,-0.08928318090110347,0.014233701261625929,0.039722534187160895],"w2":[[0.2033284133213988,-1.221529351966375,0.42330595134941473,0.05202577449656594,0.4384396371452162]],"b2":[0.4444771784080822]}},{"size":{"inSize":2,"hlSize":5,"outSize":1},"layers":{"w1":[[0.5929088703682905,-0.4241752287927693],[-0.942040420400261,0.14901452291912334],[-0.6849073120845437,-1.26597824580165],[0.28523982399346914,0.45952896923382236],[0.5013004641825265,-1.1170593295150277]],"b1":[-0.06883345041644004,-0.2580153358586177,-0.09110312374254498,0.014291913310566107,0.03525916810103951],"w2":[[0.20701773114850247,-1.221529351966375,0.42328287542674614,0.054736401871358226,0.4436821594252874]],"b2":[0.4365912574861373]}},{"size":{"inSize":2,"hlSize":5,"outSize":1},"layers":{"w1":[[0.5872571980517867,-0.4324494111862537],[-0.942040420400261,0.14901452291912334],[-0.6849442972695944,-1.2658797386772471],[0.2837281526643324,0.4592324741239897],[0.5074515695775,-1.1168845689184888]],"b1":[-0.07433360252848092,-0.2580153358586177,-0.0921660945069244,0.014145973304770288,0.03629528276800743],"w2":[[0.20961350401136353,-1.221529351966375,0.42327688299016114,0.044331576225107784,0.4502744158728839]],"b2":[0.42873829712325295]}},{"size":{"inSize":2,"hlSize":5,"outSize":1},"layers":{"w1":[[0.5845729747351197,-0.4381516725349557],[-0.942040420400261,0.14901452291912334],[-0.6849064551595734,-1.2658021263843842],[0.28313839288220755,0.4596165205215747],[0.5138951281645121,-1.116661669009094]],"b1":[-0.07693396864960647,-0.2580153358586177,-0.09323582301154114,0.014306124934307392,0.030969054269049178],"w2":[[0.21477970113005102,-1.221529351966375,0.42321646185912976,0.04458648763322295,0.4565539720286327]],"b2":[0.4220917435312891]}},{"size":{"inSize":2,"hlSize":5,"outSize":1},"layers":{"w1":[[0.5835468599148104,-0.4423436155068525],[-0.942040420400261,0.14901452291912334],[-0.6849064551595734,-1.2658021263843842],[0.28291160092235146,0.45998899691735207],[0.5205680619859236,-1.1161333882056332]],"b1":[-0.07800960440273791,-0.2580153358586177,-0.09323582301154114,0.014154142276259404,0.02234127515749263],"w2":[[0.22092376759325244,-1.221529351966375,0.42321646185912976,0.046937166429445704,0.46218766104623965]],"b2":[0.40514175790795703]}},{"size":{"inSize":2,"hlSize":5,"outSize":1},"layers":{"w1":[[0.5829475478845315,-0.44730946664788673],[-0.942040420400261,0.14901452291912334],[-0.6849064551595734,-1.2658021263843842],[0.2827747742619974,0.46055109922057275],[0.5298980795324826,-1.116034308974047]],"b1":[-0.07854729294276892,-0.2580153358586177,-0.09323582301154114,0.015000069605335158,0.026749443289736365],"w2":[[0.22947346229243382,-1.221529351966375,0.42321646185912976,0.05187620341228918,0.47266999975747154]],"b2":[0.4167747586421466]}},{"size":{"inSize":2,"hlSize":5,"outSize":1},"layers":{"w1":[[0.5808648294534524,-0.4521473777825789],[-0.942040420400261,0.14901452291912334],[-0.6848312621270995,-1.2657185470457442],[0.28227911939280315,0.46131914215198244],[0.5353235624585414,-1.115695930469561]],"b1":[-0.08071594825356478,-0.2580153358586177,-0.09425339052420864,0.01509013288080043,0.02198417295393789],"w2":[[0.2343553769147831,-1.221529351966375,0.4230689691243031,0.056019052422535555,0.4776837358423455]],"b2":[0.41154656959698505]}},{"size":{"inSize":2,"hlSize":5,"outSize":1},"layers":{"w1":[[0.5768134716064572,-0.45885512758301333],[-0.942040420400261,0.14901452291912334],[-0.6848312621270995,-1.2657185470457442],[0.28121980522070444,0.4609959700428266],[0.5406668273624395,-1.1156163470682603]],"b1":[-0.0847714327464538,-0.2580153358586177,-0.09425339052420864,0.013611586284198358,0.021747537229412226],"w2":[[0.23865202454440232,-1.221529351966375,0.4230689691243031,0.04762156627999082,0.48347497862137145]],"b2":[0.3829448957615193]}},{"size":{"inSize":2,"hlSize":5,"outSize":1},"layers":{"w1":[[0.57528224649251,-0.4633106808244568],[-0.942040420400261,0.14901452291912334],[-0.6848312621270995,-1.2657185470457442],[0.2807091986416477,0.46183308001632045],[0.5466760776854733,-1.115344421544105]],"b1":[-0.08672850410169382,-0.2580153358586177,-0.09425339052420864,0.01395505579741052,0.01802235729233133],"w2":[[0.24421294916916864,-1.221529351966375,0.4230689691243031,0.05280801489487868,0.4894000510332866]],"b2":[0.3879420777980722]}},{"size":{"inSize":2,"hlSize":5,"outSize":1},"layers":{"w1":[[0.5739351869375446,-0.4673950416197649],[-0.9416300498910567,0.14557600149930103],[-0.684751156099784,-1.2656785018500079],[0.27985914857914135,0.46169025531306096],[0.5525421549493941,-1.1150180691221014]],"b1":[-0.08809446180185435,-0.2614770369008544,-0.09498575111851046,0.013262587656677855,0.016702872519494563],"w2":[[0.24927351621146854,-1.2215246011358947,0.4229826531987217,0.04685737507954828,0.4951603048884528]],"b2":[0.3668428339911877]}},{"size":{"inSize":2,"hlSize":5,"outSize":1},"layers":{"w1":[[0.5729890904317563,-0.4708366642460505],[-0.9416300498910567,0.14557600149930103],[-0.684751156099784,-1.2656785018500079],[0.2792152722161231,0.46264365666491464],[0.5576886116069594,-1.1148386460022013]],"b1":[-0.0889834446750777,-0.2614770369008544,-0.09498575111851046,0.013589456508266621,0.01637422042667907],"w2":[[0.2538625064936891,-1.2215246011358947,0.4229826531987217,0.052498249096847166,0.5004880437462812]],"b2":[0.3720933539766734]}},{"size":{"inSize":2,"hlSize":5,"outSize":1},"layers":{"w1":[[0.5710099407001711,-0.4760022038930259],[-0.9416300498910567,0.14557600149930103],[-0.6846806601076014,-1.2656274127947753],[0.2781589082551508,0.4625217866800396],[0.5642640980272832,-1.1146692256464004]],"b1":[-0.09084756950123651,-0.2614770369008544,-0.09593651538484511,0.013443936857712136,0.014780937039890842],"w2":[[0.2596292915161781,-1.2215246011358947,0.4229291628891556,0.04576825589892252,0.507385528715367]],"b2":[0.36317358957669044]}},{"size":{"inSize":2,"hlSize":5,"outSize":1},"layers":{"w1":[[0.573209345752471,-0.47751824670054216],[-0.9416300498910567,0.14557600149930103],[-0.6846538052867432,-1.265410801981446],[0.2782287462457425,0.4637407663036468],[0.5716611950156554,-1.1141283560869593]],"b1":[-0.08848487529733752,-0.2614770369008544,-0.09844528847422344,0.014937799769638783,0.009423933707491648],"w2":[[0.2664192682166868,-1.2215246011358947,0.4228065593512748,0.05895018908531047,0.5142675619633953]],"b2":[0.3762424435352872]}},{"size":{"inSize":2,"hlSize":5,"outSize":1},"layers":{"w1":[[0.5665688716891455,-0.4859739698712758],[-0.9416300498910567,0.14557600149930103],[-0.6846538052867432,-1.265410801981446],[0.27630222487553474,0.4625942121937552],[0.5758757849663182,-1.1138904706580224]],"b1":[-0.09483369586303458,-0.2614770369008544,-0.09844528847422344,0.012848048996872497,0.008877821456865987],"w2":[[0.26939636109401066,-1.2215246011358947,0.4228065593512748,0.040308454382815044,0.518427140086512]],"b2":[0.33708439834839365]}},{"size":{"inSize":2,"hlSize":5,"outSize":1},"layers":{"w1":[[0.5682739067629321,-0.4879102602941999],[-0.9416300498910567,0.14557600149930103],[-0.6846538052867432,-1.265410801981446],[0.27596814272219095,0.4636712239544898],[0.5830218239990618,-1.1137266226487468]],"b1":[-0.09306655887834515,-0.2614770369008544,-0.09844528847422344,0.014107249202664613,0.009547863788500087],"w2":[[0.27585310164974713,-1.2215246011358947,0.4228065593512748,0.05077995563792607,0.5260244865848922]],"b2":[0.36093811699010825]}},{"size":{"inSize":2,"hlSize":5,"outSize":1},"layers":{"w1":[[0.5687601133515949,-0.49055093630734264],[-0.9416300498910567,0.14557600149930103],[-0.6846538052867432,-1.265410801981446],[0.27495161123836465,0.46394894834463035],[0.5892890271458948,-1.1134966485259135]],"b1":[-0.092607557593944,-0.2614770369008544,-0.09844528847422344,0.01425498536100319,0.01000387960366311],"w2":[[0.2813705084122455,-1.2215246011358947,0.4228065593512748,0.04783246690877134,0.5324921358494653]],"b2":[0.3607899212406334]}},{"size":{"inSize":2,"hlSize":5,"outSize":1},"layers":{"w1":[[0.5687958399492329,-0.4921539252787466],[-0.9416300498910567,0.14557600149930103],[-0.6846538052867432,-1.265410801981446],[0.273732921343362,0.4646503152457503],[0.5924151467045609,-1.1134230380508685]],"b1":[-0.09256175436991546,-0.2614770369008544,-0.09844528847422344,0.014220292524694512,0.008016937820820578],"w2":[[0.2842223562635203,-1.2215246011358947,0.4228065593512748,0.04761970640144329,0.5357604391588797]],"b2":[0.36006462232651204]}},{"size":{"inSize":2,"hlSize":5,"outSize":1},"layers":{"w1":[[0.5716700985549699,-0.49268896111494187],[-0.9416300498910567,0.14557600149930103],[-0.6846478338424377,-1.2653286159945818],[0.273444874732211,0.465577630192378],[0.598732905908541,-1.1132686445283924]],"b1":[-0.08973199221900459,-0.2614770369008544,-0.0993242768171469,0.014667181056963054,0.008302867686450199],"w2":[[0.2899793227358368,-1.2215246011358947,0.42275557824382703,0.055145671063274546,0.542429694597715]],"b2":[0.36553228846818947]}},{"size":{"inSize":2,"hlSize":5,"outSize":1},"layers":{"w1":[[0.5739796287527571,-0.49381826078926006],[-0.9416300498910567,0.14557600149930103],[-0.684642511734645,-1.2652462596365615],[0.27324498246028706,0.46702657578389706],[0.6050884835301258,-1.1131668944433377]],"b1":[-0.08736129137225655,-0.2614770369008544,-0.10032892493884915,0.015890890392117465,0.008398577045584561],"w2":[[0.2957175081811964,-1.2215246011358947,0.4227364994229779,0.06671295262140142,0.5492376053329732]],"b2":[0.3818076667535039]}},{"size":{"inSize":2,"hlSize":5,"outSize":1},"layers":{"w1":[[0.574892190992861,-0.4955940210792285],[-0.9416300498910567,0.14557600149930103],[-0.6846555026477582,-1.265156534328673],[0.27254703824133325,0.468035762988641],[0.6102954554946822,-1.1127359229626217]],"b1":[-0.0863987143854659,-0.2614770369008544,-0.10136739360526707,0.016888608703790796,0.004923642206966198],"w2":[[0.30016974042556366,-1.2215246011358947,0.4227354537741324,0.07115679912158047,0.5540474563909009]],"b2":[0.3863601583614291]}},{"size":{"inSize":2,"hlSize":5,"outSize":1},"layers":{"w1":[[0.574153219520029,-0.4981138132057754],[-0.9416300498910567,0.14557600149930103],[-0.6846555026477582,-1.265156534328673],[0.27118128706855876,0.469600986578133],[0.6137831423127277,-1.1123599955140082]],"b1":[-0.08705950155990053,-0.2614770369008544,-0.10136739360526707,0.01736909476595798,-0.0010590737534050196],"w2":[[0.3031049335076044,-1.2215246011358947,0.4227354537741324,0.07633499608211791,0.5570810497528769]],"b2":[0.3867625998196367]}},{"size":{"inSize":2,"hlSize":5,"outSize":1},"layers":{"w1":[[0.5725174758626814,-0.5013602056003085],[-0.9411070369042508,0.1417775979125228],[-0.6846307264234583,-1.2650950634773637],[0.2697565809847427,0.47126600787672124],[0.6170928576404366,-1.1118913190494608]],"b1":[-0.0884645648522721,-0.26526412414535916,-0.10223303530528303,0.01849874885442296,-0.0065106199030856154],"w2":[[0.30574504070830566,-1.2214794077768136,0.4227189290551443,0.08177369530541628,0.559802169263432]],"b2":[0.3914436338206176]}},{"size":{"inSize":2,"hlSize":5,"outSize":1},"layers":{"w1":[[0.5728007601396073,-0.5034609024807691],[-0.9411070369042508,0.1417775979125228],[-0.6846307264234583,-1.2650950634773637],[0.26882600826971814,0.47219937431021775],[0.6217988290910594,-1.1115982767413366]],"b1":[-0.08801440052642734,-0.26526412414535916,-0.10223303530528303,0.01798606480193102,-0.009974611511084398],"w2":[[0.309589967923307,-1.2214794077768136,0.4227189290551443,0.08396696472828787,0.5644479942484455]],"b2":[0.38097491989811366]}},{"size":{"inSize":2,"hlSize":5,"outSize":1},"layers":{"w1":[[0.5740223859237841,-0.5041929106864304],[-0.9411070369042508,0.1417775979125228],[-0.6845690437200938,-1.265040936896384],[0.26752620226964935,0.4735086244021707],[0.6255740523867395,-1.1112766069267133]],"b1":[-0.08668990704098521,-0.26526412414535916,-0.10308785796513589,0.01851219550478298,-0.014492911047037291],"w2":[[0.31266407008459374,-1.2214794077768136,0.42266377649951986,0.08728098754105111,0.5680531626899907]],"b2":[0.3783478921709693]}},{"size":{"inSize":2,"hlSize":5,"outSize":1},"layers":{"w1":[[0.5736989618648138,-0.5055601182268529],[-0.9411070369042508,0.1417775979125228],[-0.6845176703175674,-1.2649028576503467],[0.26523930615883307,0.4738122838082612],[0.6274283922232138,-1.1110383658513165]],"b1":[-0.08691797375355861,-0.26526412414535916,-0.10479252279310447,0.016788979843578238,-0.02149952621506348],"w2":[[0.3143382464019856,-1.2214794077768136,0.4225830638952086,0.08155328207908885,0.5698079657048327]],"b2":[0.35457143514591644]}},{"size":{"inSize":2,"hlSize":5,"outSize":1},"layers":{"w1":[[0.5749229481453569,-0.5069174575675478],[-0.9411070369042508,0.1417775979125228],[-0.6844194678191404,-1.2648021261463145],[0.26405370989125276,0.47479822040276526],[0.6323676874420726,-1.1106786853144175]],"b1":[-0.08559339834449699,-0.26526412414535916,-0.10625751022005436,0.017426939929634493,-0.023036340918418198],"w2":[[0.31838893670128915,-1.2214794077768136,0.4224857642447231,0.08355679233637041,0.574603398788261]],"b2":[0.3513339669057034]}},{"size":{"inSize":2,"hlSize":5,"outSize":1},"layers":{"w1":[[0.5755489282830953,-0.5082351152688043],[-0.9411070369042508,0.1417775979125228],[-0.6844194678191404,-1.2648021261463145],[0.26217625235426334,0.47569075508077263],[0.6360585326380805,-1.1105257826398005]],"b1":[-0.08492552784983984,-0.26526412414535916,-0.10625751022005436,0.016907874232917803,-0.02137266205619246],"w2":[[0.32143762533632536,-1.2214794077768136,0.4224857642447231,0.08258713474791554,0.5783030295783252]],"b2":[0.34512183642291616]}},{"size":{"inSize":2,"hlSize":5,"outSize":1},"layers":{"w1":[[0.5740495128753909,-0.5114678791623839],[-0.9411070369042508,0.1417775979125228],[-0.6843379790278573,-1.2646910065186578],[0.2600900921258746,0.47508038717235224],[0.6395679916947318,-1.1102144095550703]],"b1":[-0.08635632332666769,-0.26526412414535916,-0.10768306938634364,0.014620090959426815,-0.02404389045239798],"w2":[[0.3242423009224714,-1.2214794077768136,0.4223796293341687,0.07198052396940668,0.5816637672914204]],"b2":[0.3122064625755445]}},{"size":{"inSize":2,"hlSize":5,"outSize":1},"layers":{"w1":[[0.5757171041505776,-0.5125696272965911],[-0.9411070369042508,0.1417775979125228],[-0.6843379790278573,-1.2646910065186578],[0.2595483731525167,0.47762506285821027],[0.644626303303552,-1.1099896414113353]],"b1":[-0.0846326391493878,-0.26526412414535916,-0.10768306938634364,0.01698133757227612,-0.02327896012067591],"w2":[[0.3284735122997065,-1.2214794077768136,0.4223796293341687,0.08729788138548544,0.5867649986742056]],"b2":[0.3403054949195847]}},{"size":{"inSize":2,"hlSize":5,"outSize":1},"layers":{"w1":[[0.5746007261390536,-0.5157194124800615],[-0.9411070369042508,0.1417775979125228],[-0.6843379790278573,-1.2646910065186578],[0.2580789520278591,0.4788292811665597],[0.648476678919946,-1.109707119832438]],"b1":[-0.08561781432965589,-0.26526412414535916,-0.10768306938634364,0.01707164760543617,-0.025161128998867747],"w2":[[0.33168577824397405,-1.2214794077768136,0.4223796293341687,0.08953519304642218,0.5905352854382925]],"b2":[0.3374790913431038]}},{"size":{"inSize":2,"hlSize":5,"outSize":1},"layers":{"w1":[[0.5751361642624675,-0.5177311579483237],[-0.9411070369042508,0.1417775979125228],[-0.6843379790278573,-1.2646910065186578],[0.2569371050535692,0.47830065553772333],[0.6532387734052677,-1.10941175863981]],"b1":[-0.08496430430184085,-0.26526412414535916,-0.10768306938634364,0.015275413633282093,-0.02584974390067025],"w2":[[0.3355726112341286,-1.2214794077768136,0.4223796293341687,0.08307435062156186,0.5952389317656687]],"b2":[0.31001758108217065]}},{"size":{"inSize":2,"hlSize":5,"outSize":1},"layers":{"w1":[[0.5749011570580422,-0.5200695590287974],[-0.9411070369042508,0.1417775979125228],[-0.6843303231346924,-1.264589496259702],[0.2544185809838727,0.4774031332054801],[0.6571237886835464,-1.1092678851766844]],"b1":[-0.08504246892883308,-0.26526412414535916,-0.10852294589881276,0.01377568744208196,-0.02565257948415067],"w2":[[0.3387973772726552,-1.2214794077768136,0.42227740411718334,0.06984166528572053,0.599225786332763]],"b2":[0.2884778944579115]}},{"size":{"inSize":2,"hlSize":5,"outSize":1},"layers":{"w1":[[0.5784403219982899,-0.5199775326309334],[-0.9411070369042508,0.1417775979125228],[-0.6842856113036511,-1.26453397498457],[0.25385187349050403,0.478448428434163],[0.6633004822703279,-1.108777409609885]],"b1":[-0.08145948996752617,-0.26526412414535916,-0.10928974623010385,0.014352707530513379,-0.029028692444353785],"w2":[[0.3437623050639002,-1.2214794077768136,0.42223573991233626,0.07503620278570726,0.6052358573022857]],"b2":[0.29078993685516236]}},{"size":{"inSize":2,"hlSize":5,"outSize":1},"layers":{"w1":[[0.5802817199180321,-0.5203391033036349],[-0.9411070369042508,0.1417775979125228],[-0.6843175078433629,-1.2644308656847154],[0.25226505489769024,0.4801611847599294],[0.6674146796113246,-1.1084470577093142]],"b1":[-0.08020926722987762,-0.26526412414535916,-0.11009274063706484,0.01572705856577759,-0.02973457773312852],"w2":[[0.34711143586844556,-1.2214794077768136,0.4221864787705124,0.08085172038829538,0.6091734185919209]],"b2":[0.30720400822754357]}},{"size":{"inSize":2,"hlSize":5,"outSize":1},"layers":{"w1":[[0.5815659606387497,-0.5219571240328276],[-0.9411070369042508,0.1417775979125228],[-0.6843175078433629,-1.2644308656847154],[0.25132028477813634,0.4820303608433666],[0.6728575921031605,-1.108083998880196]],"b1":[-0.07879844295336211,-0.26526412414535916,-0.11009274063706484,0.016939280162717143,-0.02709871015651414],"w2":[[0.3513578522518883,-1.2214794077768136,0.4221864787705124,0.08924038538473128,0.6143474325925877]],"b2":[0.3205085637738963]}},{"size":{"inSize":2,"hlSize":5,"outSize":1},"layers":{"w1":[[0.5810752311749898,-0.5244968684183807],[-0.9411070369042508,0.1417775979125228],[-0.6843175078433629,-1.2644308656847154],[0.2501606989212512,0.4845648785781072],[0.6767763587230252,-1.107957686495554]],"b1":[-0.07919014678003164,-0.26526412414535916,-0.11009274063706484,0.0194763342487435,-0.02525573924464514],"w2":[[0.35440634474474764,-1.2214794077768136,0.4221864787705124,0.10014646693311463,0.6183303010399753]],"b2":[0.3471632620266438]}},{"size":{"inSize":2,"hlSize":5,"outSize":1},"layers":{"w1":[[0.5792319933098353,-0.5274278709922753],[-0.9411070369042508,0.1417775979125228],[-0.6842841805934194,-1.2642637843156481],[0.24806084732869677,0.48436782357517383],[0.6790450501867793,-1.1075284397200809]],"b1":[-0.08088260302686413,-0.26526412414535916,-0.11186078746231928,0.018045934750306497,-0.028940920783278635],"w2":[[0.35610007193173276,-1.2214794077768136,0.42209310737618905,0.09366950140253893,0.6201948085138714]],"b2":[0.3270675631157506]}},{"size":{"inSize":2,"hlSize":5,"outSize":1},"layers":{"w1":[[0.5791593443873222,-0.5291295100267266],[-0.9411070369042508,0.1417775979125228],[-0.6842841805934194,-1.2642637843156481],[0.2450746086645251,0.4835010485867],[0.6821241526967244,-1.107416536434962]],"b1":[-0.08082827329790222,-0.26526412414535916,-0.11186078746231928,0.016290013658740058,-0.027759046898198705],"w2":[[0.358489897180636,-1.2214794077768136,0.42209310737618905,0.08094076870246945,0.6233111014957106]],"b2":[0.3083216419218235]}},{"size":{"inSize":2,"hlSize":5,"outSize":1},"layers":{"w1":[[0.5792970186790224,-0.5304194170581397],[-0.9411070369042508,0.1417775979125228],[-0.6842841805934194,-1.2642637843156481],[0.24395296385351953,0.4854633657420551],[0.6846100386399202,-1.1070877270225983]],"b1":[-0.08061239717911454,-0.26526412414535916,-0.11186078746231928,0.017102780230231547,-0.03165514890669262],"w2":[[0.3605675410416247,-1.2214794077768136,0.42209310737618905,0.08943013356423504,0.6256208725507026]],"b2":[0.31139370842609776]}},{"size":{"inSize":2,"hlSize":5,"outSize":1},"layers":{"w1":[[0.5811664542860954,-0.5303336155374018],[-0.9411070369042508,0.1417775979125228],[-0.6842841805934194,-1.2642637843156481],[0.24229236712870367,0.4859041758960296],[0.6878178982661097,-1.1066924252876924]],"b1":[-0.0794807270522313,-0.26526412414535916,-0.11186078746231928,0.016478632062502056,-0.03647643379536706],"w2":[[0.363191795672809,-1.2214794077768136,0.42209310737618905,0.08717379140433659,0.6286756262815568]],"b2":[0.2986040491262648]}},{"size":{"inSize":2,"hlSize":5,"outSize":1},"layers":{"w1":[[0.5833948757127686,-0.5302939601847547],[-0.9411070369042508,0.1417775979125228],[-0.6842841805934194,-1.2642637843156481],[0.24150413726189615,0.4877712241905652],[0.6916335110496903,-1.1065688004625098]],"b1":[-0.07721494740781203,-0.26526412414535916,-0.11186078746231928,0.017931544101785598,-0.03463941918474303],"w2":[[0.3662038884904482,-1.2214794077768136,0.42209310737618905,0.09566449111619725,0.6325259813212207]],"b2":[0.3094722665923174]}},{"size":{"inSize":2,"hlSize":5,"outSize":1},"layers":{"w1":[[0.5832884539058707,-0.5318145888874878],[-0.9411070369042508,0.1417775979125228],[-0.6842841805934194,-1.2642637843156481],[0.23951673335979304,0.488247265442001],[0.6944254052749582,-1.106423484795797]],"b1":[-0.07719319739781821,-0.26526412414535916,-0.11186078746231928,0.017155422621094367,-0.033667334423941354],"w2":[[0.3682317611520904,-1.2214794077768136,0.42209310737618905,0.09292905506990301,0.635271312615532]],"b2":[0.2984870624504346]}},{"size":{"inSize":2,"hlSize":5,"outSize":1},"layers":{"w1":[[0.5821314950101983,-0.5339489775530862],[-0.9411070369042508,0.1417775979125228],[-0.6842841805934194,-1.2642637843156481],[0.23718288045425345,0.49120557797537834],[0.6963406833010293,-1.1063487699343872]],"b1":[-0.07821713013251835,-0.26526412414535916,-0.11186078746231928,0.01968151706542549,-0.03279343042162557],"w2":[[0.3696963249508688,-1.2214794077768136,0.42209310737618905,0.1029229950463924,0.6371884925662948]],"b2":[0.32257012060261225]}},{"size":{"inSize":2,"hlSize":5,"outSize":1},"layers":{"w1":[[0.5802894937544194,-0.5364718912905705],[-0.9411070369042508,0.1417775979125228],[-0.6842841805934194,-1.2642637843156481],[0.2336074546038688,0.49083181819175536],[0.6977430407619711,-1.1063150781869566]],"b1":[-0.07994649583475497,-0.26526412414535916,-0.11186078746231928,0.018116559821119375,-0.03314841690803904],"w2":[[0.37080557668059627,-1.2214794077768136,0.42209310737618905,0.09260048718685232,0.6386808060104232]],"b2":[0.30589646804296283]}},{"size":{"inSize":2,"hlSize":5,"outSize":1},"layers":{"w1":[[0.5803870192460006,-0.5379362558548445],[-0.9406300546856105,0.13793475194688862],[-0.6842521377405144,-1.264185512059646],[0.23244218498477665,0.4924742510570355],[0.7007994841823344,-1.1060812522695784]],"b1":[-0.0797258442314091,-0.26886598221216346,-0.11267124032698535,0.019354400803348763,-0.033936591212804755],"w2":[[0.37302923019294665,-1.2214480711312954,0.42202149924103277,0.09860874996154972,0.641655772066307]],"b2":[0.3123956271644778]}},{"size":{"inSize":2,"hlSize":5,"outSize":1},"layers":{"w1":[[0.5833068012282154,-0.5378511440910457],[-0.9406300546856105,0.13793475194688862],[-0.6842521377405144,-1.264185512059646],[0.23131536689865456,0.4930016514030988],[0.7058001092125007,-1.1059139944674057]],"b1":[-0.07747520649527241,-0.26886598221216346,-0.11267124032698535,0.018839223476261997,-0.03116226420812478],"w2":[[0.3769682911175455,-1.2214480711312954,0.42202149924103277,0.09848543518409011,0.6466822732861368]],"b2":[0.30588958699141394]}},{"size":{"inSize":2,"hlSize":5,"outSize":1},"layers":{"w1":[[0.5833599064705091,-0.5391134753733109],[-0.9406300546856105,0.13793475194688862],[-0.6842521377405144,-1.264185512059646],[0.22896821174740253,0.49443927343263583],[0.7083986685548175,-1.1057874096240188]],"b1":[-0.07727304292949425,-0.26886598221216346,-0.11267124032698535,0.019600440076049032,-0.02975247591461987],"w2":[[0.3788099853017865,-1.2214480711312954,0.42202149924103277,0.1003147179503771,0.6492339735425058]],"b2":[0.3116921901989197]}},{"size":{"inSize":2,"hlSize":5,"outSize":1},"layers":{"w1":[[0.5815965376320694,-0.540596924146538],[-0.9406300546856105,0.13793475194688862],[-0.6842233118885624,-1.2641354155053932],[0.22584341063434532,0.49410648104497024],[0.7081246657384952,-1.1055635669183372]],"b1":[-0.07894712778942256,-0.26886598221216346,-0.11336950104203532,0.017394398447297715,-0.034036569761591015],"w2":[[0.3785471363020057,-1.2214480711312954,0.42201111685984555,0.09111103224106154,0.6487500751487887]],"b2":[0.2847910674183211]}},{"size":{"inSize":2,"hlSize":5,"outSize":1},"layers":{"w1":[[0.5824844519254814,-0.5412382015389334],[-0.9406300546856105,0.13793475194688862],[-0.6842233118885624,-1.2641354155053932],[0.2242260215661071,0.4947981982545407],[0.7106756768340341,-1.105252570142776]],"b1":[-0.07803277845412954,-0.26886598221216346,-0.11336950104203532,0.016695598458181946,-0.03675653388352757],"w2":[[0.3806364275287858,-1.2214480711312954,0.42201111685984555,0.09071975237337403,0.651147277835914]],"b2":[0.2726694031541891]}},{"size":{"inSize":2,"hlSize":5,"outSize":1},"layers":{"w1":[[0.5821505922957115,-0.5430904908941885],[-0.9406300546856105,0.13793475194688862],[-0.6842233118885624,-1.2641354155053932],[0.22308829957596543,0.49732312290141323],[0.7135053174998037,-1.1050757410485157]],"b1":[-0.07831315134572345,-0.26886598221216346,-0.11336950104203532,0.018498975633501752,-0.036816251648961344],"w2":[[0.3828168283827555,-1.2214480711312954,0.42201111685984555,0.10201089597653593,0.6539388290937883]],"b2":[0.286389783890481]}},{"size":{"inSize":2,"hlSize":5,"outSize":1},"layers":{"w1":[[0.5816113760531446,-0.5443376661032485],[-0.9406300546856105,0.13793475194688862],[-0.6842233118885624,-1.2641354155053932],[0.22069701727761137,0.4971131112116982],[0.7148269106612326,-1.1048316483141924]],"b1":[-0.07875218235137371,-0.26886598221216346,-0.11336950104203532,0.016817592456374222,-0.039604163112334716],"w2":[[0.3838559829173281,-1.2214480711312954,0.42201111685984555,0.09545262951744195,0.6551252752940693]],"b2":[0.2655307080994618]}},{"size":{"inSize":2,"hlSize":5,"outSize":1},"layers":{"w1":[[0.583177793133928,-0.5443090689589116],[-0.9406300546856105,0.13793475194688862],[-0.6842233118885624,-1.2641354155053932],[0.2195705174888077,0.4991861019842777],[0.7174081509500568,-1.1046640964878989]],"b1":[-0.07714120422151623,-0.26886598221216346,-0.11336950104203532,0.016723275119715206,-0.039779268755260604],"w2":[[0.3858583261965285,-1.2214480711312954,0.42201111685984555,0.10362746516662891,0.6576697632511377]],"b2":[0.2627676942473593]}},{"size":{"inSize":2,"hlSize":5,"outSize":1},"layers":{"w1":[[0.5845196507343562,-0.5453787032573203],[-0.9406300546856105,0.13793475194688862],[-0.6841672971740527,-1.2641049759545562],[0.21878277429841098,0.503897260769501],[0.7218720327168229,-1.1045143205369932]],"b1":[-0.07566427235204429,-0.26886598221216346,-0.1139731035328821,0.021791418339824696,-0.03523471946144568],"w2":[[0.3890999846377921,-1.2214480711312954,0.42199126862795805,0.12547047521842586,0.6620126635344393]],"b2":[0.3070847988320448]}},{"size":{"inSize":2,"hlSize":5,"outSize":1},"layers":{"w1":[[0.584718012409631,-0.5453263216081827],[-0.9406300546856105,0.13793475194688862],[-0.6841672971740527,-1.2641049759545562],[0.2156530760561964,0.5067677583854131],[0.7221557915455951,-1.1042902956285399]],"b1":[-0.07544238057758038,-0.26886598221216346,-0.1139731035328821,0.022702549980496627,-0.03726686553274692],"w2":[[0.38928140120011745,-1.2214480711312954,0.42199126862795805,0.1316995635432994,0.6620564707624697]],"b2":[0.30933154122421375]}},{"size":{"inSize":2,"hlSize":5,"outSize":1},"layers":{"w1":[[0.5824663382906115,-0.548341672106793],[-0.9406300546856105,0.13793475194688862],[-0.6841672971740527,-1.2641049759545562],[0.21294134941863732,0.5100647263658168],[0.7239912646973212,-1.1039992262873748]],"b1":[-0.07746770707242633,-0.26886598221216346,-0.1139731035328821,0.024067017091213092,-0.03948207835505338],"w2":[[0.39051585789657345,-1.2214480711312954,0.42199126862795805,0.14018085030546162,0.6636977605984649]],"b2":[0.31694865176133924]}},{"size":{"inSize":2,"hlSize":5,"outSize":1},"layers":{"w1":[[0.5813194986100054,-0.5497815807480398],[-0.9406300546856105,0.13793475194688862],[-0.6841672971740527,-1.2641049759545562],[0.20995126488180837,0.5112240319996679],[0.7247336289974479,-1.1037992457258645]],"b1":[-0.07924531665308904,-0.26886598221216346,-0.1139731035328821,0.022856150052686888,-0.04181887020450776],"w2":[[0.3911797841768885,-1.2214480711312954,0.42199126862795805,0.13964915369502942,0.6643139270322131]],"b2":[0.3069391684127034]}},{"size":{"inSize":2,"hlSize":5,"outSize":1},"layers":{"w1":[[0.581481996318774,-0.5497536342837452],[-0.9406300546856105,0.13793475194688862],[-0.6841672971740527,-1.2641049759545562],[0.20520676970885385,0.5107520407493603],[0.7249200003569035,-1.1036072041545855]],"b1":[-0.07905253849679256,-0.26886598221216346,-0.1139731035328821,0.020407200007983226,-0.04367614883060189],"w2":[[0.3913429364455191,-1.2214480711312954,0.42199126862795805,0.13038751788622185,0.6643150764044011]],"b2":[0.286187108596333]}},{"size":{"inSize":2,"hlSize":5,"outSize":1},"layers":{"w1":[[0.5827394863623842,-0.5496850135972177],[-0.9406300546856105,0.13793475194688862],[-0.6841672971740527,-1.2641049759545562],[0.2033966770243895,0.5140864844903781],[0.7269010567759465,-1.103170112225875]],"b1":[-0.07774285909402102,-0.26886598221216346,-0.1139731035328821,0.022398351225969323,-0.04728827460580215],"w2":[[0.3928504374446586,-1.2214480711312954,0.42199126862795805,0.14091202603112898,0.6659882182628779]],"b2":[0.29564019945753206]}},{"size":{"inSize":2,"hlSize":5,"outSize":1},"layers":{"w1":[[0.5815483946570165,-0.5502691952902906],[-0.9406300546856105,0.13793475194688862],[-0.6841672971740527,-1.2641049759545562],[0.19974228685538062,0.5174066413929389],[0.7261532242137005,-1.1030244974680836]],"b1":[-0.07945846534075975,-0.26886598221216346,-0.1139731035328821,0.023969211154848843,-0.048992929585639465],"w2":[[0.3922405256584993,-1.2214480711312954,0.42199126862795805,0.14799972233080572,0.6650518234159621]],"b2":[0.3023012768202054]}},{"size":{"inSize":2,"hlSize":5,"outSize":1},"layers":{"w1":[[0.5813935597951723,-0.5502430869340548],[-0.9406300546856105,0.13793475194688862],[-0.6841672971740527,-1.2641049759545562],[0.19502117533222624,0.5185899106310133],[0.7258780987422623,-1.1028039954141995]],"b1":[-0.07960268280371643,-0.26886598221216346,-0.1139731035328821,0.02340568377743396,-0.05129186837684913],"w2":[[0.3920035504222441,-1.2214480711312954,0.42199126862795805,0.14567349123335996,0.6645550641298841]],"b2":[0.29378525510213366]}},{"size":{"inSize":2,"hlSize":5,"outSize":1},"layers":{"w1":[[0.5825694791360775,-0.5502177036885468],[-0.9406300546856105,0.13793475194688862],[-0.6841672971740527,-1.2641049759545562],[0.19171130231219535,0.5218877692521983],[0.7278217481775205,-1.1023677249942543]],"b1":[-0.07837289724439613,-0.26886598221216346,-0.1139731035328821,0.026047001357493278,-0.05542799277499154],"w2":[[0.3934622380944989,-1.2214480711312954,0.42199126862795805,0.1534069691335848,0.6662733285813107]],"b2":[0.30254273483414146]}},{"size":{"inSize":2,"hlSize":5,"outSize":1},"layers":{"w1":[[0.5830988922092302,-0.5502093937817616],[-0.9406300546856105,0.13793475194688862],[-0.6841285243150276,-1.2640532957386184],[0.18744137261467836,0.521757052065941],[0.7283919858292023,-1.1022303751925187]],"b1":[-0.07781655401392526,-0.26886598221216346,-0.1145853719298367,0.024373177801728766,-0.059503088933261686],"w2":[[0.39412366220185724,-1.2214480711312954,0.42193895898903105,0.14734198021218703,0.6670080057107648]],"b2":[0.288840415708216]}},{"size":{"inSize":2,"hlSize":5,"outSize":1},"layers":{"w1":[[0.5835793518781772,-0.5501555747187571],[-0.9406300546856105,0.13793475194688862],[-0.6841437174410296,-1.2639833007429218],[0.18145431910425777,0.5216206390629443],[0.7291810898435499,-1.1020286435160855]],"b1":[-0.0773391117824902,-0.26886598221216346,-0.11525073628489013,0.02309795581456586,-0.05974689288765251],"w2":[[0.3946650933767872,-1.2214480711312954,0.42193459264173816,0.13903153681591787,0.6675581180690456]],"b2":[0.2786086499190164]}},{"size":{"inSize":2,"hlSize":5,"outSize":1},"layers":{"w1":[[0.583822814536441,-0.550877211324007],[-0.9406300546856105,0.13793475194688862],[-0.6841437174410296,-1.2639833007429218],[0.1784544116076133,0.5245837933467977],[0.7309517318340254,-1.1019930525904151]],"b1":[-0.07696535667078389,-0.26886598221216346,-0.11525073628489013,0.024711180788989633,-0.05783060243216037],"w2":[[0.39595780028655403,-1.2214480711312954,0.42193459264173816,0.14650148559135,0.6692619458039306]],"b2":[0.28748981781970223]}},{"size":{"inSize":2,"hlSize":5,"outSize":1},"layers":{"w1":[[0.583459739461142,-0.5516746726278716],[-0.9406300546856105,0.13793475194688862],[-0.6841437174410296,-1.2639833007429218],[0.17400225116487958,0.5259819892764072],[0.7318264224296681,-1.1018853005085034]],"b1":[-0.07722533733011752,-0.26886598221216346,-0.11525073628489013,0.024158583618611736,-0.057861843988414687],"w2":[[0.39658246597278823,-1.2214480711312954,0.42193459264173816,0.1459916472380161,0.6700425389354088]],"b2":[0.28220758510655153]}},{"size":{"inSize":2,"hlSize":5,"outSize":1},"layers":{"w1":[[0.5832814290988216,-0.5531893173251878],[-0.9406300546856105,0.13793475194688862],[-0.6841437174410296,-1.2639833007429218],[0.1704504266574834,0.524620818067713],[0.734403595825144,-1.1017998342721549]],"b1":[-0.0773090735302099,-0.26886598221216346,-0.11525073628489013,0.020951006230891998,-0.0560322266532228],"w2":[[0.3984434175266733,-1.2214480711312954,0.42193459264173816,0.13632350831800336,0.6725588038972441]],"b2":[0.25883900210538635]}},{"size":{"inSize":2,"hlSize":5,"outSize":1},"layers":{"w1":[[0.5847410582978403,-0.5530815034361088],[-0.9406300546856105,0.13793475194688862],[-0.6841437174410296,-1.2639833007429218],[0.16854763333527545,0.5288836764913505],[0.7367820024445603,-1.1015220941828319]],"b1":[-0.0765443095652965,-0.26886598221216346,-0.11525073628489013,0.023830403813448496,-0.05678469521158962],"w2":[[0.4002820974687617,-1.2214480711312954,0.42193459264173816,0.15079187581333348,0.674763605721956]],"b2":[0.27500989268042614]}},{"size":{"inSize":2,"hlSize":5,"outSize":1},"layers":{"w1":[[0.5849547659977312,-0.553074159297138],[-0.9406300546856105,0.13793475194688862],[-0.6841437174410296,-1.2639833007429218],[0.16500354408810014,0.5335252030131233],[0.7371422538249264,-1.1015097140196313]],"b1":[-0.07631878462943241,-0.26886598221216346,-0.11525073628489013,0.026771520771777226,-0.056404523278180234],"w2":[[0.4005410126421533,-1.2214480711312954,0.42193459264173816,0.1635748440655003,0.6751047648490871]],"b2":[0.29315517916235106]}},{"size":{"inSize":2,"hlSize":5,"outSize":1},"layers":{"w1":[[0.5837612259256563,-0.5538130705548681],[-0.9406300546856105,0.13793475194688862],[-0.684154416141291,-1.2639072843727557],[0.16101315406933472,0.5372152604405315],[0.7365768480515997,-1.1013206920222025]],"b1":[-0.07744041510873421,-0.26886598221216346,-0.11592500907750995,0.027769536373903742,-0.05800215558416933],"w2":[[0.4000319692496262,-1.2214480711312954,0.42190839536308217,0.17174864698586526,0.6743124724647588]],"b2":[0.29615389352715965]}},{"size":{"inSize":2,"hlSize":5,"outSize":1},"layers":{"w1":[[0.5829294094719996,-0.5545902489935148],[-0.9406300546856105,0.13793475194688862],[-0.684154416141291,-1.2639072843727557],[0.15689123743580372,0.5389594341112779],[0.7366338026570608,-1.1011996508794053]],"b1":[-0.07818399057688215,-0.26886598221216346,-0.11592500907750995,0.026261042508659807,-0.05905257899550307],"w2":[[0.4000379992118486,-1.2214480711312954,0.42190839536308217,0.173096102954856,0.6742673496908446]],"b2":[0.2855856916001106]}},{"size":{"inSize":2,"hlSize":5,"outSize":1},"layers":{"w1":[[0.581606583665266,-0.5560696250260515],[-0.9406300546856105,0.13793475194688862],[-0.684154416141291,-1.2639072843727557],[0.15119144514293856,0.5378283272300908],[0.7372741804077649,-1.1010578855723425]],"b1":[-0.07997225558966446,-0.26886598221216346,-0.11592500907750995,0.02225125953765697,-0.060261603531161376],"w2":[[0.400510822171585,-1.2214480711312954,0.42190839536308217,0.16379971069563615,0.6748413178773075]],"b2":[0.26096305649925045]}},{"size":{"inSize":2,"hlSize":5,"outSize":1},"layers":{"w1":[[0.5837770621069099,-0.5559715115926366],[-0.9406300546856105,0.13793475194688862],[-0.684154416141291,-1.2639072843727557],[0.14926194388863934,0.5436192639683332],[0.7409313313532538,-1.1008925691937534]],"b1":[-0.07773145996842327,-0.26886598221216346,-0.11592500907750995,0.027240428125166815,-0.05648597154715407],"w2":[[0.40307905532321725,-1.2214480711312954,0.42190839536308217,0.1817107375749868,0.6782299284520069]],"b2":[0.2872927687790644]}},{"size":{"inSize":2,"hlSize":5,"outSize":1},"layers":{"w1":[[0.5822817078057256,-0.55751747897553],[-0.9406300546856105,0.13793475194688862],[-0.684154416141291,-1.2639072843727557],[0.14332022867784955,0.5452510328170342],[0.74113383019474,-1.1005208660622106]],"b1":[-0.0790980628930271,-0.26886598221216346,-0.11592500907750995,0.026365676617858876,-0.06167795671155006],"w2":[[0.40330925414225044,-1.2214480711312954,0.42190839536308217,0.1815806429654139,0.6782802164820638]],"b2":[0.27722547408879444]}},{"size":{"inSize":2,"hlSize":5,"outSize":1},"layers":{"w1":[[0.5833089308080445,-0.5574693878993314],[-0.9406300546856105,0.13793475194688862],[-0.6841159597567432,-1.263852640386914],[0.13798616587980297,0.5439614101315053],[0.7426351239037587,-1.1003334917475682]],"b1":[-0.07803424946960348,-0.26886598221216346,-0.11655552841374478,0.02134985878390386,-0.06368103320814804],"w2":[[0.4045172005566908,-1.2214480711312954,0.4218555827678881,0.17276972234037885,0.6797987568348604]],"b2":[0.24515718848516868]}},{"size":{"inSize":2,"hlSize":5,"outSize":1},"layers":{"w1":[[0.585878810432106,-0.5574237189146913],[-0.9406300546856105,0.13793475194688862],[-0.6840612500529912,-1.2638236573595072],[0.134443495736146,0.5475041711943366],[0.7468603408518828,-1.100115264764584]],"b1":[-0.0754221790754856,-0.26886598221216346,-0.11713502051661771,0.024961772778462066,-0.06189367347454903],"w2":[[0.40765611212927483,-1.2214480711312954,0.4218401389780967,0.18154093332915683,0.6838938674997005]],"b2":[0.26051172367092823]}},{"size":{"inSize":2,"hlSize":5,"outSize":1},"layers":{"w1":[[0.5863982218897504,-0.5573994695953048],[-0.9406300546856105,0.13793475194688862],[-0.6840612500529912,-1.2638236573595072],[0.12870182517750578,0.5454555816821406],[0.7477036221206989,-1.1000217539939328]],"b1":[-0.07488828354640999,-0.26886598221216346,-0.11713502051661771,0.020211544016751848,-0.061876592266339674],"w2":[[0.4082706679999714,-1.2214480711312954,0.4218401389780967,0.17045739608850316,0.6846628223272204]],"b2":[0.23306087063472805]}},{"size":{"inSize":2,"hlSize":5,"outSize":1},"layers":{"w1":[[0.5887880869507114,-0.5573424634203628],[-0.9406300546856105,0.13793475194688862],[-0.6840612500529912,-1.2638236573595072],[0.12735615589346527,0.5506096117208354],[0.7516596131695122,-1.0998007895361803]],"b1":[-0.07245184672845832,-0.26886598221216346,-0.11713502051661771,0.02439288393988341,-0.05989519018051748],"w2":[[0.4111784861030392,-1.2214480711312954,0.4218401389780967,0.18642980771864415,0.6884489790051841]],"b2":[0.25451727036019267]}},{"size":{"inSize":2,"hlSize":5,"outSize":1},"layers":{"w1":[[0.588347413940607,-0.5588887133787424],[-0.9406300546856105,0.13793475194688862],[-0.6840612500529912,-1.2638236573595072],[0.1213749868861387,0.5480725939485452],[0.7539034905126663,-1.0996083410348516]],"b1":[-0.07333111761113972,-0.26886598221216346,-0.11713502051661771,0.021425228891354613,-0.05943461606846524],"w2":[[0.412798299794689,-1.2214480711312954,0.4218401389780967,0.1744626509880466,0.6905513726932488]],"b2":[0.23577043465421463]}},{"size":{"inSize":2,"hlSize":5,"outSize":1},"layers":{"w1":[[0.5883413491288298,-0.5595687954496458],[-0.9406300546856105,0.13793475194688862],[-0.6840612500529912,-1.2638236573595072],[0.11760214729890796,0.5548759454257064],[0.7551801205916798,-1.0994830315491877]],"b1":[-0.07327566887971754,-0.26886598221216346,-0.11713502051661771,0.02681049098166622,-0.05898418144967803],"w2":[[0.41370057061318316,-1.2214480711312954,0.4218401389780967,0.19387186316013846,0.6917068162126376]],"b2":[0.2666381422111781]}},{"size":{"inSize":2,"hlSize":5,"outSize":1},"layers":{"w1":[[0.5868154399671289,-0.5619117085248333],[-0.9406300546856105,0.13793475194688862],[-0.6840612500529912,-1.2638236573595072],[0.1124970975616015,0.5582472033667633],[0.7570486949895747,-1.09930951998138]],"b1":[-0.07465159164428924,-0.26886598221216346,-0.11713502051661771,0.028748182790592495,-0.05828995750004146],"w2":[[0.41494322602606204,-1.2214480711312954,0.4218401389780967,0.20069191210050072,0.6934118579376858]],"b2":[0.27380163055028056]}},{"size":{"inSize":2,"hlSize":5,"outSize":1},"layers":{"w1":[[0.5861448659159318,-0.562693656253965],[-0.9406300546856105,0.13793475194688862],[-0.6840477296928563,-1.2637706985604444],[0.10747362007111855,0.5604133210056982],[0.7573918252161604,-1.099093814017241]],"b1":[-0.07527074095571003,-0.26886598221216346,-0.11775846761115528,0.02685212714291217,-0.06089920090234131],"w2":[[0.4151651909922451,-1.2214480711312954,0.4218326673103369,0.20362972018774236,0.6936638457792268]],"b2":[0.262876114187588]}},{"size":{"inSize":2,"hlSize":5,"outSize":1},"layers":{"w1":[[0.5858443782566322,-0.5635529544147825],[-0.9406300546856105,0.13793475194688862],[-0.6840477296928563,-1.2637706985604444],[0.1034992010138167,0.564293149404951],[0.7584188449506329,-1.0990414602347662]],"b1":[-0.07545621633340958,-0.26886598221216346,-0.11775846761115528,0.029002122100222148,-0.060940125000319666],"w2":[[0.41593922793280264,-1.2214480711312954,0.4218326673103369,0.21249332934398865,0.6947058589705289]],"b2":[0.2734344695952747]}},{"size":{"inSize":2,"hlSize":5,"outSize":1},"layers":{"w1":[[0.5860020206161598,-0.5635086857125573],[-0.9406300546856105,0.13793475194688862],[-0.6839766019830705,-1.263568779948523],[0.09948624652749294,0.5704045020105512],[0.7587276635823047,-1.0986547644338962]],"b1":[-0.07525023193156229,-0.26886598221216346,-0.11974969984964783,0.03322583323348519,-0.06393904145997405],"w2":[[0.41606391761126343,-1.2214480711312954,0.4216682677226592,0.22734439983003335,0.694694305154331]],"b2":[0.2855202439227857]}},{"size":{"inSize":2,"hlSize":5,"outSize":1},"layers":{"w1":[[0.5854064302889759,-0.5634267985652426],[-0.9406300546856105,0.13793475194688862],[-0.683972479044631,-1.2634867535774863],[0.09319637954144065,0.5727043608983514],[0.7576203810529817,-1.0982273292424916]],"b1":[-0.07579645773990197,-0.26886598221216346,-0.12049345812443438,0.031184551633049326,-0.06921650080905337],"w2":[[0.4152129482765097,-1.2214480711312954,0.42162700038962964,0.23006393602452196,0.693294705508006]],"b2":[0.2747775895120642]}},{"size":{"inSize":2,"hlSize":5,"outSize":1},"layers":{"w1":[[0.5857981055550467,-0.563314094061598],[-0.9406300546856105,0.13793475194688862],[-0.6840117992338492,-1.2633782683803692],[0.09044417217651853,0.5787689737688695],[0.7582176497585943,-1.097896594612637]],"b1":[-0.07613007340076186,-0.26886598221216346,-0.12131053608367341,0.03254201641374521,-0.07196192907188938],"w2":[[0.4156731347128998,-1.2214480711312954,0.4215991958767691,0.244229852085978,0.6936975790197474]],"b2":[0.27584847439220345]}},{"size":{"inSize":2,"hlSize":5,"outSize":1},"layers":{"w1":[[0.5869180145307504,-0.5632427278202257],[-0.9406300546856105,0.13793475194688862],[-0.6840117992338492,-1.2633782683803692],[0.08276596888492456,0.5748449166769969],[0.7600866138082067,-1.0977774948086576]],"b1":[-0.07553768423403752,-0.26886598221216346,-0.12131053608367341,0.025985774363866523,-0.07097331831868775],"w2":[[0.4170461854788717,-1.2214480711312954,0.4215991958767691,0.2312137340896188,0.6954493220844818]],"b2":[0.24758459600289195]}},{"size":{"inSize":2,"hlSize":5,"outSize":1},"layers":{"w1":[[0.5867882597459909,-0.564097063668587],[-0.9406300546856105,0.13793475194688862],[-0.6839384707540807,-1.2633555519385633],[0.07691382982020616,0.5764305451328671],[0.7614503614051913,-1.0977665054506363]],"b1":[-0.07555077394415484,-0.26886598221216346,-0.1218411538742041,0.02433485656350613,-0.06948501521372276],"w2":[[0.4180197750082474,-1.2214480711312954,0.42156483272852097,0.23287553900754054,0.6967705867459892]],"b2":[0.23918578873415638]}},{"size":{"inSize":2,"hlSize":5,"outSize":1},"layers":{"w1":[[0.5878660402384547,-0.5640560203979297],[-0.9406300546856105,0.13793475194688862],[-0.6839384707540807,-1.2633555519385633],[0.07159243096793311,0.5861155037581406],[0.7632468451866166,-1.0976980930321631]],"b1":[-0.07444851393263058,-0.26886598221216346,-0.1218411538742041,0.03235880115360271,-0.06764772807829657],"w2":[[0.4192780885751859,-1.2214480711312954,0.42156483272852097,0.2559293916267554,0.6984428278834238]],"b2":[0.2736417243995882]}},{"size":{"inSize":2,"hlSize":5,"outSize":1},"layers":{"w1":[[0.5867544816181743,-0.5650022549631839],[-0.9406300546856105,0.13793475194688862],[-0.6839384707540807,-1.2633555519385633],[0.06518764631183521,0.5847774282982051],[0.7632418286378114,-1.0975949674234693]],"b1":[-0.07548976500686227,-0.26886598221216346,-0.1218411538742041,0.026815154625705637,-0.06848394112397134],"w2":[[0.41917744256624956,-1.2214480711312954,0.42156483272852097,0.25037244241414264,0.6983562614045193]],"b2":[0.25060500229647126]}},{"size":{"inSize":2,"hlSize":5,"outSize":1},"layers":{"w1":[[0.5879040213455289,-0.5649018249688871],[-0.9406300546856105,0.13793475194688862],[-0.6839384707540807,-1.2633555519385633],[0.05921821056515962,0.5847331028224402],[0.7651569800386515,-1.0974276494616042]],"b1":[-0.0742988138008537,-0.26886598221216346,-0.1218411538742041,0.02426231079918284,-0.06649979754350682],"w2":[[0.42043669397937905,-1.2214480711312954,0.42156483272852097,0.24844128377246935,0.6999918081811023]],"b2":[0.23685084992773026]}},{"size":{"inSize":2,"hlSize":5,"outSize":1},"layers":{"w1":[[0.5885816848415497,-0.5649039602320927],[-0.9406300546856105,0.13793475194688862],[-0.6838812651594243,-1.2633126131712726],[0.05272532212451892,0.5880770082286509],[0.7662588838123117,-1.0973776481026891]],"b1":[-0.0735924583458445,-0.26886598221216346,-0.12239366615771252,0.025116163999097996,-0.06637374192758842],"w2":[[0.42126232585464884,-1.2214480711312954,0.42150303131435457,0.2548472698324802,0.7011059266720766]],"b2":[0.23613777347578016]}},{"size":{"inSize":2,"hlSize":5,"outSize":1},"layers":{"w1":[[0.5893420154345441,-0.5648768811270933],[-0.9406300546856105,0.13793475194688862],[-0.6838812651594243,-1.2633126131712726],[0.04733817297227224,0.5949708880901312],[0.7674474499506907,-1.0972626600568776]],"b1":[-0.07280212596415646,-0.26886598221216346,-0.12239366615771252,0.03041918063646969,-0.066235877317656],"w2":[[0.42215026916685927,-1.2214480711312954,0.42150303131435457,0.2701634413879453,0.7022119128458048]],"b2":[0.254045614808668]}},{"size":{"inSize":2,"hlSize":5,"outSize":1},"layers":{"w1":[[0.5888891072442125,-0.5658731558757594],[-0.9406300546856105,0.13793475194688862],[-0.6838812651594243,-1.2633126131712726],[0.038554610889528634,0.5967854763063655],[0.7685601794885487,-1.0972005063939978]],"b1":[-0.07313425945261909,-0.26886598221216346,-0.12239366615771252,0.030610709792702438,-0.06510909654339213],"w2":[[0.42290837544918114,-1.2214480711312954,0.42150303131435457,0.2726421466409784,0.7032246117572206]],"b2":[0.25475455290646826]}},{"size":{"inSize":2,"hlSize":5,"outSize":1},"layers":{"w1":[[0.5882039932272827,-0.5667636298772889],[-0.9406300546856105,0.13793475194688862],[-0.6838812651594243,-1.2633126131712726],[0.02883592227975871,0.5960402503238968],[0.7691588968015969,-1.097104446875896]],"b1":[-0.07379798763053316,-0.26886598221216346,-0.12239366615771252,0.026103399341256092,-0.06452667328079811],"w2":[[0.42326065132996,-1.2214480711312954,0.42150303131435457,0.2691305388995489,0.7036751544088049]],"b2":[0.2379918368619389]}},{"size":{"inSize":2,"hlSize":5,"outSize":1},"layers":{"w1":[[0.5876970455344763,-0.5676465658688353],[-0.9406300546856105,0.13793475194688862],[-0.6838812651594243,-1.2633126131712726],[0.023344104024053604,0.602766452881009],[0.7699669936589977,-1.0969506917022431]],"b1":[-0.07424673396567331,-0.26886598221216346,-0.12239366615771252,0.029296978818381402,-0.06531221963909421],"w2":[[0.423816677329548,-1.2214480711312954,0.42150303131435457,0.2837483117765323,0.7043907659984089]],"b2":[0.24758029263785478]}},{"size":{"inSize":2,"hlSize":5,"outSize":1},"layers":{"w1":[[0.5871274314798618,-0.5693046633664225],[-0.9406300546856105,0.13793475194688862],[-0.6838812651594243,-1.2633126131712726],[0.018510027922372385,0.6103246537652315],[0.7721118093831842,-1.0968821836616613]],"b1":[-0.07466015347038042,-0.26886598221216346,-0.12239366615771252,0.03461444754303571,-0.06391848289402571],"w2":[[0.4253200346428704,-1.2214480711312954,0.42150303131435457,0.2999555219677332,0.7064993389722226]],"b2":[0.2663203820197508]}},{"size":{"inSize":2,"hlSize":5,"outSize":1},"layers":{"w1":[[0.5859176975353181,-0.5701784833666319],[-0.9406300546856105,0.13793475194688862],[-0.6838812651594243,-1.2633126131712726],[0.008819321518180637,0.6142969398584865],[0.7716683695720761,-1.09668995334793]],"b1":[-0.07576825963906234,-0.26886598221216346,-0.12239366615771252,0.0357349458501182,-0.06721899702820207],"w2":[[0.4250142253807561,-1.2214480711312954,0.42150303131435457,0.3075692985146156,0.7060148724680216]],"b2":[0.26859178907428694]}},{"size":{"inSize":2,"hlSize":5,"outSize":1},"layers":{"w1":[[0.5850259112129876,-0.5710881671843437],[-0.9406300546856105,0.13793475194688862],[-0.6838812651594243,-1.2633126131712726],[-2.2262988132640618E-4,0.6167685406414043],[0.7719380801451996,-1.0966238716031746]],"b1":[-0.07652235544191205,-0.26886598221216346,-0.12239366615771252,0.03379538368113834,-0.0668238372385049],"w2":[[0.425139645364965,-1.2214480711312954,0.42150303131435457,0.31202111727053644,0.7061693928501988]],"b2":[0.26084080754273326]}},{"size":{"inSize":2,"hlSize":5,"outSize":1},"layers":{"w1":[[0.5853240989156687,-0.5710518154050549],[-0.9406300546856105,0.13793475194688862],[-0.6838812651594243,-1.2633126131712726],[-0.009486518903949913,0.6173651532012503],[0.7723643751080077,-1.0965021249177869]],"b1":[-0.07617835200886201,-0.26886598221216346,-0.12239366615771252,0.030129536877940278,-0.06744954812681356],"w2":[[0.42543922577313686,-1.2214480711312954,0.42150303131435457,0.3128099920085706,0.7065055379715293]],"b2":[0.2487685123487589]}},{"size":{"inSize":2,"hlSize":5,"outSize":1},"layers":{"w1":[[0.5858318506768008,-0.5709588164376769],[-0.9406300546856105,0.13793475194688862],[-0.6838812651594243,-1.2633126131712726],[-0.01935248357226771,0.6179941944920191],[0.77318264808681,-1.0963037711291952]],"b1":[-0.0761864929480922,-0.26886598221216346,-0.12239366615771252,0.0279335553457876,-0.06830499549362466],"w2":[[0.4260144249118507,-1.2214480711312954,0.42150303131435457,0.31413916287025273,0.7071739107729055]],"b2":[0.2387513113762143]}},{"size":{"inSize":2,"hlSize":5,"outSize":1},"layers":{"w1":[[0.5876794912004354,-0.5708969756893171],[-0.9406300546856105,0.13793475194688862],[-0.6838812651594243,-1.2633126131712726],[-0.025310582336522832,0.6250851698265115],[0.7761796327203417,-1.0961183418239475]],"b1":[-0.07426021183711316,-0.26886598221216346,-0.12239366615771252,0.033660163602912976,-0.06668213355325545],"w2":[[0.42812783115335024,-1.2214480711312954,0.42150303131435457,0.32896523576291314,0.7100064248978903]],"b2":[0.25502818217289974]}},{"size":{"inSize":2,"hlSize":5,"outSize":1},"layers":{"w1":[[0.5874673384159327,-0.571742091867118],[-0.9406300546856105,0.13793475194688862],[-0.6838812651594243,-1.2633126131712726],[-0.033252519533054394,0.6280262727709455],[0.7773794926415163,-1.0960514121263691]],"b1":[-0.07433025400303464,-0.26886598221216346,-0.12239366615771252,0.032061691325221534,-0.06613376626804515],"w2":[[0.42897570356253306,-1.2214480711312954,0.42150303131435457,0.33500128405791374,0.7111632843775412]],"b2":[0.2502148554093988]}},{"size":{"inSize":2,"hlSize":5,"outSize":1},"layers":{"w1":[[0.5853261279761605,-0.5734893058689006],[-0.9406300546856105,0.13793475194688862],[-0.6838812651594243,-1.2633126131712726],[-0.04795983880471427,0.6280872681729642],[0.7770199354901979,-1.0960028929658283]],"b1":[-0.07639944426662529,-0.26886598221216346,-0.12239366615771252,0.02933670056093835,-0.06728481367954066],"w2":[[0.4287306268111546,-1.2214480711312954,0.42150303131435457,0.33631469491493354,0.7108025110425641]],"b2":[0.24078407104587435]}},{"size":{"inSize":2,"hlSize":5,"outSize":1},"layers":{"w1":[[0.5854373381026943,-0.5734650273491271],[-0.9406300546856105,0.13793475194688862],[-0.6838812651594243,-1.2633126131712726],[-0.05844737519323963,0.6265169584964958],[0.7772043133541764,-1.0959626410413326]],"b1":[-0.0762633397134022,-0.26886598221216346,-0.12239366615771252,0.0232011747040913,-0.067059162764618],"w2":[[0.4288257271061306,-1.2214480711312954,0.42150303131435457,0.33434241402711695,0.7109206397340193]],"b2":[0.21967663743225685]}},{"size":{"inSize":2,"hlSize":5,"outSize":1},"layers":{"w1":[[0.5868898293512352,-0.5734143486363443],[-0.9406300546856105,0.13793475194688862],[-0.6838812651594243,-1.2633126131712726],[-0.06732435817892782,0.6296206921070946],[0.7794767184957224,-1.095796149731867]],"b1":[-0.07477834888161593,-0.26886598221216346,-0.12239366615771252,0.02280348658250609,-0.06722137469344987],"w2":[[0.4304768168979057,-1.2214480711312954,0.42150303131435457,0.34168264716026214,0.7131635519938179]],"b2":[0.21728460891469129]}},{"size":{"inSize":2,"hlSize":5,"outSize":1},"layers":{"w1":[[0.5877704586007939,-0.5733939275162837],[-0.9406300546856105,0.13793475194688862],[-0.6838812651594243,-1.2633126131712726],[-0.07675636685255338,0.6373023644532301],[0.7808440868875225,-1.095674845546661]],"b1":[-0.07389211566340274,-0.26886598221216346,-0.12239366615771252,0.027876553304721576,-0.06736122467062594],"w2":[[0.4314962714021403,-1.2214480711312954,0.42150303131435457,0.3580347430152069,0.7144848591091382]],"b2":[0.231935816593063]}},{"size":{"inSize":2,"hlSize":5,"outSize":1},"layers":{"w1":[[0.5886188408295514,-0.5733494359075577],[-0.9406300546856105,0.13793475194688862],[-0.6838812651594243,-1.2633126131712726],[-0.08343692075193634,0.6416862316804928],[0.7821564460795847,-1.0955424569419532]],"b1":[-0.07298332777269194,-0.26886598221216346,-0.12239366615771252,0.024617446083022826,-0.06774636344710244],"w2":[[0.43243716141758237,-1.2214480711312954,0.42150303131435457,0.36701647281044847,0.7157523967750303]],"b2":[0.22230488146454758]}},{"size":{"inSize":2,"hlSize":5,"outSize":1},"layers":{"w1":[[0.5897221508877397,-0.5732931519114219],[-0.9406300546856105,0.13793475194688862],[-0.6838812651594243,-1.2633126131712726],[-0.1000464414780938,0.6306952874172075],[0.7839450064402506,-1.0953653123398321]],"b1":[-0.0718735548483322,-0.26886598221216346,-0.12239366615771252,0.009539563215149632,-0.06695814934389228],"w2":[[0.4336770265745034,-1.2214480711312954,0.42150303131435457,0.3505647063143264,0.7173611457624366]],"b2":[0.1797908471709746]}},{"size":{"inSize":2,"hlSize":5,"outSize":1},"layers":{"w1":[[0.5915337184768513,-0.573237744263093],[-0.9406300546856105,0.13793475194688862],[-0.6838812651594243,-1.2633126131712726],[-0.10706369295469284,0.6383324091629573],[0.7868962036763816,-1.0951768059236893]],"b1":[-0.07005222397466444,-0.26886598221216346,-0.12239366615771252,0.014794824249607309,-0.06567948251866546],"w2":[[0.4357653345314337,-1.2214480711312954,0.42150303131435457,0.3664501634873129,0.7201790789535293]],"b2":[0.19573606228760257]}},{"size":{"inSize":2,"hlSize":5,"outSize":1},"layers":{"w1":[[0.5891318684301178,-0.5764854706466104],[-0.9406300546856105,0.13793475194688862],[-0.6838812651594243,-1.2633126131712726],[-0.12019719304336977,0.6391811442326616],[0.7889641616230871,-1.0951425039475482]],"b1":[-0.07231849024613844,-0.26886598221216346,-0.12239366615771252,0.012778426912723788,-0.06359651523823129],"w2":[[0.437141536357546,-1.2214480711312954,0.42150303131435457,0.3716843373794193,0.7221964845660149]],"b2":[0.1912419067905564]}},{"size":{"inSize":2,"hlSize":5,"outSize":1},"layers":{"w1":[[0.5910863941728126,-0.5764255995784051],[-0.9406300546856105,0.13793475194688862],[-0.6838812651594243,-1.2633126131712726],[-0.13099467498536907,0.640291379749125],[0.7921714070648309,-1.0950164828803457]],"b1":[-0.07033595887427008,-0.26886598221216346,-0.12239366615771252,0.011520385645001128,-0.060946834702825865],"w2":[[0.43936869814635554,-1.2214480711312954,0.42150303131435457,0.37704209029091734,0.7252758130908117]],"b2":[0.19152612249920498]}},{"size":{"inSize":2,"hlSize":5,"outSize":1},"layers":{"w1":[[0.5910510574324332,-0.5773375124229078],[-0.9406300546856105,0.13793475194688862],[-0.6838812651594243,-1.2633126131712726],[-0.14356269760187568,0.6396465417629528],[0.793820350433027,-1.0949779508587845]],"b1":[-0.07031517161965277,-0.26886598221216346,-0.12239366615771252,0.008015703608162868,-0.05924971228152574],"w2":[[0.44051420703749994,-1.2214480711312954,0.42150303131435457,0.38020641750019296,0.7268760572031838]],"b2":[0.1796016137050619]}},{"size":{"inSize":2,"hlSize":5,"outSize":1},"layers":{"w1":[[0.5920195260395246,-0.5773253691920066],[-0.9406300546856105,0.13793475194688862],[-0.6838812651594243,-1.2633126131712726],[-0.14710909928106158,0.656114220887407],[0.79532719449479,-1.0949029205408638]],"b1":[-0.06933628825740061,-0.26886598221216346,-0.12239366615771252,0.021344708481623037,-0.05923537798665942],"w2":[[0.44164146534618726,-1.2214480711312954,0.42150303131435457,0.40953118908197356,0.7284074842236637]],"b2":[0.21025811235250333]}},{"size":{"inSize":2,"hlSize":5,"outSize":1},"layers":{"w1":[[0.5904541861741395,-0.5790617725502888],[-0.9406300546856105,0.13793475194688862],[-0.6838812651594243,-1.2633126131712726],[-0.15646534664533654,0.6672029510312243],[0.7959549241289743,-1.0948237216842407]],"b1":[-0.07078342761224571,-0.26886598221216346,-0.12239366615771252,0.028042848557436315,-0.05946946710569722],"w2":[[0.44204019877582246,-1.2214480711312954,0.42150303131435457,0.43100655589921877,0.7289928732485174]],"b2":[0.22629236996115085]}},{"size":{"inSize":2,"hlSize":5,"outSize":1},"layers":{"w1":[[0.5896022849824298,-0.5799617883840492],[-0.9406300546856105,0.13793475194688862],[-0.6838723123664664,-1.263276125276565],[-0.17786818953457614,0.6539910884635383],[0.796186099601359,-1.094740103375251]],"b1":[-0.07155677700789621,-0.26886598221216346,-0.12281338117453253,0.008442658264803622,-0.06072678083527759],"w2":[[0.4422051078957098,-1.2214480711312954,0.4215010199282577,0.41704891291756896,0.7292222715471195]],"b2":[0.18023104469396026]}},{"size":{"inSize":2,"hlSize":5,"outSize":1},"layers":{"w1":[[0.591360860797473,-0.5798827094989777],[-0.9406300546856105,0.13793475194688862],[-0.6838723123664664,-1.263276125276565],[-0.18513954459621587,0.6676217559346956],[0.7990860947114019,-1.0946096976355306]],"b1":[-0.06973333721524506,-0.26886598221216346,-0.12281338117453253,0.018125631990751165,-0.057719821205267904],"w2":[[0.4441510784357598,-1.2214480711312954,0.4215010199282577,0.4417209059037075,0.7319423920117692]],"b2":[0.20653310817293533]}},{"size":{"inSize":2,"hlSize":5,"outSize":1},"layers":{"w1":[[0.5925085206076449,-0.5798001136060018],[-0.9406300546856105,0.13793475194688862],[-0.6838723123664664,-1.263276125276565],[-0.19372454840190728,0.6704806646345413],[0.8009773900553905,-1.0944735830600847]],"b1":[-0.06849449294469682,-0.26886598221216346,-0.12281338117453253,0.016547499411719215,-0.055678257686141375],"w2":[[0.4453767794284842,-1.2214480711312954,0.4215010199282577,0.44957538742011227,0.733642630730526]],"b2":[0.2045291132661358]}},{"size":{"inSize":2,"hlSize":5,"outSize":1},"layers":{"w1":[[0.5908490467084465,-0.5807545955879111],[-0.9406300546856105,0.13793475194688862],[-0.6838723123664664,-1.263276125276565],[-0.21467387233836216,0.6574765575970997],[0.8000459050928413,-1.0944387252699734]],"b1":[-0.07004695579700575,-0.26886598221216346,-0.12281338117453253,4.2997200707663163E-4,-0.05728148207149087],"w2":[[0.4446504090326456,-1.2214480711312954,0.4215010199282577,0.43861547074395796,0.7326953240241657]],"b2":[0.16266335195911374]}},{"size":{"inSize":2,"hlSize":5,"outSize":1},"layers":{"w1":[[0.5930114391720589,-0.5806559762587533],[-0.9406300546856105,0.13793475194688862],[-0.6838723123664664,-1.263276125276565],[-0.2232949342581593,0.6666643264924706],[0.8035665943214271,-1.0942495238230268]],"b1":[-0.06820558983981319,-0.26886598221216346,-0.12281338117453253,0.008456770432279213,-0.0548933046258521],"w2":[[0.44710490315911566,-1.2214480711312954,0.4215010199282577,0.45661508825985675,0.7360703220423073]],"b2":[0.18169460773970106]}},{"size":{"inSize":2,"hlSize":5,"outSize":1},"layers":{"w1":[[0.59175594736155,-0.5816392029209386],[-0.9406300546856105,0.13793475194688862],[-0.6838723123664664,-1.263276125276565],[-0.23649484506339757,0.6709134193083691],[0.8033147838216064,-1.09412095507826]],"b1":[-0.06929845021994618,-0.26886598221216346,-0.12281338117453253,0.011336106167291264,-0.056888264205167356],"w2":[[0.4468833323812864,-1.2214480711312954,0.4215010199282577,0.46932719928363736,0.7357530658473512]],"b2":[0.18290406480392432]}},{"size":{"inSize":2,"hlSize":5,"outSize":1},"layers":{"w1":[[0.5906394323249311,-0.5823811129399276],[-0.9402185618420428,0.13452076234920704],[-0.6838723123664664,-1.263276125276565],[-0.250044150156279,0.6694832019302207],[0.8028403756437269,-1.094115910404756]],"b1":[-0.07039032333532216,-0.27199953182899866,-0.12281338117453253,0.004761542347805185,-0.057353752114679746],"w2":[[0.4465398079414653,-1.2214354095625575,0.4215010199282577,0.4739513907368094,0.7352635839771626]],"b2":[0.16523289067814906]}},{"size":{"inSize":2,"hlSize":5,"outSize":1},"layers":{"w1":[[0.5900191305555007,-0.5837991137417134],[-0.9402185618420428,0.13452076234920704],[-0.6838723123664664,-1.263276125276565],[-0.2631261664399293,0.6693144271503498],[0.8044992798849842,-1.094032954304232]],"b1":[-0.07093144734094504,-0.27199953182899866,-0.12281338117453253,0.0017995303304437003,-0.0562566032229654],"w2":[[0.4476540022081336,-1.2214354095625575,0.4215010199282577,0.4805849529116136,0.7368659292243166]],"b2":[0.1570598452248409]}},{"size":{"inSize":2,"hlSize":5,"outSize":1},"layers":{"w1":[[0.591503282726001,-0.583805684168566],[-0.9402185618420428,0.13452076234920704],[-0.6838723123664664,-1.263276125276565],[-0.2739957468704959,0.6756054417157943],[0.8068142905163949,-1.0940051222683445]],"b1":[-0.06942416554193065,-0.27199953182899866,-0.12281338117453253,0.007360725290604464,-0.05603115997877771],"w2":[[0.4493798893872012,-1.2214354095625575,0.4215010199282577,0.49531855065677016,0.7393348892863285]],"b2":[0.16587600237629951]}},{"size":{"inSize":2,"hlSize":5,"outSize":1},"layers":{"w1":[[0.5928675537968693,-0.5837460918983154],[-0.9402185618420428,0.13452076234920704],[-0.6838723123664664,-1.263276125276565],[-0.2850238560144863,0.6846398600840139],[0.8090588351098622,-1.0939070790635448]],"b1":[-0.06801515344513187,-0.27199953182899866,-0.12281338117453253,0.014707696108346352,-0.05371300594653923],"w2":[[0.4508805373639114,-1.2214354095625575,0.4215010199282577,0.5138509400363305,0.7414635349769703]],"b2":[0.18207809677299022]}},{"size":{"inSize":2,"hlSize":5,"outSize":1},"layers":{"w1":[[0.5919463323218693,-0.5844516984020701],[-0.9402185618420428,0.13452076234920704],[-0.6838618738563729,-1.2632494400212215],[-0.29610345746914696,0.6935193552874079],[0.8089220112123972,-1.0936908568245107]],"b1":[-0.06882330154251706,-0.27199953182899866,-0.1231360450375461,0.02017968541848074,-0.055732685061283455],"w2":[[0.45070465714735325,-1.2214354095625575,0.42149812073240706,0.5319839951954828,0.7411415466748271]],"b2":[0.18891961618153932]}},{"size":{"inSize":2,"hlSize":5,"outSize":1},"layers":{"w1":[[0.5926832526467236,-0.5843790300991842],[-0.9402185618420428,0.13452076234920704],[-0.6838618738563729,-1.2632494400212215],[-0.30849337931190346,0.6933725441225644],[0.8100349833772138,-1.0934152721963726]],"b1":[-0.06804993516491084,-0.27199953182899866,-0.1231360450375461,0.014832086773938269,-0.05778117902185679],"w2":[[0.45146018637843705,-1.2214354095625575,0.42149812073240706,0.5384860130829932,0.7421036724197199]],"b2":[0.17384718464812018]}},{"size":{"inSize":2,"hlSize":5,"outSize":1},"layers":{"w1":[[0.591884878066806,-0.5859278203721889],[-0.9402185618420428,0.13452076234920704],[-0.6838618738563729,-1.2632494400212215],[-0.32109172086435755,0.6899894066561911],[0.8116796499963439,-1.093245809888156]],"b1":[-0.06865776320397986,-0.27199953182899866,-0.1231360450375461,0.00536153066350609,-0.05711497663757246],"w2":[[0.4525084736640912,-1.2214354095625575,0.42149812073240706,0.5410863818632744,0.7435973328119088]],"b2":[0.15470834143133]}},{"size":{"inSize":2,"hlSize":5,"outSize":1},"layers":{"w1":[[0.5916529404527233,-0.5858218274041135],[-0.9402185618420428,0.13452076234920704],[-0.6838332663936281,-1.2632045960720841],[-0.33319139878216053,0.6943651855580533],[0.811348980590413,-1.0929925212808442]],"b1":[-0.06959628588549432,-0.27199953182899866,-0.12355882357490096,0.006120216627418475,-0.05940308676193947],"w2":[[0.4522102522273346,-1.2214354095625575,0.4214408171087126,0.5538540571223636,0.7430397474606527]],"b2":[0.15161974804880754]}},{"size":{"inSize":2,"hlSize":5,"outSize":1},"layers":{"w1":[[0.5923876664353703,-0.5858009473056914],[-0.9402185618420428,0.13452076234920704],[-0.6838332663936281,-1.2632045960720841],[-0.34582794778462717,0.7029404439629989],[0.8124586825270012,-1.0928380795810695]],"b1":[-0.06885906738164156,-0.27199953182899866,-0.12355882357490096,0.012706977926008977,-0.06054911613459065],"w2":[[0.4530310277384243,-1.2214354095625575,0.4214408171087126,0.5722796019139139,0.7441159073796482]],"b2":[0.1604461110486854]}},{"size":{"inSize":2,"hlSize":5,"outSize":1},"layers":{"w1":[[0.5939378413853816,-0.585748929853321],[-0.9402185618420428,0.13452076234920704],[-0.6838332663936281,-1.2632045960720841],[-0.3573945668718156,0.7063920337617361],[0.8149334612864723,-1.09266890044463]],"b1":[-0.06729880312289886,-0.27199953182899866,-0.12355882357490096,0.012101553923835459,-0.05963328430376237],"w2":[[0.4547536344890008,-1.2214354095625575,0.4214408171087126,0.583495498962024,0.7464949954524236]],"b2":[0.15684108771499447]}},{"size":{"inSize":2,"hlSize":5,"outSize":1},"layers":{"w1":[[0.5941526978407904,-0.5857251200673994],[-0.9402185618420428,0.13452076234920704],[-0.6838332663936281,-1.2632045960720841],[-0.3760329872692492,0.7035122988197631],[0.815250762676243,-1.0925861392389047]],"b1":[-0.06704350994985506,-0.27199953182899866,-0.12355882357490096,0.005796145665349584,-0.060007523974839494],"w2":[[0.45496580189218533,-1.2214354095625575,0.4214408171087126,0.5912946047525639,0.7467501425947902]],"b2":[0.14230514254124949]}},{"size":{"inSize":2,"hlSize":5,"outSize":1},"layers":{"w1":[[0.5952922425737861,-0.5857035471943671],[-0.9402185618420428,0.13452076234920704],[-0.6838332663936281,-1.2632045960720841],[-0.38427414664249787,0.7137112488480039],[0.8171211344455466,-1.092550730981963]],"b1":[-0.06586513542001277,-0.27199953182899866,-0.12355882357490096,0.011916911631046103,-0.058073419599235634],"w2":[[0.45625254792193476,-1.2214354095625575,0.4214408171087126,0.6087300951593047,0.7485848588510394]],"b2":[0.15022914613999383]}},{"size":{"inSize":2,"hlSize":5,"outSize":1},"layers":{"w1":[[0.595373850992856,-0.5864433201710013],[-0.9402185618420428,0.13452076234920704],[-0.6838332663936281,-1.2632045960720841],[-0.4009367682697233,0.7125929118549142],[0.8187155956023348,-1.0924221275935821]],"b1":[-0.06628583587115536,-0.27199953182899866,-0.12355882357490096,0.006126527883807835,-0.0580742820985622],"w2":[[0.4573694249889033,-1.2214354095625575,0.4214408171087126,0.6178241773596985,0.7501376718124867]],"b2":[0.13994767587581936]}},{"size":{"inSize":2,"hlSize":5,"outSize":1},"layers":{"w1":[[0.5957036053501964,-0.5870705775051697],[-0.9402185618420428,0.13452076234920704],[-0.6838332663936281,-1.2632045960720841],[-0.4156108789080165,0.7138140157874799],[0.8204185158095225,-1.0922926905549526]],"b1":[-0.06588621424254558,-0.27199953182899866,-0.12355882357490096,0.002890959288309294,-0.05804350372359845],"w2":[[0.45854503645788414,-1.2214354095625575,0.4214408171087126,0.6287232615151466,0.7518053923677134]],"b2":[0.13300303205464303]}},{"size":{"inSize":2,"hlSize":5,"outSize":1},"layers":{"w1":[[0.5966676415540455,-0.5870494102812768],[-0.9402185618420428,0.13452076234920704],[-0.6838332663936281,-1.2632045960720841],[-0.4273265289186651,0.7232340332669265],[0.8219554968665748,-1.0922224809020502]],"b1":[-0.06491483862647417,-0.27199953182899866,-0.12355882357490096,0.008853076435570355,-0.05732504560455733],"w2":[[0.4596307595307175,-1.2214354095625575,0.4214408171087126,0.647190095895763,0.7533251691770767]],"b2":[0.14153996647387193]}},{"size":{"inSize":2,"hlSize":5,"outSize":1},"layers":{"w1":[[0.5933452546964986,-0.5904131874256384],[-0.9402185618420428,0.13452076234920704],[-0.6838332663936281,-1.2632045960720841],[-0.4401422575967969,0.7310323754426014],[0.8226611887691773,-1.0920775449040316]],"b1":[-0.06798602563911967,-0.27199953182899866,-0.12355882357490096,0.01446903599532734,-0.058122102816208526],"w2":[[0.4600478514324993,-1.2214354095625575,0.4214408171087126,0.6644435209808379,0.7539456665973718]],"b2":[0.14717650132186627]}},{"size":{"inSize":2,"hlSize":5,"outSize":1},"layers":{"w1":[[0.5957398055181138,-0.5903282353453119],[-0.9402185618420428,0.13452076234920704],[-0.6838332663936281,-1.2632045960720841],[-0.45536269821549974,0.7250784501619857],[0.8265849047410553,-1.091905711418429]],"b1":[-0.06554586323504163,-0.27199953182899866,-0.12355882357490096,8.428594700099091E-4,-0.05455109424409097],"w2":[[0.46266658248643716,-1.2214354095625575,0.4214408171087126,0.6676785428419001,0.7577028058089101]],"b2":[0.13021463069600747]}},{"size":{"inSize":2,"hlSize":5,"outSize":1},"layers":{"w1":[[0.5963251976845182,-0.590807573624721],[-0.9402185618420428,0.13452076234920704],[-0.6838332663936281,-1.2632045960720841],[-0.47605678792957656,0.71560542773982],[0.8284303465273019,-1.0917769937916675]],"b1":[-0.06494777800538548,-0.27199953182899866,-0.12355882357490096,-0.010853072889840285,-0.05454139799511675],"w2":[[0.4639472159830958,-1.2214354095625575,0.4214408171087126,0.6714899190094198,0.7595298253997895]],"b2":[0.11016111772997278]}},{"size":{"inSize":2,"hlSize":5,"outSize":1},"layers":{"w1":[[0.5976407161947289,-0.5907438671371442],[-0.9402185618420428,0.13452076234920704],[-0.683816886317085,-1.2631771674278214],[-0.48499149195465985,0.7239665844055323],[0.8305892532998889,-1.091660608902167]],"b1":[-0.0635783986873353,-0.27199953182899866,-0.12389668263301301,-0.0038022215875278716,-0.052423630990684866],"w2":[[0.46536526612692874,-1.2214354095625575,0.4214310796489748,0.6866207376571788,0.7615652050731151]],"b2":[0.11782379417395039]}},{"size":{"inSize":2,"hlSize":5,"outSize":1},"layers":{"w1":[[0.5993202530579913,-0.5906175272099797],[-0.9402185618420428,0.13452076234920704],[-0.683816886317085,-1.2631771674278214],[-0.4968436065136547,0.7333804219506813],[0.8333001625150716,-1.0913950806358401]],"b1":[-0.062421789678392646,-0.27199953182899866,-0.12389668263301301,0.004650948749052549,-0.05171540138139847],"w2":[[0.4672037998342538,-1.2214354095625575,0.4214310796489748,0.7048714793293805,0.7640924441478368]],"b2":[0.12852944608107802]}},{"size":{"inSize":2,"hlSize":5,"outSize":1},"layers":{"w1":[[0.5983722655237106,-0.5917682486161688],[-0.9402185618420428,0.13452076234920704],[-0.683816886317085,-1.2631771674278214],[-0.5123403641072657,0.7256172594545726],[0.8339575668421588,-1.0912690014357818]],"b1":[-0.06321429065027327,-0.27199953182899866,-0.12389668263301301,-0.0065784740883255925,-0.05143969807420395],"w2":[[0.4675483120825142,-1.2214354095625575,0.4214310796489748,0.7076434542669542,0.764610646898989]],"b2":[0.10976065456290587]}},{"size":{"inSize":2,"hlSize":5,"outSize":1},"layers":{"w1":[[0.5984261271272747,-0.5922539002602488],[-0.9402185618420428,0.13452076234920704],[-0.6837996561785132,-1.2631579182802442],[-0.5207957954307376,0.7303016053785357],[0.834879677858695,-1.0911719855324393]],"b1":[-0.06335864557178057,-0.27199953182899866,-0.12417614862902077,-0.005443019383652881,-0.052996888298989527],"w2":[[0.46825144328430357,-1.2214354095625575,0.42142758575951583,0.7185580347788062,0.7655826872567401]],"b2":[0.10555446468090382]}},{"size":{"inSize":2,"hlSize":5,"outSize":1},"layers":{"w1":[[0.6001279698471065,-0.5926069299679628],[-0.9402185618420428,0.13452076234920704],[-0.6837996561785132,-1.2631579182802442],[-0.5296982150758885,0.743446222310686],[0.838494643859456,-1.0908829648941254]],"b1":[-0.06164457704043198,-0.27199953182899866,-0.12417614862902077,0.0034078067108850117,-0.050574166014197085],"w2":[[0.47064099130298886,-1.2214354095625575,0.42142758575951583,0.7383027201950139,0.7689452158600636]],"b2":[0.12067843256958631]}},{"size":{"inSize":2,"hlSize":5,"outSize":1},"layers":{"w1":[[0.5995492732260606,-0.593510503696866],[-0.9402185618420428,0.13452076234920704],[-0.6837996561785132,-1.2631579182802442],[-0.5404547616708351,0.7420387561815902],[0.8394093188755636,-1.0906927185171431]],"b1":[-0.06259712886850971,-0.27199953182899866,-0.12417614862902077,-0.0016758510278877406,-0.05085479332264509],"w2":[[0.47116557731281933,-1.2214354095625575,0.42142758575951583,0.7445793109555561,0.7696911806574901]],"b2":[0.11140400703598877]}},{"size":{"inSize":2,"hlSize":5,"outSize":1},"layers":{"w1":[[0.6007707684023008,-0.593773302210396],[-0.9402185618420428,0.13452076234920704],[-0.6837996561785132,-1.2631579182802442],[-0.5476353349832327,0.7528673419756429],[0.8421212691422445,-1.0904515628813658]],"b1":[-0.061322836730247736,-0.27199953182899866,-0.12417614862902077,0.006565628911872468,-0.04880257681839808],"w2":[[0.4728816474865288,-1.2214354095625575,0.42142758575951583,0.7605644366557763,0.7721714540866331]],"b2":[0.12269488752952905]}},{"size":{"inSize":2,"hlSize":5,"outSize":1},"layers":{"w1":[[0.6026123089996688,-0.5936940108887486],[-0.9402185618420428,0.13452076234920704],[-0.6837996561785132,-1.2631579182802442],[-0.5575516373701604,0.7581930103366474],[0.8450596808710225,-1.090257487706317]],"b1":[-0.05947825117626721,-0.27199953182899866,-0.12417614862902077,0.006722437482435142,-0.04792896335885055],"w2":[[0.4748824599014339,-1.2214354095625575,0.42142758575951583,0.7729776766845248,0.775046767382188]],"b2":[0.12314120495008782]}},{"size":{"inSize":2,"hlSize":5,"outSize":1},"layers":{"w1":[[0.601370241577862,-0.5945542839806035],[-0.9402185618420428,0.13452076234920704],[-0.6837996561785132,-1.2631579182802442],[-0.572517034976443,0.7571540077204023],[0.8446383148748106,-1.0901420025588864]],"b1":[-0.06115497075716061,-0.27199953182899866,-0.12417614862902077,0.0023596767145376164,-0.050162240257470826],"w2":[[0.4745918242223032,-1.2214354095625575,0.42142758575951583,0.782715201141494,0.7745629910087751]],"b2":[0.11134345204443272]}},{"size":{"inSize":2,"hlSize":5,"outSize":1},"layers":{"w1":[[0.6014380175091055,-0.5950599409673107],[-0.9402185618420428,0.13452076234920704],[-0.6837996561785132,-1.2631579182802442],[-0.5936729102817726,0.7469971765811573],[0.845737873672561,-1.090013740516375]],"b1":[-0.061003139189883114,-0.27199953182899866,-0.12417614862902077,