[
	{
		"size": {"inSize":2,"hlSize":20,"outSize":1},
		"layers": {
			"w1": [
				[-0.25328393676125266,0.1701808658926196],
				[0.7417774917351602,0.3145943213392555],
				[-0.06251720303965266,-0.34400854716572016],
				[-0.3006436153269271,-0.0030160556802809385],
				[-0.3883723717460416,-0.23858209932884805],
				[0.21034306569495356,-0.08255318157708526],
				[0.02196332342760812,0.15744488202834633],
				[-0.4395158199886649,-0.08720301875354591],
				[0.2230590234930685,-0.12857810628235763],
				[-0.13849776308905715,-0.2738065504122517],
				[0.18586539561055754,-0.029919258634348272],
				[0.27459960159713365,0.15430636196079126],
				[-0.11510973421655904,-0.06440657803784773],
				[0.2228709913879682,6.38206057092864E-4],
				[0.5538876855232192,-0.20918589684316027],
				[-0.25411212026636915,0.2767466065479967],
				[-0.09500220152319391,0.34701802840258966],
				[-0.07585618941764061,0.1811938787152507],
				[0.020222614602120822,-0.40000420519255325],
				[-0.4503957608337934,-0.12079574689149739]
			],
			"b1":[-0.056021151962203954,-0.09449285567267413,-0.018938819120536892,-0.08922289882166158,-0.02177641477939085,-0.0364069414339745,-0.006015456712019954,-0.042697481632993875,-0.013489114404541463,-0.04556479805479527,0.03496928344095938,-0.04551956570921396,0.028948248169371665,-0.007885915557430255,-0.03754038681730361,-0.032822302828827976,-0.12727932471276368,-0.047168416803215575,-0.08262375301312436,-0.06289522483992938],
			"w2":[[-0.2436129821713003,-0.08976086851081064,0.24963252726090998,-0.10086603005447795,0.14036316986435227,-0.1370507192914263,0.0822007751332568,0.06525467429104669,-0.09492624562601147,-0.35234052740756916,0.12730459666793273,-3.1978956694082676E-4,0.1447327579580119,0.15827632658061708,0.032745069923435455,0.03884865942015843,-0.19357211800501264,0.4197973552503005,-0.14958726783904763,-0.03386657503649704]],
			"b2":[0.2947211740928004]
		}
	},
	{
		"size": {"inSize":2,"hlSize":20,"outSize":1},
		"layers":{
			"w1":[
				[-0.25328393676125266,0.1701808658926196],
				[0.7417774917351602,0.3145943213392555],
				[-0.06251720303965266,-0.34400854716572016],
				[-0.3006436153269271,-0.0030160556802809385],[-0.3883723717460416,-0.23858209932884805],[0.21034306569495356,-0.08255318157708526],[0.02196332342760812,0.15744488202834633],[-0.4395158199886649,-0.08720301875354591],[0.2230590234930685,-0.12857810628235763],[-0.13849776308905715,-0.2738065504122517],[0.18586539561055754,-0.029919258634348272],[0.27459960159713365,0.15430636196079126],[-0.11510973421655904,-0.06440657803784773],[0.2228709913879682,6.38206057092864E-4],[0.5538876855232192,-0.20918589684316027],[-0.25411212026636915,0.2767466065479967],[-0.09500220152319391,0.34701802840258966],[-0.07585618941764061,0.1811938787152507],[0.020222614602120822,-0.40000420519255325],[-0.4503957608337934,-0.12079574689149739]],"b1":[-0.056021151962203954,-0.09449285567267413,-0.018938819120536892,-0.08922289882166158,-0.02177641477939085,-0.0364069414339745,-0.006015456712019954,-0.042697481632993875,-0.013489114404541463,-0.04556479805479527,0.03496928344095938,-0.04551956570921396,0.028948248169371665,-0.007885915557430255,-0.03754038681730361,-0.032822302828827976,-0.12727932471276368,-0.047168416803215575,-0.08262375301312436,-0.06289522483992938],"w2":[[-0.2436129821713003,-0.08976086851081064,0.24963252726090998,-0.10086603005447795,0.14036316986435227,-0.1370507192914263,0.0822007751332568,0.06525467429104669,-0.09492624562601147,-0.35234052740756916,0.12730459666793273,-3.1978956694082676E-4,0.1447327579580119,0.15827632658061708,0.032745069923435455,0.03884865942015843,-0.19357211800501264,0.4197973552503005,-0.14958726783904763,-0.03386657503649704]],"b2":[0.2947211740928004]}},{"size":{"inSize":2,"hlSize":20,"outSize":1},"layers":{"w1":[[-0.25328393676125266,0.1701808658926196],[0.7417774917351602,0.3145943213392555],[-0.06251720303965266,-0.34400854716572016],[-0.3006436153269271,-0.0030160556802809385],[-0.3883723717460416,-0.23858209932884805],[0.21034306569495356,-0.08255318157708526],[0.02196332342760812,0.15744488202834633],[-0.4395158199886649,-0.08720301875354591],[0.2230590234930685,-0.12857810628235763],[-0.13849776308905715,-0.2738065504122517],[0.18586539561055754,-0.029919258634348272],[0.27459960159713365,0.15430636196079126],[-0.11510973421655904,-0.06440657803784773],[0.2228709913879682,6.38206057092864E-4],[0.5538876855232192,-0.20918589684316027],[-0.25411212026636915,0.2767466065479967],[-0.09500220152319391,0.34701802840258966],[-0.07585618941764061,0.1811938787152507],[0.020222614602120822,-0.40000420519255325],[-0.4503957608337934,-0.12079574689149739]],"b1":[-0.056021151962203954,-0.09449285567267413,-0.018938819120536892,-0.08922289882166158,-0.02177641477939085,-0.0364069414339745,-0.006015456712019954,-0.042697481632993875,-0.013489114404541463,-0.04556479805479527,0.03496928344095938,-0.04551956570921396,0.028948248169371665,-0.007885915557430255,-0.03754038681730361,-0.032822302828827976,-0.12727932471276368,-0.047168416803215575,-0.08262375301312436,-0.06289522483992938],"w2":[[-0.2436129821713003,-0.08976086851081064,0.24963252726090998,-0.10086603005447795,0.14036316986435227,-0.1370507192914263,0.0822007751332568,0.06525467429104669,-0.09492624562601147,-0.35234052740756916,0.12730459666793273,-3.1978956694082676E-4,0.1447327579580119,0.15827632658061708,0.032745069923435455,0.03884865942015843,-0.19357211800501264,0.4197973552503005,-0.14958726783904763,-0.03386657503649704]],"b2":[0.2947211740928004]}},{"size":{"inSize":2,"hlSize":20,"outSize":1},"layers":{"w1":[[-0.25328393676125266,0.1701808658926196],[0.7417774917351602,0.3145943213392555],[-0.06251720303965266,-0.34400854716572016],[-0.3006436153269271,-0.0030160556802809385],[-0.3883723717460416,-0.23858209932884805],[0.21034306569495356,-0.08255318157708526],[0.02196332342760812,0.15744488202834633],[-0.4395158199886649,-0.08720301875354591],[0.2230590234930685,-0.12857810628235763],[-0.13849776308905715,-0.2738065504122517],[0.18586539561055754,-0.029919258634348272],[0.27459960159713365,0.15430636196079126],[-0.11510973421655904,-0.06440657803784773],[0.2228709913879682,6.38206057092864E-4],[0.5538876855232192,-0.20918589684316027],[-0.25411212026636915,0.2767466065479967],[-0.09500220152319391,0.34701802840258966],[-0.07585618941764061,0.1811938787152507],[0.020222614602120822,-0.40000420519255325],[-0.4503957608337934,-0.12079574689149739]],"b1":[-0.056021151962203954,-0.09449285567267413,-0.018938819120536892,-0.08922289882166158,-0.02177641477939085,-0.0364069414339745,-0.006015456712019954,-0.042697481632993875,-0.013489114404541463,-0.04556479805479527,0.03496928344095938,-0.04551956570921396,0.028948248169371665,-0.007885915557430255,-0.03754038681730361,-0.032822302828827976,-0.12727932471276368,-0.047168416803215575,-0.08262375301312436,-0.06289522483992938],"w2":[[-0.2436129821713003,-0.08976086851081064,0.24963252726090998,-0.10086603005447795,0.14036316986435227,-0.1370507192914263,0.0822007751332568,0.06525467429104669,-0.09492624562601147,-0.35234052740756916,0.12730459666793273,-3.1978956694082676E-4,0.1447327579580119,0.15827632658061708,0.032745069923435455,0.03884865942015843,-0.19357211800501264,0.4197973552503005,-0.14958726783904763,-0.03386657503649704]],"b2":[0.2947211740928004]}},{"size":{"inSize":2,"hlSize":20,"outSize":1},"layers":{"w1":[[-0.25328393676125266,0.1701808658926196],[0.7417774917351602,0.3145943213392555],[-0.06251720303965266,-0.34400854716572016],[-0.3006436153269271,-0.0030160556802809385],[-0.3883723717460416,-0.23858209932884805],[0.21034306569495356,-0.08255318157708526],[0.02196332342760812,0.15744488202834633],[-0.4395158199886649,-0.08720301875354591],[0.2230590234930685,-0.12857810628235763],[-0.13849776308905715,-0.2738065504122517],[0.18586539561055754,-0.029919258634348272],[0.27459960159713365,0.15430636196079126],[-0.11510973421655904,-0.06440657803784773],[0.2228709913879682,6.38206057092864E-4],[0.5538876855232192,-0.20918589684316027],[-0.25411212026636915,0.2767466065479967],[-0.09500220152319391,0.34701802840258966],[-0.07585618941764061,0.1811938787152507],[0.020222614602120822,-0.40000420519255325],[-0.4503957608337934,-0.12079574689149739]],"b1":[-0.056021151962203954,-0.09449285567267413,-0.018938819120536892,-0.08922289882166158,-0.02177641477939085,-0.0364069414339745,-0.006015456712019954,-0.042697481632993875,-0.013489114404541463,-0.04556479805479527,0.03496928344095938,-0.04551956570921396,0.028948248169371665,-0.007885915557430255,-0.03754038681730361,-0.032822302828827976,-0.12727932471276368,-0.047168416803215575,-0.08262375301312436,-0.06289522483992938],"w2":[[-0.2436129821713003,-0.08976086851081064,0.24963252726090998,-0.10086603005447795,0.14036316986435227,-0.1370507192914263,0.0822007751332568,0.06525467429104669,-0.09492624562601147,-0.35234052740756916,0.12730459666793273,-3.1978956694082676E-4,0.1447327579580119,0.15827632658061708,0.032745069923435455,0.03884865942015843,-0.19357211800501264,0.4197973552503005,-0.14958726783904763,-0.03386657503649704]],"b2":[0.2947211740928004]}},{"size":{"inSize":2,"hlSize":20,"outSize":1},"layers":{"w1":[[-0.25328393676125266,0.1701808658926196],[0.7417774917351602,0.3145943213392555],[-0.06251720303965266,-0.34400854716572016],[-0.3006436153269271,-0.0030160556802809385],[-0.3883723717460416,-0.23858209932884805],[0.21034306569495356,-0.08255318157708526],[0.02196332342760812,0.15744488202834633],[-0.4395158199886649,-0.08720301875354591],[0.2230590234930685,-0.12857810628235763],[-0.13849776308905715,-0.2738065504122517],[0.18586539561055754,-0.029919258634348272],[0.27459960159713365,0.15430636196079126],[-0.11510973421655904,-0.06440657803784773],[0.2228709913879682,6.38206057092864E-4],[0.5538876855232192,-0.20918589684316027],[-0.25411212026636915,0.2767466065479967],[-0.09500220152319391,0.34701802840258966],[-0.07585618941764061,0.1811938787152507],[0.020222614602120822,-0.40000420519255325],[-0.4503957608337934,-0.12079574689149739]],"b1":[-0.056021151962203954,-0.09449285567267413,-0.018938819120536892,-0.08922289882166158,-0.02177641477939085,-0.0364069414339745,-0.006015456712019954,-0.042697481632993875,-0.013489114404541463,-0.04556479805479527,0.03496928344095938,-0.04551956570921396,0.028948248169371665,-0.007885915557430255,-0.03754038681730361,-0.032822302828827976,-0.12727932471276368,-0.047168416803215575,-0.08262375301312436,-0.06289522483992938],"w2":[[-0.2436129821713003,-0.08976086851081064,0.24963252726090998,-0.10086603005447795,0.14036316986435227,-0.1370507192914263,0.0822007751332568,0.06525467429104669,-0.09492624562601147,-0.35234052740756916,0.12730459666793273,-3.1978956694082676E-4,0.1447327579580119,0.15827632658061708,0.032745069923435455,0.03884865942015843,-0.19357211800501264,0.4197973552503005,-0.14958726783904763,-0.03386657503649704]],"b2":[0.2947211740928004]}},{"size":{"inSize":2,"hlSize":20,"outSize":1},"layers":{"w1":[[-0.25328393676125266,0.1701808658926196],[0.7417774917351602,0.3145943213392555],[-0.06251720303965266,-0.34400854716572016],[-0.3006436153269271,-0.0030160556802809385],[-0.3883723717460416,-0.23858209932884805],[0.21034306569495356,-0.08255318157708526],[0.02196332342760812,0.15744488202834633],[-0.4395158199886649,-0.08720301875354591],[0.2230590234930685,-0.12857810628235763],[-0.13849776308905715,-0.2738065504122517],[0.18586539561055754,-0.029919258634348272],[0.27459960159713365,0.15430636196079126],[-0.11510973421655904,-0.06440657803784773],[0.2228709913879682,6.38206057092864E-4],[0.5538876855232192,-0.20918589684316027],[-0.25411212026636915,0.2767466065479967],[-0.09500220152319391,0.34701802840258966],[-0.07585618941764061,0.1811938787152507],[0.020222614602120822,-0.40000420519255325],[-0.4503957608337934,-0.12079574689149739]],"b1":[-0.056021151962203954,-0.09449285567267413,-0.018938819120536892,-0.08922289882166158,-0.02177641477939085,-0.0364069414339745,-0.006015456712019954,-0.042697481632993875,-0.013489114404541463,-0.04556479805479527,0.03496928344095938,-0.04551956570921396,0.028948248169371665,-0.007885915557430255,-0.03754038681730361,-0.032822302828827976,-0.12727932471276368,-0.047168416803215575,-0.08262375301312436,-0.06289522483992938],"w2":[[-0.2436129821713003,-0.08976086851081064,0.24963252726090998,-0.10086603005447795,0.14036316986435227,-0.1370507192914263,0.0822007751332568,0.06525467429104669,-0.09492624562601147,-0.35234052740756916,0.12730459666793273,-3.1978956694082676E-4,0.1447327579580119,0.15827632658061708,0.032745069923435455,0.03884865942015843,-0.19357211800501264,0.4197973552503005,-0.14958726783904763,-0.03386657503649704]],"b2":[0.2947211740928004]}},{"size":{"inSize":2,"hlSize":20,"outSize":1},"layers":{"w1":[[-0.25328393676125266,0.1701808658926196],[0.7417774917351602,0.3145943213392555],[-0.06251720303965266,-0.34400854716572016],[-0.3006436153269271,-0.0030160556802809385],[-0.3883723717460416,-0.23858209932884805],[0.21034306569495356,-0.08255318157708526],[0.02196332342760812,0.15744488202834633],[-0.4395158199886649,-0.08720301875354591],[0.2230590234930685,-0.12857810628235763],[-0.13849776308905715,-0.2738065504122517],[0.18586539561055754,-0.029919258634348272],[0.27459960159713365,0.15430636196079126],[-0.11510973421655904,-0.06440657803784773],[0.2228709913879682,6.38206057092864E-4],[0.5538876855232192,-0.20918589684316027],[-0.25411212026636915,0.2767466065479967],[-0.09500220152319391,0.34701802840258966],[-0.07585618941764061,0.1811938787152507],[0.020222614602120822,-0.40000420519255325],[-0.4503957608337934,-0.12079574689149739]],"b1":[-0.056021151962203954,-0.09449285567267413,-0.018938819120536892,-0.08922289882166158,-0.02177641477939085,-0.0364069414339745,-0.006015456712019954,-0.042697481632993875,-0.013489114404541463,-0.04556479805479527,0.03496928344095938,-0.04551956570921396,0.028948248169371665,-0.007885915557430255,-0.03754038681730361,-0.032822302828827976,-0.12727932471276368,-0.047168416803215575,-0.08262375301312436,-0.06289522483992938],"w2":[[-0.2436129821713003,-0.08976086851081064,0.24963252726090998,-0.10086603005447795,0.14036316986435227,-0.1370507192914263,0.0822007751332568,0.06525467429104669,-0.09492624562601147,-0.35234052740756916,0.12730459666793273,-3.1978956694082676E-4,0.1447327579580119,0.15827632658061708,0.032745069923435455,0.03884865942015843,-0.19357211800501264,0.4197973552503005,-0.14958726783904763,-0.03386657503649704]],"b2":[0.2947211740928004]}},{"size":{"inSize":2,"hlSize":20,"outSize":1},"layers":{"w1":[[-0.25328393676125266,0.1701808658926196],[0.7417774917351602,0.3145943213392555],[-0.06251720303965266,-0.34400854716572016],[-0.3006436153269271,-0.0030160556802809385],[-0.3883723717460416,-0.23858209932884805],[0.21034306569495356,-0.08255318157708526],[0.02196332342760812,0.15744488202834633],[-0.4395158199886649,-0.08720301875354591],[0.2230590234930685,-0.12857810628235763],[-0.13849776308905715,-0.2738065504122517],[0.18586539561055754,-0.029919258634348272],[0.27459960159713365,0.15430636196079126],[-0.11510973421655904,-0.06440657803784773],[0.2228709913879682,6.38206057092864E-4],[0.5538876855232192,-0.20918589684316027],[-0.25411212026636915,0.2767466065479967],[-0.09500220152319391,0.34701802840258966],[-0.07585618941764061,0.1811938787152507],[0.020222614602120822,-0.40000420519255325],[-0.4503957608337934,-0.12079574689149739]],"b1":[-0.056021151962203954,-0.09449285567267413,-0.018938819120536892,-0.08922289882166158,-0.02177641477939085,-0.0364069414339745,-0.006015456712019954,-0.042697481632993875,-0.013489114404541463,-0.04556479805479527,0.03496928344095938,-0.04551956570921396,0.028948248169371665,-0.007885915557430255,-0.03754038681730361,-0.032822302828827976,-0.12727932471276368,-0.047168416803215575,-0.08262375301312436,-0.06289522483992938],"w2":[[-0.2436129821713003,-0.08976086851081064,0.24963252726090998,-0.10086603005447795,0.14036316986435227,-0.1370507192914263,0.0822007751332568,0.06525467429104669,-0.09492624562601147,-0.35234052740756916,0.12730459666793273,-3.1978956694082676E-4,0.1447327579580119,0.15827632658061708,0.032745069923435455,0.03884865942015843,-0.19357211800501264,0.4197973552503005,-0.14958726783904763,-0.03386657503649704]],"b2":[0.2947211740928004]}},{"size":{"inSize":2,"hlSize":20,"outSize":1},"layers":{"w1":[[-0.25328393676125266,0.1701808658926196],[0.7417774917351602,0.3145943213392555],[-0.06251720303965266,-0.34400854716572016],[-0.3006436153269271,-0.0030160556802809385],[-0.3883723717460416,-0.23858209932884805],[0.21034306569495356,-0.08255318157708526],[0.02196332342760812,0.15744488202834633],[-0.4395158199886649,-0.08720301875354591],[0.2230590234930685,-0.12857810628235763],[-0.13849776308905715,-0.2738065504122517],[0.18586539561055754,-0.029919258634348272],[0.27459960159713365,0.15430636196079126],[-0.11510973421655904,-0.06440657803784773],[0.2228709913879682,6.38206057092864E-4],[0.5538876855232192,-0.20918589684316027],[-0.25411212026636915,0.2767466065479967],[-0.09500220152319391,0.34701802840258966],[-0.07585618941764061,0.1811938787152507],[0.020222614602120822,-0.40000420519255325],[-0.4503957608337934,-0.12079574689149739]],"b1":[-0.056021151962203954,-0.09449285567267413,-0.018938819120536892,-0.08922289882166158,-0.02177641477939085,-0.0364069414339745,-0.006015456712019954,-0.042697481632993875,-0.013489114404541463,-0.04556479805479527,0.03496928344095938,-0.04551956570921396,0.028948248169371665,-0.007885915557430255,-0.03754038681730361,-0.032822302828827976,-0.12727932471276368,-0.047168416803215575,-0.08262375301312436,-0.06289522483992938],"w2":[[-0.2436129821713003,-0.08976086851081064,0.24963252726090998,-0.10086603005447795,0.14036316986435227,-0.1370507192914263,0.0822007751332568,0.06525467429104669,-0.09492624562601147,-0.35234052740756916,0.12730459666793273,-3.1978956694082676E-4,0.1447327579580119,0.15827632658061708,0.032745069923435455,0.03884865942015843,-0.19357211800501264,0.4197973552503005,-0.14958726783904763,-0.03386657503649704]],"b2":[0.2947211740928004]}},{"size":{"inSize":2,"hlSize":20,"outSize":1},"layers":{"w1":[[-0.25328393676125266,0.1701808658926196],[0.7417774917351602,0.3145943213392555],[-0.06251720303965266,-0.34400854716572016],[-0.3006436153269271,-0.0030160556802809385],[-0.3883723717460416,-0.23858209932884805],[0.21034306569495356,-0.08255318157708526],[0.02196332342760812,0.15744488202834633],[-0.4395158199886649,-0.08720301875354591],[0.2230590234930685,-0.12857810628235763],[-0.13849776308905715,-0.2738065504122517],[0.18586539561055754,-0.029919258634348272],[0.27459960159713365,0.15430636196079126],[-0.11510973421655904,-0.06440657803784773],[0.2228709913879682,6.38206057092864E-4],[0.5538876855232192,-0.20918589684316027],[-0.25411212026636915,0.2767466065479967],[-0.09500220152319391,0.34701802840258966],[-0.07585618941764061,0.1811938787152507],[0.020222614602120822,-0.40000420519255325],[-0.4503957608337934,-0.12079574689149739]],"b1":[-0.056021151962203954,-0.09449285567267413,-0.018938819120536892,-0.08922289882166158,-0.02177641477939085,-0.0364069414339745,-0.006015456712019954,-0.042697481632993875,-0.013489114404541463,-0.04556479805479527,0.03496928344095938,-0.04551956570921396,0.028948248169371665,-0.007885915557430255,-0.03754038681730361,-0.032822302828827976,-0.12727932471276368,-0.047168416803215575,-0.08262375301312436,-0.06289522483992938],"w2":[[-0.2436129821713003,-0.08976086851081064,0.24963252726090998,-0.10086603005447795,0.14036316986435227,-0.1370507192914263,0.0822007751332568,0.06525467429104669,-0.09492624562601147,-0.35234052740756916,0.12730459666793273,-3.1978956694082676E-4,0.1447327579580119,0.15827632658061708,0.032745069923435455,0.03884865942015843,-0.19357211800501264,0.4197973552503005,-0.14958726783904763,-0.03386657503649704]],"b2":[0.2947211740928004]}},{"size":{"inSize":2,"hlSize":20,"outSize":1},"layers":{"w1":[[-0.25328393676125266,0.1701808658926196],[0.7417774917351602,0.3145943213392555],[-0.06251720303965266,-0.34400854716572016],[-0.3006436153269271,-0.0030160556802809385],[-0.3883723717460416,-0.23858209932884805],[0.21034306569495356,-0.08255318157708526],[0.02196332342760812,0.15744488202834633],[-0.4395158199886649,-0.08720301875354591],[0.2230590234930685,-0.12857810628235763],[-0.13849776308905715,-0.2738065504122517],[0.18586539561055754,-0.029919258634348272],[0.27459960159713365,0.15430636196079126],[-0.11510973421655904,-0.06440657803784773],[0.2228709913879682,6.38206057092864E-4],[0.5538876855232192,-0.20918589684316027],[-0.25411212026636915,0.2767466065479967],[-0.09500220152319391,0.34701802840258966],[-0.07585618941764061,0.1811938787152507],[0.020222614602120822,-0.40000420519255325],[-0.4503957608337934,-0.12079574689149739]],"b1":[-0.056021151962203954,-0.09449285567267413,-0.018938819120536892,-0.08922289882166158,-0.02177641477939085,-0.0364069414339745,-0.006015456712019954,-0.042697481632993875,-0.013489114404541463,-0.04556479805479527,0.03496928344095938,-0.04551956570921396,0.028948248169371665,-0.007885915557430255,-0.03754038681730361,-0.032822302828827976,-0.12727932471276368,-0.047168416803215575,-0.08262375301312436,-0.06289522483992938],"w2":[[-0.2436129821713003,-0.08976086851081064,0.24963252726090998,-0.10086603005447795,0.14036316986435227,-0.1370507192914263,0.0822007751332568,0.06525467429104669,-0.09492624562601147,-0.35234052740756916,0.12730459666793273,-3.1978956694082676E-4,0.1447327579580119,0.15827632658061708,0.032745069923435455,0.03884865942015843,-0.19357211800501264,0.4197973552503005,-0.14958726783904763,-0.03386657503649704]],"b2":[0.2947211740928004]}},{"size":{"inSize":2,"hlSize":20,"outSize":1},"layers":{"w1":[[-0.25328393676125266,0.1701808658926196],[0.7417774917351602,0.3145943213392555],[-0.06251720303965266,-0.34400854716572016],[-0.3006436153269271,-0.0030160556802809385],[-0.3883723717460416,-0.23858209932884805],[0.21034306569495356,-0.08255318157708526],[0.02196332342760812,0.15744488202834633],[-0.4395158199886649,-0.08720301875354591],[0.2230590234930685,-0.12857810628235763],[-0.13849776308905715,-0.2738065504122517],[0.18586539561055754,-0.029919258634348272],[0.27459960159713365,0.15430636196079126],[-0.11510973421655904,-0.06440657803784773],[0.2228709913879682,6.38206057092864E-4],[0.5538876855232192,-0.20918589684316027],[-0.25411212026636915,0.2767466065479967],[-0.09500220152319391,0.34701802840258966],[-0.07585618941764061,0.1811938787152507],[0.020222614602120822,-0.40000420519255325],[-0.4503957608337934,-0.12079574689149739]],"b1":[-0.056021151962203954,-0.09449285567267413,-0.018938819120536892,-0.08922289882166158,-0.02177641477939085,-0.0364069414339745,-0.006015456712019954,-0.042697481632993875,-0.013489114404541463,-0.04556479805479527,0.03496928344095938,-0.04551956570921396,0.028948248169371665,-0.007885915557430255,-0.03754038681730361,-0.032822302828827976,-0.12727932471276368,-0.047168416803215575,-0.08262375301312436,-0.06289522483992938],"w2":[[-0.2436129821713003,-0.08976086851081064,0.24963252726090998,-0.10086603005447795,0.14036316986435227,-0.1370507192914263,0.0822007751332568,0.06525467429104669,-0.09492624562601147,-0.35234052740756916,0.12730459666793273,-3.1978956694082676E-4,0.1447327579580119,0.15827632658061708,0.032745069923435455,0.03884865942015843,-0.19357211800501264,0.4197973552503005,-0.14958726783904763,-0.03386657503649704]],"b2":[0.2947211740928004]}},{"size":{"inSize":2,"hlSize":20,"outSize":1},"layers":{"w1":[[-0.25328393676125266,0.1701808658926196],[0.7417774917351602,0.3145943213392555],[-0.06251720303965266,-0.34400854716572016],[-0.3006436153269271,-0.0030160556802809385],[-0.3883723717460416,-0.23858209932884805],[0.21034306569495356,-0.08255318157708526],[0.02196332342760812,0.15744488202834633],[-0.4395158199886649,-0.08720301875354591],[0.2230590234930685,-0.12857810628235763],[-0.13849776308905715,-0.2738065504122517],[0.18586539561055754,-0.029919258634348272],[0.27459960159713365,0.15430636196079126],[-0.11510973421655904,-0.06440657803784773],[0.2228709913879682,6.38206057092864E-4],[0.5538876855232192,-0.20918589684316027],[-0.25411212026636915,0.2767466065479967],[-0.09500220152319391,0.34701802840258966],[-0.07585618941764061,0.1811938787152507],[0.020222614602120822,-0.40000420519255325],[-0.4503957608337934,-0.12079574689149739]],"b1":[-0.056021151962203954,-0.09449285567267413,-0.018938819120536892,-0.08922289882166158,-0.02177641477939085,-0.0364069414339745,-0.006015456712019954,-0.042697481632993875,-0.013489114404541463,-0.04556479805479527,0.03496928344095938,-0.04551956570921396,0.028948248169371665,-0.007885915557430255,-0.03754038681730361,-0.032822302828827976,-0.12727932471276368,-0.047168416803215575,-0.08262375301312436,-0.06289522483992938],"w2":[[-0.2436129821713003,-0.08976086851081064,0.24963252726090998,-0.10086603005447795,0.14036316986435227,-0.1370507192914263,0.0822007751332568,0.06525467429104669,-0.09492624562601147,-0.35234052740756916,0.12730459666793273,-3.1978956694082676E-4,0.1447327579580119,0.15827632658061708,0.032745069923435455,0.03884865942015843,-0.19357211800501264,0.4197973552503005,-0.14958726783904763,-0.03386657503649704]],"b2":[0.2947211740928004]}},{"size":{"inSize":2,"hlSize":20,"outSize":1},"layers":{"w1":[[-0.25328393676125266,0.1701808658926196],[0.7417774917351602,0.3145943213392555],[-0.06251720303965266,-0.34400854716572016],[-0.3006436153269271,-0.0030160556802809385],[-0.3883723717460416,-0.23858209932884805],[0.21034306569495356,-0.08255318157708526],[0.02196332342760812,0.15744488202834633],[-0.4395158199886649,-0.08720301875354591],[0.2230590234930685,-0.12857810628235763],[-0.13849776308905715,-0.2738065504122517],[0.18586539561055754,-0.029919258634348272],[0.27459960159713365,0.15430636196079126],[-0.11510973421655904,-0.06440657803784773],[0.2228709913879682,6.38206057092864E-4],[0.5538876855232192,-0.20918589684316027],[-0.25411212026636915,0.2767466065479967],[-0.09500220152319391,0.34701802840258966],[-0.07585618941764061,0.1811938787152507],[0.020222614602120822,-0.40000420519255325],[-0.4503957608337934,-0.12079574689149739]],"b1":[-0.056021151962203954,-0.09449285567267413,-0.018938819120536892,-0.08922289882166158,-0.02177641477939085,-0.0364069414339745,-0.006015456712019954,-0.042697481632993875,-0.013489114404541463,-0.04556479805479527,0.03496928344095938,-0.04551956570921396,0.028948248169371665,-0.007885915557430255,-0.03754038681730361,-0.032822302828827976,-0.12727932471276368,-0.047168416803215575,-0.08262375301312436,-0.06289522483992938],"w2":[[-0.2436129821713003,-0.08976086851081064,0.24963252726090998,-0.10086603005447795,0.14036316986435227,-0.1370507192914263,0.0822007751332568,0.06525467429104669,-0.09492624562601147,-0.35234052740756916,0.12730459666793273,-3.1978956694082676E-4,0.1447327579580119,0.15827632658061708,0.032745069923435455,0.03884865942015843,-0.19357211800501264,0.4197973552503005,-0.14958726783904763,-0.03386657503649704]],"b2":[0.2947211740928004]}},{"size":{"inSize":2,"hlSize":20,"outSize":1},"layers":{"w1":[[-0.25328393676125266,0.1701808658926196],[0.7417774917351602,0.3145943213392555],[-0.06251720303965266,-0.34400854716572016],[-0.3006436153269271,-0.0030160556802809385],[-0.3883723717460416,-0.23858209932884805],[0.21034306569495356,-0.08255318157708526],[0.02196332342760812,0.15744488202834633],[-0.4395158199886649,-0.08720301875354591],[0.2230590234930685,-0.12857810628235763],[-0.13849776308905715,-0.2738065504122517],[0.18586539561055754,-0.029919258634348272],[0.27459960159713365,0.15430636196079126],[-0.11510973421655904,-0.06440657803784773],[0.2228709913879682,6.38206057092864E-4],[0.5538876855232192,-0.20918589684316027],[-0.25411212026636915,0.2767466065479967],[-0.09500220152319391,0.34701802840258966],[-0.07585618941764061,0.1811938787152507],[0.020222614602120822,-0.40000420519255325],[-0.4503957608337934,-0.12079574689149739]],"b1":[-0.056021151962203954,-0.09449285567267413,-0.018938819120536892,-0.08922289882166158,-0.02177641477939085,-0.0364069414339745,-0.006015456712019954,-0.042697481632993875,-0.013489114404541463,-0.04556479805479527,0.03496928344095938,-0.04551956570921396,0.028948248169371665,-0.007885915557430255,-0.03754038681730361,-0.032822302828827976,-0.12727932471276368,-0.047168416803215575,-0.08262375301312436,-0.06289522483992938],"w2":[[-0.2436129821713003,-0.08976086851081064,0.24963252726090998,-0.10086603005447795,0.14036316986435227,-0.1370507192914263,0.0822007751332568,0.06525467429104669,-0.09492624562601147,-0.35234052740756916,0.12730459666793273,-3.1978956694082676E-4,0.1447327579580119,0.15827632658061708,0.032745069923435455,0.03884865942015843,-0.19357211800501264,0.4197973552503005,-0.14958726783904763,-0.03386657503649704]],"b2":[0.2947211740928004]}},{"size":{"inSize":2,"hlSize":20,"outSize":1},"layers":{"w1":[[-0.25328393676125266,0.1701808658926196],[0.7417774917351602,0.3145943213392555],[-0.06251720303965266,-0.34400854716572016],[-0.3006436153269271,-0.0030160556802809385],[-0.3883723717460416,-0.23858209932884805],[0.21034306569495356,-0.08255318157708526],[0.02196332342760812,0.15744488202834633],[-0.4395158199886649,-0.08720301875354591],[0.2230590234930685,-0.12857810628235763],[-0.13849776308905715,-0.2738065504122517],[0.18586539561055754,-0.029919258634348272],[0.27459960159713365,0.15430636196079126],[-0.11510973421655904,-0.06440657803784773],[0.2228709913879682,6.38206057092864E-4],[0.5538876855232192,-0.20918589684316027],[-0.25411212026636915,0.2767466065479967],[-0.09500220152319391,0.34701802840258966],[-0.07585618941764061,0.1811938787152507],[0.020222614602120822,-0.40000420519255325],[-0.4503957608337934,-0.12079574689149739]],"b1":[-0.056021151962203954,-0.09449285567267413,-0.018938819120536892,-0.08922289882166158,-0.02177641477939085,-0.0364069414339745,-0.006015456712019954,-0.042697481632993875,-0.013489114404541463,-0.04556479805479527,0.03496928344095938,-0.04551956570921396,0.028948248169371665,-0.007885915557430255,-0.03754038681730361,-0.032822302828827976,-0.12727932471276368,-0.047168416803215575,-0.08262375301312436,-0.06289522483992938],"w2":[[-0.2436129821713003,-0.08976086851081064,0.24963252726090998,-0.10086603005447795,0.14036316986435227,-0.1370507192914263,0.0822007751332568,0.06525467429104669,-0.09492624562601147,-0.35234052740756916,0.12730459666793273,-3.1978956694082676E-4,0.1447327579580119,0.15827632658061708,0.032745069923435455,0.03884865942015843,-0.19357211800501264,0.4197973552503005,-0.14958726783904763,-0.03386657503649704]],"b2":[0.2947211740928004]}},{"size":{"inSize":2,"hlSize":20,"outSize":1},"layers":{"w1":[[-0.25328393676125266,0.1701808658926196],[0.7417774917351602,0.3145943213392555],[-0.06251720303965266,-0.34400854716572016],[-0.3006436153269271,-0.0030160556802809385],[-0.3883723717460416,-0.23858209932884805],[0.21034306569495356,-0.08255318157708526],[0.02196332342760812,0.15744488202834633],[-0.4395158199886649,-0.08720301875354591],[0.2230590234930685,-0.12857810628235763],[-0.13849776308905715,-0.2738065504122517],[0.18586539561055754,-0.029919258634348272],[0.27459960159713365,0.15430636196079126],[-0.11510973421655904,-0.06440657803784773],[0.2228709913879682,6.38206057092864E-4],[0.5538876855232192,-0.20918589684316027],[-0.25411212026636915,0.2767466065479967],[-0.09500220152319391,0.34701802840258966],[-0.07585618941764061,0.1811938787152507],[0.020222614602120822,-0.40000420519255325],[-0.4503957608337934,-0.12079574689149739]],"b1":[-0.056021151962203954,-0.09449285567267413,-0.018938819120536892,-0.08922289882166158,-0.02177641477939085,-0.0364069414339745,-0.006015456712019954,-0.042697481632993875,-0.013489114404541463,-0.04556479805479527,0.03496928344095938,-0.04551956570921396,0.028948248169371665,-0.007885915557430255,-0.03754038681730361,-0.032822302828827976,-0.12727932471276368,-0.047168416803215575,-0.08262375301312436,-0.06289522483992938],"w2":[[-0.2436129821713003,-0.08976086851081064,0.24963252726090998,-0.10086603005447795,0.14036316986435227,-0.1370507192914263,0.0822007751332568,0.06525467429104669,-0.09492624562601147,-0.35234052740756916,0.12730459666793273,-3.1978956694082676E-4,0.1447327579580119,0.15827632658061708,0.032745069923435455,0.03884865942015843,-0.19357211800501264,0.4197973552503005,-0.14958726783904763,-0.03386657503649704]],"b2":[0.2947211740928004]}},{"size":{"inSize":2,"hlSize":20,"outSize":1},"layers":{"w1":[[-0.25328393676125266,0.1701808658926196],[0.7417774917351602,0.3145943213392555],[-0.06251720303965266,-0.34400854716572016],[-0.3006436153269271,-0.0030160556802809385],[-0.3883723717460416,-0.23858209932884805],[0.21034306569495356,-0.08255318157708526],[0.02196332342760812,0.15744488202834633],[-0.4395158199886649,-0.08720301875354591],[0.2230590234930685,-0.12857810628235763],[-0.13849776308905715,-0.2738065504122517],[0.18586539561055754,-0.029919258634348272],[0.27459960159713365,0.15430636196079126],[-0.11510973421655904,-0.06440657803784773],[0.2228709913879682,6.38206057092864E-4],[0.5538876855232192,-0.20918589684316027],[-0.25411212026636915,0.2767466065479967],[-0.09500220152319391,0.34701802840258966],[-0.07585618941764061,0.1811938787152507],[0.020222614602120822,-0.40000420519255325],[-0.4503957608337934,-0.12079574689149739]],"b1":[-0.056021151962203954,-0.09449285567267413,-0.018938819120536892,-0.08922289882166158,-0.02177641477939085,-0.0364069414339745,-0.006015456712019954,-0.042697481632993875,-0.013489114404541463,-0.04556479805479527,0.03496928344095938,-0.04551956570921396,0.028948248169371665,-0.007885915557430255,-0.03754038681730361,-0.032822302828827976,-0.12727932471276368,-0.047168416803215575,-0.08262375301312436,-0.06289522483992938],"w2":[[-0.2436129821713003,-0.08976086851081064,0.24963252726090998,-0.10086603005447795,0.14036316986435227,-0.1370507192914263,0.0822007751332568,0.06525467429104669,-0.09492624562601147,-0.35234052740756916,0.12730459666793273,-3.1978956694082676E-4,0.1447327579580119,0.15827632658061708,0.032745069923435455,0.03884865942015843,-0.19357211800501264,0.4197973552503005,-0.14958726783904763,-0.03386657503649704]],"b2":[0.2947211740928004]}},{"size":{"inSize":2,"hlSize":20,"outSize":1},"layers":{"w1":[[-0.25328393676125266,0.1701808658926196],[0.7417774917351602,0.3145943213392555],[-0.06251720303965266,-0.34400854716572016],[-0.3006436153269271,-0.0030160556802809385],[-0.3883723717460416,-0.23858209932884805],[0.21034306569495356,-0.08255318157708526],[0.02196332342760812,0.15744488202834633],[-0.4395158199886649,-0.08720301875354591],[0.2230590234930685,-0.12857810628235763],[-0.13849776308905715,-0.2738065504122517],[0.18586539561055754,-0.029919258634348272],[0.27459960159713365,0.15430636196079126],[-0.11510973421655904,-0.06440657803784773],[0.2228709913879682,6.38206057092864E-4],[0.5538876855232192,-0.20918589684316027],[-0.25411212026636915,0.2767466065479967],[-0.09500220152319391,0.34701802840258966],[-0.07585618941764061,0.1811938787152507],[0.020222614602120822,-0.40000420519255325],[-0.4503957608337934,-0.12079574689149739]],"b1":[-0.056021151962203954,-0.09449285567267413,-0.018938819120536892,-0.08922289882166158,-0.02177641477939085,-0.0364069414339745,-0.006015456712019954,-0.042697481632993875,-0.013489114404541463,-0.04556479805479527,0.03496928344095938,-0.04551956570921396,0.028948248169371665,-0.007885915557430255,-0.03754038681730361,-0.032822302828827976,-0.12727932471276368,-0.047168416803215575,-0.08262375301312436,-0.06289522483992938],"w2":[[-0.2436129821713003,-0.08976086851081064,0.24963252726090998,-0.10086603005447795,0.14036316986435227,-0.1370507192914263,0.0822007751332568,0.06525467429104669,-0.09492624562601147,-0.35234052740756916,0.12730459666793273,-3.1978956694082676E-4,0.1447327579580119,0.15827632658061708,0.032745069923435455,0.03884865942015843,-0.19357211800501264,0.4197973552503005,-0.14958726783904763,-0.03386657503649704]],"b2":[0.2947211740928004]}},{"size":{"inSize":2,"hlSize":20,"outSize":1},"layers":{"w1":[[-0.25328393676125266,0.1701808658926196],[0.7417774917351602,0.3145943213392555],[-0.06251720303965266,-0.34400854716572016],[-0.3006436153269271,-0.0030160556802809385],[-0.3883723717460416,-0.23858209932884805],[0.21034306569495356,-0.08255318157708526],[0.02196332342760812,0.15744488202834633],[-0.4395158199886649,-0.08720301875354591],[0.2230590234930685,-0.12857810628235763],[-0.13849776308905715,-0.2738065504122517],[0.18586539561055754,-0.029919258634348272],[0.27459960159713365,0.15430636196079126],[-0.11510973421655904,-0.06440657803784773],[0.2228709913879682,6.38206057092864E-4],[0.5538876855232192,-0.20918589684316027],[-0.25411212026636915,0.2767466065479967],[-0.09500220152319391,0.34701802840258966],[-0.07585618941764061,0.1811938787152507],[0.020222614602120822,-0.40000420519255325],[-0.4503957608337934,-0.12079574689149739]],"b1":[-0.056021151962203954,-0.09449285567267413,-0.018938819120536892,-0.08922289882166158,-0.02177641477939085,-0.0364069414339745,-0.006015456712019954,-0.042697481632993875,-0.013489114404541463,-0.04556479805479527,0.03496928344095938,-0.04551956570921396,0.028948248169371665,-0.007885915557430255,-0.03754038681730361,-0.032822302828827976,-0.12727932471276368,-0.047168416803215575,-0.08262375301312436,-0.06289522483992938],"w2":[[-0.2436129821713003,-0.08976086851081064,0.24963252726090998,-0.10086603005447795,0.14036316986435227,-0.1370507192914263,0.0822007751332568,0.06525467429104669,-0.09492624562601147,-0.35234052740756916,0.12730459666793273,-3.1978956694082676E-4,0.1447327579580119,0.15827632658061708,0.032745069923435455,0.03884865942015843,-0.19357211800501264,0.4197973552503005,-0.14958726783904763,-0.03386657503649704]],"b2":[0.2947211740928004]}},{"size":{"inSize":2,"hlSize":20,"outSize":1},"layers":{"w1":[[-0.25328393676125266,0.1701808658926196],[0.7417774917351602,0.3145943213392555],[-0.06251720303965266,-0.34400854716572016],[-0.3006436153269271,-0.0030160556802809385],[-0.3883723717460416,-0.23858209932884805],[0.21034306569495356,-0.08255318157708526],[0.02196332342760812,0.15744488202834633],[-0.4395158199886649,-0.08720301875354591],[0.2230590234930685,-0.12857810628235763],[-0.13849776308905715,-0.2738065504122517],[0.18586539561055754,-0.029919258634348272],[0.27459960159713365,0.15430636196079126],[-0.11510973421655904,-0.06440657803784773],[0.2228709913879682,6.38206057092864E-4],[0.5538876855232192,-0.20918589684316027],[-0.25411212026636915,0.2767466065479967],[-0.09500220152319391,0.34701802840258966],[-0.07585618941764061,0.1811938787152507],[0.020222614602120822,-0.40000420519255325],[-0.4503957608337934,-0.12079574689149739]],"b1":[-0.056021151962203954,-0.09449285567267413,-0.018938819120536892,-0.08922289882166158,-0.02177641477939085,-0.0364069414339745,-0.006015456712019954,-0.042697481632993875,-0.013489114404541463,-0.04556479805479527,0.03496928344095938,-0.04551956570921396,0.028948248169371665,-0.007885915557430255,-0.03754038681730361,-0.032822302828827976,-0.12727932471276368,-0.047168416803215575,-0.08262375301312436,-0.06289522483992938],"w2":[[-0.2436129821713003,-0.08976086851081064,0.24963252726090998,-0.10086603005447795,0.14036316986435227,-0.1370507192914263,0.0822007751332568,0.06525467429104669,-0.09492624562601147,-0.35234052740756916,0.12730459666793273,-3.1978956694082676E-4,0.1447327579580119,0.15827632658061708,0.032745069923435455,0.03884865942015843,-0.19357211800501264,0.4197973552503005,-0.14958726783904763,-0.03386657503649704]],"b2":[0.2947211740928004]}},{"size":{"inSize":2,"hlSize":20,"outSize":1},"layers":{"w1":[[-0.25328393676125266,0.1701808658926196],[0.7417774917351602,0.3145943213392555],[-0.06251720303965266,-0.34400854716572016],[-0.3006436153269271,-0.0030160556802809385],[-0.3883723717460416,-0.23858209932884805],[0.21034306569495356,-0.08255318157708526],[0.02196332342760812,0.15744488202834633],[-0.4395158199886649,-0.08720301875354591],[0.2230590234930685,-0.12857810628235763],[-0.13849776308905715,-0.2738065504122517],[0.18586539561055754,-0.029919258634348272],[0.27459960159713365,0.15430636196079126],[-0.11510973421655904,-0.06440657803784773],[0.2228709913879682,6.38206057092864E-4],[0.5538876855232192,-0.20918589684316027],[-0.25411212026636915,0.2767466065479967],[-0.09500220152319391,0.34701802840258966],[-0.07585618941764061,0.1811938787152507],[0.020222614602120822,-0.40000420519255325],[-0.4503957608337934,-0.12079574689149739]],"b1":[-0.056021151962203954,-0.09449285567267413,-0.018938819120536892,-0.08922289882166158,-0.02177641477939085,-0.0364069414339745,-0.006015456712019954,-0.042697481632993875,-0.013489114404541463,-0.04556479805479527,0.03496928344095938,-0.04551956570921396,0.028948248169371665,-0.007885915557430255,-0.03754038681730361,-0.032822302828827976,-0.12727932471276368,-0.047168416803215575,-0.08262375301312436,-0.06289522483992938],"w2":[[-0.2436129821713003,-0.08976086851081064,0.24963252726090998,-0.10086603005447795,0.14036316986435227,-0.1370507192914263,0.0822007751332568,0.06525467429104669,-0.09492624562601147,-0.35234052740756916,0.12730459666793273,-3.1978956694082676E-4,0.1447327579580119,0.15827632658061708,0.032745069923435455,0.03884865942015843,-0.19357211800501264,0.4197973552503005,-0.14958726783904763,-0.03386657503649704]],"b2":[0.2947211740928004]}},{"size":{"inSize":2,"hlSize":20,"outSize":1},"layers":{"w1":[[-0.25328393676125266,0.1701808658926196],[0.7417774917351602,0.3145943213392555],[-0.06251720303965266,-0.34400854716572016],[-0.3006436153269271,-0.0030160556802809385],[-0.3883723717460416,-0.23858209932884805],[0.21034306569495356,-0.08255318157708526],[0.02196332342760812,0.15744488202834633],[-0.4395158199886649,-0.08720301875354591],[0.2230590234930685,-0.12857810628235763],[-0.13849776308905715,-0.2738065504122517],[0.18586539561055754,-0.029919258634348272],[0.27459960159713365,0.15430636196079126],[-0.11510973421655904,-0.06440657803784773],[0.2228709913879682,6.38206057092864E-4],[0.5538876855232192,-0.20918589684316027],[-0.25411212026636915,0.2767466065479967],[-0.09500220152319391,0.34701802840258966],[-0.07585618941764061,0.1811938787152507],[0.020222614602120822,-0.40000420519255325],[-0.4503957608337934,-0.12079574689149739]],"b1":[-0.056021151962203954,-0.09449285567267413,-0.018938819120536892,-0.08922289882166158,-0.02177641477939085,-0.0364069414339745,-0.006015456712019954,-0.042697481632993875,-0.013489114404541463,-0.04556479805479527,0.03496928344095938,-0.04551956570921396,0.028948248169371665,-0.007885915557430255,-0.03754038681730361,-0.032822302828827976,-0.12727932471276368,-0.047168416803215575,-0.08262375301312436,-0.06289522483992938],"w2":[[-0.2436129821713003,-0.08976086851081064,0.24963252726090998,-0.10086603005447795,0.14036316986435227,-0.1370507192914263,0.0822007751332568,0.06525467429104669,-0.09492624562601147,-0.35234052740756916,0.12730459666793273,-3.1978956694082676E-4,0.1447327579580119,0.15827632658061708,0.032745069923435455,0.03884865942015843,-0.19357211800501264,0.4197973552503005,-0.14958726783904763,-0.03386657503649704]],"b2":[0.2947211740928004]}},{"size":{"inSize":2,"hlSize":20,"outSize":1},"layers":{"w1":[[-0.25328393676125266,0.1701808658926196],[0.7417774917351602,0.3145943213392555],[-0.06251720303965266,-0.34400854716572016],[-0.3006436153269271,-0.0030160556802809385],[-0.3883723717460416,-0.23858209932884805],[0.21034306569495356,-0.08255318157708526],[0.02196332342760812,0.15744488202834633],[-0.4395158199886649,-0.08720301875354591],[0.2230590234930685,-0.12857810628235763],[-0.13849776308905715,-0.2738065504122517],[0.18586539561055754,-0.029919258634348272],[0.27459960159713365,0.15430636196079126],[-0.11510973421655904,-0.06440657803784773],[0.2228709913879682,6.38206057092864E-4],[0.5538876855232192,-0.20918589684316027],[-0.25411212026636915,0.2767466065479967],[-0.09500220152319391,0.34701802840258966],[-0.07585618941764061,0.1811938787152507],[0.020222614602120822,-0.40000420519255325],[-0.4503957608337934,-0.12079574689149739]],"b1":[-0.056021151962203954,-0.09449285567267413,-0.018938819120536892,-0.08922289882166158,-0.02177641477939085,-0.0364069414339745,-0.006015456712019954,-0.042697481632993875,-0.013489114404541463,-0.04556479805479527,0.03496928344095938,-0.04551956570921396,0.028948248169371665,-0.007885915557430255,-0.03754038681730361,-0.032822302828827976,-0.12727932471276368,-0.047168416803215575,-0.08262375301312436,-0.06289522483992938],"w2":[[-0.2436129821713003,-0.08976086851081064,0.24963252726090998,-0.10086603005447795,0.14036316986435227,-0.1370507192914263,0.0822007751332568,0.06525467429104669,-0.09492624562601147,-0.35234052740756916,0.12730459666793273,-3.1978956694082676E-4,0.1447327579580119,0.15827632658061708,0.032745069923435455,0.03884865942015843,-0.19357211800501264,0.4197973552503005,-0.14958726783904763,-0.03386657503649704]],"b2":[0.2947211740928004]}},{"size":{"inSize":2,"hlSize":20,"outSize":1},"layers":{"w1":[[-0.25328393676125266,0.1701808658926196],[0.7417774917351602,0.3145943213392555],[-0.06251720303965266,-0.34400854716572016],[-0.3006436153269271,-0.0030160556802809385],[-0.3883723717460416,-0.23858209932884805],[0.21034306569495356,-0.08255318157708526],[0.02196332342760812,0.15744488202834633],[-0.4395158199886649,-0.08720301875354591],[0.2230590234930685,-0.12857810628235763],[-0.13849776308905715,-0.2738065504122517],[0.18586539561055754,-0.029919258634348272],[0.27459960159713365,0.15430636196079126],[-0.11510973421655904,-0.06440657803784773],[0.2228709913879682,6.38206057092864E-4],[0.5538876855232192,-0.20918589684316027],[-0.25411212026636915,0.2767466065479967],[-0.09500220152319391,0.34701802840258966],[-0.07585618941764061,0.1811938787152507],[0.020222614602120822,-0.40000420519255325],[-0.4503957608337934,-0.12079574689149739]],"b1":[-0.056021151962203954,-0.09449285567267413,-0.018938819120536892,-0.08922289882166158,-0.02177641477939085,-0.0364069414339745,-0.006015456712019954,-0.042697481632993875,-0.013489114404541463,-0.04556479805479527,0.03496928344095938,-0.04551956570921396,0.028948248169371665,-0.007885915557430255,-0.03754038681730361,-0.032822302828827976,-0.12727932471276368,-0.047168416803215575,-0.08262375301312436,-0.06289522483992938],"w2":[[-0.2436129821713003,-0.08976086851081064,0.24963252726090998,-0.10086603005447795,0.14036316986435227,-0.1370507192914263,0.0822007751332568,0.06525467429104669,-0.09492624562601147,-0.35234052740756916,0.12730459666793273,-3.1978956694082676E-4,0.1447327579580119,0.15827632658061708,0.032745069923435455,0.03884865942015843,-0.19357211800501264,0.4197973552503005,-0.14958726783904763,-0.03386657503649704]],"b2":[0.2947211740928004]}},{"size":{"inSize":2,"hlSize":20,"outSize":1},"layers":{"w1":[[-0.25328393676125266,0.1701808658926196],[0.7417774917351602,0.3145943213392555],[-0.06251720303965266,-0.34400854716572016],[-0.3006436153269271,-0.0030160556802809385],[-0.3883723717460416,-0.23858209932884805],[0.21034306569495356,-0.08255318157708526],[0.02196332342760812,0.15744488202834633],[-0.4395158199886649,-0.08720301875354591],[0.2230590234930685,-0.12857810628235763],[-0.13849776308905715,-0.2738065504122517],[0.18586539561055754,-0.029919258634348272],[0.27459960159713365,0.15430636196079126],[-0.11510973421655904,-0.06440657803784773],[0.2228709913879682,6.38206057092864E-4],[0.5538876855232192,-0.20918589684316027],[-0.25411212026636915,0.2767466065479967],[-0.09500220152319391,0.34701802840258966],[-0.07585618941764061,0.1811938787152507],[0.020222614602120822,-0.40000420519255325],[-0.4503957608337934,-0.12079574689149739]],"b1":[-0.056021151962203954,-0.09449285567267413,-0.018938819120536892,-0.08922289882166158,-0.02177641477939085,-0.0364069414339745,-0.006015456712019954,-0.042697481632993875,-0.013489114404541463,-0.04556479805479527,0.03496928344095938,-0.04551956570921396,0.028948248169371665,-0.007885915557430255,-0.03754038681730361,-0.032822302828827976,-0.12727932471276368,-0.047168416803215575,-0.08262375301312436,-0.06289522483992938],"w2":[[-0.2436129821713003,-0.08976086851081064,0.24963252726090998,-0.10086603005447795,0.14036316986435227,-0.1370507192914263,0.0822007751332568,0.06525467429104669,-0.09492624562601147,-0.35234052740756916,0.12730459666793273,-3.1978956694082676E-4,0.1447327579580119,0.15827632658061708,0.032745069923435455,0.03884865942015843,-0.19357211800501264,0.4197973552503005,-0.14958726783904763,-0.03386657503649704]],"b2":[0.2947211740928004]}},{"size":{"inSize":2,"hlSize":20,"outSize":1},"layers":{"w1":[[-0.25328393676125266,0.1701808658926196],[0.7417774917351602,0.3145943213392555],[-0.06251720303965266,-0.34400854716572016],[-0.3006436153269271,-0.0030160556802809385],[-0.3883723717460416,-0.23858209932884805],[0.21034306569495356,-0.08255318157708526],[0.02196332342760812,0.15744488202834633],[-0.4395158199886649,-0.08720301875354591],[0.2230590234930685,-0.12857810628235763],[-0.13849776308905715,-0.2738065504122517],[0.18586539561055754,-0.029919258634348272],[0.27459960159713365,0.15430636196079126],[-0.11510973421655904,-0.06440657803784773],[0.2228709913879682,6.38206057092864E-4],[0.5538876855232192,-0.20918589684316027],[-0.25411212026636915,0.2767466065479967],[-0.09500220152319391,0.34701802840258966],[-0.07585618941764061,0.1811938787152507],[0.020222614602120822,-0.40000420519255325],[-0.4503957608337934,-0.12079574689149739]],"b1":[-0.056021151962203954,-0.09449285567267413,-0.018938819120536892,-0.08922289882166158,-0.02177641477939085,-0.0364069414339745,-0.006015456712019954,-0.042697481632993875,-0.013489114404541463,-0.04556479805479527,0.03496928344095938,-0.04551956570921396,0.028948248169371665,-0.007885915557430255,-0.03754038681730361,-0.032822302828827976,-0.12727932471276368,-0.047168416803215575,-0.08262375301312436,-0.06289522483992938],"w2":[[-0.2436129821713003,-0.08976086851081064,0.24963252726090998,-0.10086603005447795,0.14036316986435227,-0.1370507192914263,0.0822007751332568,0.06525467429104669,-0.09492624562601147,-0.35234052740756916,0.12730459666793273,-3.1978956694082676E-4,0.1447327579580119,0.15827632658061708,0.032745069923435455,0.03884865942015843,-0.19357211800501264,0.4197973552503005,-0.14958726783904763,-0.03386657503649704]],"b2":[0.2947211740928004]}},{"size":{"inSize":2,"hlSize":20,"outSize":1},"layers":{"w1":[[-0.25328393676125266,0.1701808658926196],[0.7417774917351602,0.3145943213392555],[-0.06251720303965266,-0.34400854716572016],[-0.3006436153269271,-0.0030160556802809385],[-0.3883723717460416,-0.23858209932884805],[0.21034306569495356,-0.08255318157708526],[0.02196332342760812,0.15744488202834633],[-0.4395158199886649,-0.08720301875354591],[0.2230590234930685,-0.12857810628235763],[-0.13849776308905715,-0.2738065504122517],[0.18586539561055754,-0.029919258634348272],[0.27459960159713365,0.15430636196079126],[-0.11510973421655904,-0.06440657803784773],[0.2228709913879682,6.38206057092864E-4],[0.5538876855232192,-0.20918589684316027],[-0.25411212026636915,0.2767466065479967],[-0.09500220152319391,0.34701802840258966],[-0.07585618941764061,0.1811938787152507],[0.020222614602120822,-0.40000420519255325],[-0.4503957608337934,-0.12079574689149739]],"b1":[-0.056021151962203954,-0.09449285567267413,-0.018938819120536892,-0.08922289882166158,-0.02177641477939085,-0.0364069414339745,-0.006015456712019954,-0.042697481632993875,-0.013489114404541463,-0.04556479805479527,0.03496928344095938,-0.04551956570921396,0.028948248169371665,-0.007885915557430255,-0.03754038681730361,-0.032822302828827976,-0.12727932471276368,-0.047168416803215575,-0.08262375301312436,-0.06289522483992938],"w2":[[-0.2436129821713003,-0.08976086851081064,0.24963252726090998,-0.10086603005447795,0.14036316986435227,-0.1370507192914263,0.0822007751332568,0.06525467429104669,-0.09492624562601147,-0.35234052740756916,0.12730459666793273,-3.1978956694082676E-4,0.1447327579580119,0.15827632658061708,0.032745069923435455,0.03884865942015843,-0.19357211800501264,0.4197973552503005,-0.14958726783904763,-0.03386657503649704]],"b2":[0.2947211740928004]}},{"size":{"inSize":2,"hlSize":20,"outSize":1},"layers":{"w1":[[-0.25328393676125266,0.1701808658926196],[0.7417774917351602,0.3145943213392555],[-0.06251720303965266,-0.34400854716572016],[-0.3006436153269271,-0.0030160556802809385],[-0.3883723717460416,-0.23858209932884805],[0.21034306569495356,-0.08255318157708526],[0.02196332342760812,0.15744488202834633],[-0.4395158199886649,-0.08720301875354591],[0.2230590234930685,-0.12857810628235763],[-0.13849776308905715,-0.2738065504122517],[0.18586539561055754,-0.029919258634348272],[0.27459960159713365,0.15430636196079126],[-0.11510973421655904,-0.06440657803784773],[0.2228709913879682,6.38206057092864E-4],[0.5538876855232192,-0.20918589684316027],[-0.25411212026636915,0.2767466065479967],[-0.09500220152319391,0.34701802840258966],[-0.07585618941764061,0.1811938787152507],[0.020222614602120822,-0.40000420519255325],[-0.4503957608337934,-0.12079574689149739]],"b1":[-0.056021151962203954,-0.09449285567267413,-0.018938819120536892,-0.08922289882166158,-0.02177641477939085,-0.0364069414339745,-0.006015456712019954,-0.042697481632993875,-0.013489114404541463,-0.04556479805479527,0.03496928344095938,-0.04551956570921396,0.028948248169371665,-0.007885915557430255,-0.03754038681730361,-0.032822302828827976,-0.12727932471276368,-0.047168416803215575,-0.08262375301312436,-0.06289522483992938],"w2":[[-0.2436129821713003,-0.08976086851081064,0.24963252726090998,-0.10086603005447795,0.14036316986435227,-0.1370507192914263,0.0822007751332568,0.06525467429104669,-0.09492624562601147,-0.35234052740756916,0.12730459666793273,-3.1978956694082676E-4,0.1447327579580119,0.15827632658061708,0.032745069923435455,0.03884865942015843,-0.19357211800501264,0.4197973552503005,-0.14958726783904763,-0.03386657503649704]],"b2":[0.2947211740928004]}},{"size":{"inSize":2,"hlSize":20,"outSize":1},"layers":{"w1":[[-0.25328393676125266,0.1701808658926196],[0.7417774917351602,0.3145943213392555],[-0.06251720303965266,-0.34400854716572016],[-0.3006436153269271,-0.0030160556802809385],[-0.3883723717460416,-0.23858209932884805],[0.21034306569495356,-0.08255318157708526],[0.02196332342760812,0.15744488202834633],[-0.4395158199886649,-0.08720301875354591],[0.2230590234930685,-0.12857810628235763],[-0.13849776308905715,-0.2738065504122517],[0.18586539561055754,-0.029919258634348272],[0.27459960159713365,0.15430636196079126],[-0.11510973421655904,-0.06440657803784773],[0.2228709913879682,6.38206057092864E-4],[0.5538876855232192,-0.20918589684316027],[-0.25411212026636915,0.2767466065479967],[-0.09500220152319391,0.34701802840258966],[-0.07585618941764061,0.1811938787152507],[0.020222614602120822,-0.40000420519255325],[-0.4503957608337934,-0.12079574689149739]],"b1":[-0.056021151962203954,-0.09449285567267413,-0.018938819120536892,-0.08922289882166158,-0.02177641477939085,-0.0364069414339745,-0.006015456712019954,-0.042697481632993875,-0.013489114404541463,-0.04556479805479527,0.03496928344095938,-0.04551956570921396,0.028948248169371665,-0.007885915557430255,-0.03754038681730361,-0.032822302828827976,-0.12727932471276368,-0.047168416803215575,-0.08262375301312436,-0.06289522483992938],"w2":[[-0.2436129821713003,-0.08976086851081064,0.24963252726090998,-0.10086603005447795,0.14036316986435227,-0.1370507192914263,0.0822007751332568,0.06525467429104669,-0.09492624562601147,-0.35234052740756916,0.12730459666793273,-3.1978956694082676E-4,0.1447327579580119,0.15827632658061708,0.032745069923435455,0.03884865942015843,-0.19357211800501264,0.4197973552503005,-0.14958726783904763,-0.03386657503649704]],"b2":[0.2947211740928004]}},{"size":{"inSize":2,"hlSize":20,"outSize":1},"layers":{"w1":[[-0.25328393676125266,0.1701808658926196],[0.7417774917351602,0.3145943213392555],[-0.06251720303965266,-0.34400854716572016],[-0.3006436153269271,-0.0030160556802809385],[-0.3883723717460416,-0.23858209932884805],[0.21034306569495356,-0.08255318157708526],[0.02196332342760812,0.15744488202834633],[-0.4395158199886649,-0.08720301875354591],[0.2230590234930685,-0.12857810628235763],[-0.13849776308905715,-0.2738065504122517],[0.18586539561055754,-0.029919258634348272],[0.27459960159713365,0.15430636196079126],[-0.11510973421655904,-0.06440657803784773],[0.2228709913879682,6.38206057092864E-4],[0.5538876855232192,-0.20918589684316027],[-0.25411212026636915,0.2767466065479967],[-0.09500220152319391,0.34701802840258966],[-0.07585618941764061,0.1811938787152507],[0.020222614602120822,-0.40000420519255325],[-0.4503957608337934,-0.12079574689149739]],"b1":[-0.056021151962203954,-0.09449285567267413,-0.018938819120536892,-0.08922289882166158,-0.02177641477939085,-0.0364069414339745,-0.006015456712019954,-0.042697481632993875,-0.013489114404541463,-0.04556479805479527,0.03496928344095938,-0.04551956570921396,0.028948248169371665,-0.007885915557430255,-0.03754038681730361,-0.032822302828827976,-0.12727932471276368,-0.047168416803215575,-0.08262375301312436,-0.06289522483992938],"w2":[[-0.2436129821713003,-0.08976086851081064,0.24963252726090998,-0.10086603005447795,0.14036316986435227,-0.1370507192914263,0.0822007751332568,0.06525467429104669,-0.09492624562601147,-0.35234052740756916,0.12730459666793273,-3.1978956694082676E-4,0.1447327579580119,0.15827632658061708,0.032745069923435455,0.03884865942015843,-0.19357211800501264,0.4197973552503005,-0.14958726783904763,-0.03386657503649704]],"b2":[0.2947211740928004]}},{"size":{"inSize":2,"hlSize":20,"outSize":1},"layers":{"w1":[[-0.25328393676125266,0.1701808658926196],[0.7417774917351602,0.3145943213392555],[-0.06251720303965266,-0.34400854716572016],[-0.3006436153269271,-0.0030160556802809385],[-0.3883723717460416,-0.23858209932884805],[0.21034306569495356,-0.08255318157708526],[0.02196332342760812,0.15744488202834633],[-0.4395158199886649,-0.08720301875354591],[0.2230590234930685,-0.12857810628235763],[-0.13849776308905715,-0.2738065504122517],[0.18586539561055754,-0.029919258634348272],[0.27459960159713365,0.15430636196079126],[-0.11510973421655904,-0.06440657803784773],[0.2228709913879682,6.38206057092864E-4],[0.5538876855232192,-0.20918589684316027],[-0.25411212026636915,0.2767466065479967],[-0.09500220152319391,0.34701802840258966],[-0.07585618941764061,0.1811938787152507],[0.020222614602120822,-0.40000420519255325],[-0.4503957608337934,-0.12079574689149739]],"b1":[-0.056021151962203954,-0.09449285567267413,-0.018938819120536892,-0.08922289882166158,-0.02177641477939085,-0.0364069414339745,-0.006015456712019954,-0.042697481632993875,-0.013489114404541463,-0.04556479805479527,0.03496928344095938,-0.04551956570921396,0.028948248169371665,-0.007885915557430255,-0.03754038681730361,-0.032822302828827976,-0.12727932471276368,-0.047168416803215575,-0.08262375301312436,-0.06289522483992938],"w2":[[-0.2436129821713003,-0.08976086851081064,0.24963252726090998,-0.10086603005447795,0.14036316986435227,-0.1370507192914263,0.0822007751332568,0.06525467429104669,-0.09492624562601147,-0.35234052740756916,0.12730459666793273,-3.1978956694082676E-4,0.1447327579580119,0.15827632658061708,0.032745069923435455,0.03884865942015843,-0.19357211800501264,0.4197973552503005,-0.14958726783904763,-0.03386657503649704]],"b2":[0.2947211740928004]}},{"size":{"inSize":2,"hlSize":20,"outSize":1},"layers":{"w1":[[-0.25328393676125266,0.1701808658926196],[0.7417774917351602,0.3145943213392555],[-0.06251720303965266,-0.34400854716572016],[-0.3006436153269271,-0.0030160556802809385],[-0.3883723717460416,-0.23858209932884805],[0.21034306569495356,-0.08255318157708526],[0.02196332342760812,0.15744488202834633],[-0.4395158199886649,-0.08720301875354591],[0.2230590234930685,-0.12857810628235763],[-0.13849776308905715,-0.2738065504122517],[0.18586539561055754,-0.029919258634348272],[0.27459960159713365,0.15430636196079126],[-0.11510973421655904,-0.06440657803784773],[0.2228709913879682,6.38206057092864E-4],[0.5538876855232192,-0.20918589684316027],[-0.25411212026636915,0.2767466065479967],[-0.09500220152319391,0.34701802840258966],[-0.07585618941764061,0.1811938787152507],[0.020222614602120822,-0.40000420519255325],[-0.4503957608337934,-0.12079574689149739]],"b1":[-0.056021151962203954,-0.09449285567267413,-0.018938819120536892,-0.08922289882166158,-0.02177641477939085,-0.0364069414339745,-0.006015456712019954,-0.042697481632993875,-0.013489114404541463,-0.04556479805479527,0.03496928344095938,-0.04551956570921396,0.028948248169371665,-0.007885915557430255,-0.03754038681730361,-0.032822302828827976,-0.12727932471276368,-0.047168416803215575,-0.08262375301312436,-0.06289522483992938],"w2":[[-0.2436129821713003,-0.08976086851081064,0.24963252726090998,-0.10086603005447795,0.14036316986435227,-0.1370507192914263,0.0822007751332568,0.06525467429104669,-0.09492624562601147,-0.35234052740756916,0.12730459666793273,-3.1978956694082676E-4,0.1447327579580119,0.15827632658061708,0.032745069923435455,0.03884865942015843,-0.19357211800501264,0.4197973552503005,-0.14958726783904763,-0.03386657503649704]],"b2":[0.2947211740928004]}},{"size":{"inSize":2,"hlSize":20,"outSize":1},"layers":{"w1":[[-0.25328393676125266,0.1701808658926196],[0.7417774917351602,0.3145943213392555],[-0.06251720303965266,-0.34400854716572016],[-0.3006436153269271,-0.0030160556802809385],[-0.3883723717460416,-0.23858209932884805],[0.21034306569495356,-0.08255318157708526],[0.02196332342760812,0.15744488202834633],[-0.4395158199886649,-0.08720301875354591],[0.2230590234930685,-0.12857810628235763],[-0.13849776308905715,-0.2738065504122517],[0.18586539561055754,-0.029919258634348272],[0.27459960159713365,0.15430636196079126],[-0.11510973421655904,-0.06440657803784773],[0.2228709913879682,6.38206057092864E-4],[0.5538876855232192,-0.20918589684316027],[-0.25411212026636915,0.2767466065479967],[-0.09500220152319391,0.34701802840258966],[-0.07585618941764061,0.1811938787152507],[0.020222614602120822,-0.40000420519255325],[-0.4503957608337934,-0.12079574689149739]],"b1":[-0.056021151962203954,-0.09449285567267413,-0.018938819120536892,-0.08922289882166158,-0.02177641477939085,-0.0364069414339745,-0.006015456712019954,-0.042697481632993875,-0.013489114404541463,-0.04556479805479527,0.03496928344095938,-0.04551956570921396,0.028948248169371665,-0.007885915557430255,-0.03754038681730361,-0.032822302828827976,-0.12727932471276368,-0.047168416803215575,-0.08262375301312436,-0.06289522483992938],"w2":[[-0.2436129821713003,-0.08976086851081064,0.24963252726090998,-0.10086603005447795,0.14036316986435227,-0.1370507192914263,0.0822007751332568,0.06525467429104669,-0.09492624562601147,-0.35234052740756916,0.12730459666793273,-3.1978956694082676E-4,0.1447327579580119,0.15827632658061708,0.032745069923435455,0.03884865942015843,-0.19357211800501264,0.4197973552503005,-0.14958726783904763,-0.03386657503649704]],"b2":[0.2947211740928004]}},{"size":{"inSize":2,"hlSize":20,"outSize":1},"layers":{"w1":[[-0.25328393676125266,0.1701808658926196],[0.7417774917351602,0.3145943213392555],[-0.06251720303965266,-0.34400854716572016],[-0.3006436153269271,-0.0030160556802809385],[-0.3883723717460416,-0.23858209932884805],[0.21034306569495356,-0.08255318157708526],[0.02196332342760812,0.15744488202834633],[-0.4395158199886649,-0.08720301875354591],[0.2230590234930685,-0.12857810628235763],[-0.13849776308905715,-0.2738065504122517],[0.18586539561055754,-0.029919258634348272],[0.27459960159713365,0.15430636196079126],[-0.11510973421655904,-0.06440657803784773],[0.2228709913879682,6.38206057092864E-4],[0.5538876855232192,-0.20918589684316027],[-0.25411212026636915,0.2767466065479967],[-0.09500220152319391,0.34701802840258966],[-0.07585618941764061,0.1811938787152507],[0.020222614602120822,-0.40000420519255325],[-0.4503957608337934,-0.12079574689149739]],"b1":[-0.056021151962203954,-0.09449285567267413,-0.018938819120536892,-0.08922289882166158,-0.02177641477939085,-0.0364069414339745,-0.006015456712019954,-0.042697481632993875,-0.013489114404541463,-0.04556479805479527,0.03496928344095938,-0.04551956570921396,0.028948248169371665,-0.007885915557430255,-0.03754038681730361,-0.032822302828827976,-0.12727932471276368,-0.047168416803215575,-0.08262375301312436,-0.06289522483992938],"w2":[[-0.2436129821713003,-0.08976086851081064,0.24963252726090998,-0.10086603005447795,0.14036316986435227,-0.1370507192914263,0.0822007751332568,0.06525467429104669,-0.09492624562601147,-0.35234052740756916,0.12730459666793273,-3.1978956694082676E-4,0.1447327579580119,0.15827632658061708,0.032745069923435455,0.03884865942015843,-0.19357211800501264,0.4197973552503005,-0.14958726783904763,-0.03386657503649704]],"b2":[0.2947211740928004]}},{"size":{"inSize":2,"hlSize":20,"outSize":1},"layers":{"w1":[[-0.25328393676125266,0.1701808658926196],[0.7417774917351602,0.3145943213392555],[-0.06251720303965266,-0.34400854716572016],[-0.3006436153269271,-0.0030160556802809385],[-0.3883723717460416,-0.23858209932884805],[0.21034306569495356,-0.08255318157708526],[0.02196332342760812,0.15744488202834633],[-0.4395158199886649,-0.08720301875354591],[0.2230590234930685,-0.12857810628235763],[-0.13849776308905715,-0.2738065504122517],[0.18586539561055754,-0.029919258634348272],[0.27459960159713365,0.15430636196079126],[-0.11510973421655904,-0.06440657803784773],[0.2228709913879682,6.38206057092864E-4],[0.5538876855232192,-0.20918589684316027],[-0.25411212026636915,0.2767466065479967],[-0.09500220152319391,0.34701802840258966],[-0.07585618941764061,0.1811938787152507],[0.020222614602120822,-0.40000420519255325],[-0.4503957608337934,-0.12079574689149739]],"b1":[-0.056021151962203954,-0.09449285567267413,-0.018938819120536892,-0.08922289882166158,-0.02177641477939085,-0.0364069414339745,-0.006015456712019954,-0.042697481632993875,-0.013489114404541463,-0.04556479805479527,0.03496928344095938,-0.04551956570921396,0.028948248169371665,-0.007885915557430255,-0.03754038681730361,-0.032822302828827976,-0.12727932471276368,-0.047168416803215575,-0.08262375301312436,-0.06289522483992938],"w2":[[-0.2436129821713003,-0.08976086851081064,0.24963252726090998,-0.10086603005447795,0.14036316986435227,-0.1370507192914263,0.0822007751332568,0.06525467429104669,-0.09492624562601147,-0.35234052740756916,0.12730459666793273,-3.1978956694082676E-4,0.1447327579580119,0.15827632658061708,0.032745069923435455,0.03884865942015843,-0.19357211800501264,0.4197973552503005,-0.14958726783904763,-0.03386657503649704]],"b2":[0.2947211740928004]}},{"size":{"inSize":2,"hlSize":20,"outSize":1},"layers":{"w1":[[-0.25328393676125266,0.1701808658926196],[0.7417774917351602,0.3145943213392555],[-0.06251720303965266,-0.34400854716572016],[-0.3006436153269271,-0.0030160556802809385],[-0.3883723717460416,-0.23858209932884805],[0.21034306569495356,-0.08255318157708526],[0.02196332342760812,0.15744488202834633],[-0.4395158199886649,-0.08720301875354591],[0.2230590234930685,-0.12857810628235763],[-0.13849776308905715,-0.2738065504122517],[0.18586539561055754,-0.029919258634348272],[0.27459960159713365,0.15430636196079126],[-0.11510973421655904,-0.06440657803784773],[0.2228709913879682,6.38206057092864E-4],[0.5538876855232192,-0.20918589684316027],[-0.25411212026636915,0.2767466065479967],[-0.09500220152319391,0.34701802840258966],[-0.07585618941764061,0.1811938787152507],[0.020222614602120822,-0.40000420519255325],[-0.4503957608337934,-0.12079574689149739]],"b1":[-0.056021151962203954,-0.09449285567267413,-0.018938819120536892,-0.08922289882166158,-0.02177641477939085,-0.0364069414339745,-0.006015456712019954,-0.042697481632993875,-0.013489114404541463,-0.04556479805479527,0.03496928344095938,-0.04551956570921396,0.028948248169371665,-0.007885915557430255,-0.03754038681730361,-0.032822302828827976,-0.12727932471276368,-0.047168416803215575,-0.08262375301312436,-0.06289522483992938],"w2":[[-0.2436129821713003,-0.08976086851081064,0.24963252726090998,-0.10086603005447795,0.14036316986435227,-0.1370507192914263,0.0822007751332568,0.06525467429104669,-0.09492624562601147,-0.35234052740756916,0.12730459666793273,-3.1978956694082676E-4,0.1447327579580119,0.15827632658061708,0.032745069923435455,0.03884865942015843,-0.19357211800501264,0.4197973552503005,-0.14958726783904763,-0.03386657503649704]],"b2":[0.2947211740928004]}},{"size":{"inSize":2,"hlSize":20,"outSize":1},"layers":{"w1":[[-0.25328393676125266,0.1701808658926196],[0.7417774917351602,0.3145943213392555],[-0.06251720303965266,-0.34400854716572016],[-0.3006436153269271,-0.0030160556802809385],[-0.3883723717460416,-0.23858209932884805],[0.21034306569495356,-0.08255318157708526],[0.02196332342760812,0.15744488202834633],[-0.4395158199886649,-0.08720301875354591],[0.2230590234930685,-0.12857810628235763],[-0.13849776308905715,-0.2738065504122517],[0.18586539561055754,-0.029919258634348272],[0.27459960159713365,0.15430636196079126],[-0.11510973421655904,-0.06440657803784773],[0.2228709913879682,6.38206057092864E-4],[0.5538876855232192,-0.20918589684316027],[-0.25411212026636915,0.2767466065479967],[-0.09500220152319391,0.34701802840258966],[-0.07585618941764061,0.1811938787152507],[0.020222614602120822,-0.40000420519255325],[-0.4503957608337934,-0.12079574689149739]],"b1":[-0.056021151962203954,-0.09449285567267413,-0.018938819120536892,-0.08922289882166158,-0.02177641477939085,-0.0364069414339745,-0.006015456712019954,-0.042697481632993875,-0.013489114404541463,-0.04556479805479527,0.03496928344095938,-0.04551956570921396,0.028948248169371665,-0.007885915557430255,-0.03754038681730361,-0.032822302828827976,-0.12727932471276368,-0.047168416803215575,-0.08262375301312436,-0.06289522483992938],"w2":[[-0.2436129821713003,-0.08976086851081064,0.24963252726090998,-0.10086603005447795,0.14036316986435227,-0.1370507192914263,0.0822007751332568,0.06525467429104669,-0.09492624562601147,-0.35234052740756916,0.12730459666793273,-3.1978956694082676E-4,0.1447327579580119,0.15827632658061708,0.032745069923435455,0.03884865942015843,-0.19357211800501264,0.4197973552503005,-0.14958726783904763,-0.03386657503649704]],"b2":[0.2947211740928004]}},{"size":{"inSize":2,"hlSize":20,"outSize":1},"layers":{"w1":[[-0.25328393676125266,0.1701808658926196],[0.7417774917351602,0.3145943213392555],[-0.06251720303965266,-0.34400854716572016],[-0.3006436153269271,-0.0030160556802809385],[-0.3883723717460416,-0.23858209932884805],[0.21034306569495356,-0.08255318157708526],[0.02196332342760812,0.15744488202834633],[-0.4395158199886649,-0.08720301875354591],[0.2230590234930685,-0.12857810628235763],[-0.13849776308905715,-0.2738065504122517],[0.18586539561055754,-0.029919258634348272],[0.27459960159713365,0.15430636196079126],[-0.11510973421655904,-0.06440657803784773],[0.2228709913879682,6.38206057092864E-4],[0.5538876855232192,-0.20918589684316027],[-0.25411212026636915,0.2767466065479967],[-0.09500220152319391,0.34701802840258966],[-0.07585618941764061,0.1811938787152507],[0.020222614602120822,-0.40000420519255325],[-0.4503957608337934,-0.12079574689149739]],"b1":[-0.056021151962203954,-0.09449285567267413,-0.018938819120536892,-0.08922289882166158,-0.02177641477939085,-0.0364069414339745,-0.006015456712019954,-0.042697481632993875,-0.013489114404541463,-0.04556479805479527,0.03496928344095938,-0.04551956570921396,0.028948248169371665,-0.007885915557430255,-0.03754038681730361,-0.032822302828827976,-0.12727932471276368,-0.047168416803215575,-0.08262375301312436,-0.06289522483992938],"w2":[[-0.2436129821713003,-0.08976086851081064,0.24963252726090998,-0.10086603005447795,0.14036316986435227,-0.1370507192914263,0.0822007751332568,0.06525467429104669,-0.09492624562601147,-0.35234052740756916,0.12730459666793273,-3.1978956694082676E-4,0.1447327579580119,0.15827632658061708,0.032745069923435455,0.03884865942015843,-0.19357211800501264,0.4197973552503005,-0.14958726783904763,-0.03386657503649704]],"b2":[0.2947211740928004]}},{"size":{"inSize":2,"hlSize":20,"outSize":1},"layers":{"w1":[[-0.25328393676125266,0.1701808658926196],[0.7417774917351602,0.3145943213392555],[-0.06251720303965266,-0.34400854716572016],[-0.3006436153269271,-0.0030160556802809385],[-0.3883723717460416,-0.23858209932884805],[0.21034306569495356,-0.08255318157708526],[0.02196332342760812,0.15744488202834633],[-0.4395158199886649,-0.08720301875354591],[0.2230590234930685,-0.12857810628235763],[-0.13849776308905715,-0.2738065504122517],[0.18586539561055754,-0.029919258634348272],[0.27459960159713365,0.15430636196079126],[-0.11510973421655904,-0.06440657803784773],[0.2228709913879682,6.38206057092864E-4],[0.5538876855232192,-0.20918589684316027],[-0.25411212026636915,0.2767466065479967],[-0.09500220152319391,0.34701802840258966],[-0.07585618941764061,0.1811938787152507],[0.020222614602120822,-0.40000420519255325],[-0.4503957608337934,-0.12079574689149739]],"b1":[-0.056021151962203954,-0.09449285567267413,-0.018938819120536892,-0.08922289882166158,-0.02177641477939085,-0.0364069414339745,-0.006015456712019954,-0.042697481632993875,-0.013489114404541463,-0.04556479805479527,0.03496928344095938,-0.04551956570921396,0.028948248169371665,-0.007885915557430255,-0.03754038681730361,-0.032822302828827976,-0.12727932471276368,-0.047168416803215575,-0.08262375301312436,-0.06289522483992938],"w2":[[-0.2436129821713003,-0.08976086851081064,0.24963252726090998,-0.10086603005447795,0.14036316986435227,-0.1370507192914263,0.0822007751332568,0.06525467429104669,-0.09492624562601147,-0.35234052740756916,0.12730459666793273,-3.1978956694082676E-4,0.1447327579580119,0.15827632658061708,0.032745069923435455,0.03884865942015843,-0.19357211800501264,0.4197973552503005,-0.14958726783904763,-0.03386657503649704]],"b2":[0.2947211740928004]}},{"size":{"inSize":2,"hlSize":20,"outSize":1},"layers":{"w1":[[-0.25328393676125266,0.1701808658926196],[0.7417774917351602,0.3145943213392555],[-0.06251720303965266,-0.34400854716572016],[-0.3006436153269271,-0.0030160556802809385],[-0.3883723717460416,-0.23858209932884805],[0.21034306569495356,-0.08255318157708526],[0.02196332342760812,0.15744488202834633],[-0.4395158199886649,-0.08720301875354591],[0.2230590234930685,-0.12857810628235763],[-0.13849776308905715,-0.2738065504122517],[0.18586539561055754,-0.029919258634348272],[0.27459960159713365,0.15430636196079126],[-0.11510973421655904,-0.06440657803784773],[0.2228709913879682,6.38206057092864E-4],[0.5538876855232192,-0.20918589684316027],[-0.25411212026636915,0.2767466065479967],[-0.09500220152319391,0.34701802840258966],[-0.07585618941764061,0.1811938787152507],[0.020222614602120822,-0.40000420519255325],[-0.4503957608337934,-0.12079574689149739]],"b1":[-0.056021151962203954,-0.09449285567267413,-0.018938819120536892,-0.08922289882166158,-0.02177641477939085,-0.0364069414339745,-0.006015456712019954,-0.042697481632993875,-0.013489114404541463,-0.04556479805479527,0.03496928344095938,-0.04551956570921396,0.028948248169371665,-0.007885915557430255,-0.03754038681730361,-0.032822302828827976,-0.12727932471276368,-0.047168416803215575,-0.08262375301312436,-0.06289522483992938],"w2":[[-0.2436129821713003,-0.08976086851081064,0.24963252726090998,-0.10086603005447795,0.14036316986435227,-0.1370507192914263,0.0822007751332568,0.06525467429104669,-0.09492624562601147,-0.35234052740756916,0.12730459666793273,-3.1978956694082676E-4,0.1447327579580119,0.15827632658061708,0.032745069923435455,0.03884865942015843,-0.19357211800501264,0.4197973552503005,-0.14958726783904763,-0.03386657503649704]],"b2":[0.2947211740928004]}},{"size":{"inSize":2,"hlSize":20,"outSize":1},"layers":{"w1":[[-0.25328393676125266,0.1701808658926196],[0.7417774917351602,0.3145943213392555],[-0.06251720303965266,-0.34400854716572016],[-0.3006436153269271,-0.0030160556802809385],[-0.3883723717460416,-0.23858209932884805],[0.21034306569495356,-0.08255318157708526],[0.02196332342760812,0.15744488202834633],[-0.4395158199886649,-0.08720301875354591],[0.2230590234930685,-0.12857810628235763],[-0.13849776308905715,-0.2738065504122517],[0.18586539561055754,-0.029919258634348272],[0.27459960159713365,0.15430636196079126],[-0.11510973421655904,-0.06440657803784773],[0.2228709913879682,6.38206057092864E-4],[0.5538876855232192,-0.20918589684316027],[-0.25411212026636915,0.2767466065479967],[-0.09500220152319391,0.34701802840258966],[-0.07585618941764061,0.1811938787152507],[0.020222614602120822,-0.40000420519255325],[-0.4503957608337934,-0.12079574689149739]],"b1":[-0.056021151962203954,-0.09449285567267413,-0.018938819120536892,-0.08922289882166158,-0.02177641477939085,-0.0364069414339745,-0.006015456712019954,-0.042697481632993875,-0.013489114404541463,-0.04556479805479527,0.03496928344095938,-0.04551956570921396,0.028948248169371665,-0.007885915557430255,-0.03754038681730361,-0.032822302828827976,-0.12727932471276368,-0.047168416803215575,-0.08262375301312436,-0.06289522483992938],"w2":[[-0.2436129821713003,-0.08976086851081064,0.24963252726090998,-0.10086603005447795,0.14036316986435227,-0.1370507192914263,0.0822007751332568,0.06525467429104669,-0.09492624562601147,-0.35234052740756916,0.12730459666793273,-3.1978956694082676E-4,0.1447327579580119,0.15827632658061708,0.032745069923435455,0.03884865942015843,-0.19357211800501264,0.4197973552503005,-0.14958726783904763,-0.03386657503649704]],"b2":[0.2947211740928004]}},{"size":{"inSize":2,"hlSize":20,"outSize":1},"layers":{"w1":[[-0.25328393676125266,0.1701808658926196],[0.7417774917351602,0.3145943213392555],[-0.06251720303965266,-0.34400854716572016],[-0.3006436153269271,-0.0030160556802809385],[-0.3883723717460416,-0.23858209932884805],[0.21034306569495356,-0.08255318157708526],[0.02196332342760812,0.15744488202834633],[-0.4395158199886649,-0.08720301875354591],[0.2230590234930685,-0.12857810628235763],[-0.13849776308905715,-0.2738065504122517],[0.18586539561055754,-0.029919258634348272],[0.27459960159713365,0.15430636196079126],[-0.11510973421655904,-0.06440657803784773],[0.2228709913879682,6.38206057092864E-4],[0.5538876855232192,-0.20918589684316027],[-0.25411212026636915,0.2767466065479967],[-0.09500220152319391,0.34701802840258966],[-0.07585618941764061,0.1811938787152507],[0.020222614602120822,-0.40000420519255325],[-0.4503957608337934,-0.12079574689149739]],"b1":[-0.056021151962203954,-0.09449285567267413,-0.018938819120536892,-0.08922289882166158,-0.02177641477939085,-0.0364069414339745,-0.006015456712019954,-0.042697481632993875,-0.013489114404541463,-0.04556479805479527,0.03496928344095938,-0.04551956570921396,0.028948248169371665,-0.007885915557430255,-0.03754038681730361,-0.032822302828827976,-0.12727932471276368,-0.047168416803215575,-0.08262375301312436,-0.06289522483992938],"w2":[[-0.2436129821713003,-0.08976086851081064,0.24963252726090998,-0.10086603005447795,0.14036316986435227,-0.1370507192914263,0.0822007751332568,0.06525467429104669,-0.09492624562601147,-0.35234052740756916,0.12730459666793273,-3.1978956694082676E-4,0.1447327579580119,0.15827632658061708,0.032745069923435455,0.03884865942015843,-0.19357211800501264,0.4197973552503005,-0.14958726783904763,-0.03386657503649704]],"b2":[0.2947211740928004]}},{"size":{"inSize":2,"hlSize":20,"outSize":1},"layers":{"w1":[[-0.25328393676125266,0.1701808658926196],[0.7417774917351602,0.3145943213392555],[-0.06251720303965266,-0.34400854716572016],[-0.3006436153269271,-0.0030160556802809385],[-0.3883723717460416,-0.23858209932884805],[0.21034306569495356,-0.08255318157708526],[0.02196332342760812,0.15744488202834633],[-0.4395158199886649,-0.08720301875354591],[0.2230590234930685,-0.12857810628235763],[-0.13849776308905715,-0.2738065504122517],[0.18586539561055754,-0.029919258634348272],[0.27459960159713365,0.15430636196079126],[-0.11510973421655904,-0.06440657803784773],[0.2228709913879682,6.38206057092864E-4],[0.5538876855232192,-0.20918589684316027],[-0.25411212026636915,0.2767466065479967],[-0.09500220152319391,0.34701802840258966],[-0.07585618941764061,0.1811938787152507],[0.020222614602120822,-0.40000420519255325],[-0.4503957608337934,-0.12079574689149739]],"b1":[-0.056021151962203954,-0.09449285567267413,-0.018938819120536892,-0.08922289882166158,-0.02177641477939085,-0.0364069414339745,-0.006015456712019954,-0.042697481632993875,-0.013489114404541463,-0.04556479805479527,0.03496928344095938,-0.04551956570921396,0.028948248169371665,-0.007885915557430255,-0.03754038681730361,-0.032822302828827976,-0.12727932471276368,-0.047168416803215575,-0.08262375301312436,-0.06289522483992938],"w2":[[-0.2436129821713003,-0.08976086851081064,0.24963252726090998,-0.10086603005447795,0.14036316986435227,-0.1370507192914263,0.0822007751332568,0.06525467429104669,-0.09492624562601147,-0.35234052740756916,0.12730459666793273,-3.1978956694082676E-4,0.1447327579580119,0.15827632658061708,0.032745069923435455,0.03884865942015843,-0.19357211800501264,0.4197973552503005,-0.14958726783904763,-0.03386657503649704]],"b2":[0.2947211740928004]}},{"size":{"inSize":2,"hlSize":20,"outSize":1},"layers":{"w1":[[-0.25328393676125266,0.1701808658926196],[0.7417774917351602,0.3145943213392555],[-0.06251720303965266,-0.34400854716572016],[-0.3006436153269271,-0.0030160556802809385],[-0.3883723717460416,-0.23858209932884805],[0.21034306569495356,-0.08255318157708526],[0.02196332342760812,0.15744488202834633],[-0.4395158199886649,-0.08720301875354591],[0.2230590234930685,-0.12857810628235763],[-0.13849776308905715,-0.2738065504122517],[0.18586539561055754,-0.029919258634348272],[0.27459960159713365,0.15430636196079126],[-0.11510973421655904,-0.06440657803784773],[0.2228709913879682,6.38206057092864E-4],[0.5538876855232192,-0.20918589684316027],[-0.25411212026636915,0.2767466065479967],[-0.09500220152319391,0.34701802840258966],[-0.07585618941764061,0.1811938787152507],[0.020222614602120822,-0.40000420519255325],[-0.4503957608337934,-0.12079574689149739]],"b1":[-0.056021151962203954,-0.09449285567267413,-0.018938819120536892,-0.08922289882166158,-0.02177641477939085,-0.0364069414339745,-0.006015456712019954,-0.042697481632993875,-0.013489114404541463,-0.04556479805479527,0.03496928344095938,-0.04551956570921396,0.028948248169371665,-0.007885915557430255,-0.03754038681730361,-0.032822302828827976,-0.12727932471276368,-0.047168416803215575,-0.08262375301312436,-0.06289522483992938],"w2":[[-0.2436129821713003,-0.08976086851081064,0.24963252726090998,-0.10086603005447795,0.14036316986435227,-0.1370507192914263,0.0822007751332568,0.06525467429104669,-0.09492624562601147,-0.35234052740756916,0.12730459666793273,-3.1978956694082676E-4,0.1447327579580119,0.15827632658061708,0.032745069923435455,0.03884865942015843,-0.19357211800501264,0.4197973552503005,-0.14958726783904763,-0.03386657503649704]],"b2":[0.2947211740928004]}},{"size":{"inSize":2,"hlSize":20,"outSize":1},"layers":{"w1":[[-0.25328393676125266,0.1701808658926196],[0.7417774917351602,0.3145943213392555],[-0.06251720303965266,-0.34400854716572016],[-0.3006436153269271,-0.0030160556802809385],[-0.3883723717460416,-0.23858209932884805],[0.21034306569495356,-0.08255318157708526],[0.02196332342760812,0.15744488202834633],[-0.4395158199886649,-0.08720301875354591],[0.2230590234930685,-0.12857810628235763],[-0.13849776308905715,-0.2738065504122517],[0.18586539561055754,-0.029919258634348272],[0.27459960159713365,0.15430636196079126],[-0.11510973421655904,-0.06440657803784773],[0.2228709913879682,6.38206057092864E-4],[0.5538876855232192,-0.20918589684316027],[-0.25411212026636915,0.2767466065479967],[-0.09500220152319391,0.34701802840258966],[-0.07585618941764061,0.1811938787152507],[0.020222614602120822,-0.40000420519255325],[-0.4503957608337934,-0.12079574689149739]],"b1":[-0.056021151962203954,-0.09449285567267413,-0.018938819120536892,-0.08922289882166158,-0.02177641477939085,-0.0364069414339745,-0.006015456712019954,-0.042697481632993875,-0.013489114404541463,-0.04556479805479527,0.03496928344095938,-0.04551956570921396,0.028948248169371665,-0.007885915557430255,-0.03754038681730361,-0.032822302828827976,-0.12727932471276368,-0.047168416803215575,-0.08262375301312436,-0.06289522483992938],"w2":[[-0.2436129821713003,-0.08976086851081064,0.24963252726090998,-0.10086603005447795,0.14036316986435227,-0.1370507192914263,0.0822007751332568,0.06525467429104669,-0.09492624562601147,-0.35234052740756916,0.12730459666793273,-3.1978956694082676E-4,0.1447327579580119,0.15827632658061708,0.032745069923435455,0.03884865942015843,-0.19357211800501264,0.4197973552503005,-0.14958726783904763,-0.03386657503649704]],"b2":[0.2947211740928004]}},{"size":{"inSize":2,"hlSize":20,"outSize":1},"layers":{"w1":[[-0.25328393676125266,0.1701808658926196],[0.7417774917351602,0.3145943213392555],[-0.06251720303965266,-0.34400854716572016],[-0.3006436153269271,-0.0030160556802809385],[-0.3883723717460416,-0.23858209932884805],[0.21034306569495356,-0.08255318157708526],[0.02196332342760812,0.15744488202834633],[-0.4395158199886649,-0.08720301875354591],[0.2230590234930685,-0.12857810628235763],[-0.13849776308905715,-0.2738065504122517],[0.18586539561055754,-0.029919258634348272],[0.27459960159713365,0.15430636196079126],[-0.11510973421655904,-0.06440657803784773],[0.2228709913879682,6.38206057092864E-4],[0.5538876855232192,-0.20918589684316027],[-0.25411212026636915,0.2767466065479967],[-0.09500220152319391,0.34701802840258966],[-0.07585618941764061,0.1811938787152507],[0.020222614602120822,-0.40000420519255325],[-0.4503957608337934,-0.12079574689149739]],"b1":[-0.056021151962203954,-0.09449285567267413,-0.018938819120536892,-0.08922289882166158,-0.02177641477939085,-0.0364069414339745,-0.006015456712019954,-0.042697481632993875,-0.013489114404541463,-0.04556479805479527,0.03496928344095938,-0.04551956570921396,0.028948248169371665,-0.007885915557430255,-0.03754038681730361,-0.032822302828827976,-0.12727932471276368,-0.047168416803215575,-0.08262375301312436,-0.06289522483992938],"w2":[[-0.2436129821713003,-0.08976086851081064,0.24963252726090998,-0.10086603005447795,0.14036316986435227,-0.1370507192914263,0.0822007751332568,0.06525467429104669,-0.09492624562601147,-0.35234052740756916,0.12730459666793273,-3.1978956694082676E-4,0.1447327579580119,0.15827632658061708,0.032745069923435455,0.03884865942015843,-0.19357211800501264,0.4197973552503005,-0.14958726783904763,-0.03386657503649704]],"b2":[0.2947211740928004]}},{"size":{"inSize":2,"hlSize":20,"outSize":1},"layers":{"w1":[[-0.25328393676125266,0.1701808658926196],[0.7417774917351602,0.3145943213392555],[-0.06251720303965266,-0.34400854716572016],[-0.3006436153269271,-0.0030160556802809385],[-0.3883723717460416,-0.23858209932884805],[0.21034306569495356,-0.08255318157708526],[0.02196332342760812,0.15744488202834633],[-0.4395158199886649,-0.08720301875354591],[0.2230590234930685,-0.12857810628235763],[-0.13849776308905715,-0.2738065504122517],[0.18586539561055754,-0.029919258634348272],[0.27459960159713365,0.15430636196079126],[-0.11510973421655904,-0.06440657803784773],[0.2228709913879682,6.38206057092864E-4],[0.5538876855232192,-0.20918589684316027],[-0.25411212026636915,0.2767466065479967],[-0.09500220152319391,0.34701802840258966],[-0.07585618941764061,0.1811938787152507],[0.020222614602120822,-0.40000420519255325],[-0.4503957608337934,-0.12079574689149739]],"b1":[-0.056021151962203954,-0.09449285567267413,-0.018938819120536892,-0.08922289882166158,-0.02177641477939085,-0.0364069414339745,-0.006015456712019954,-0.042697481632993875,-0.013489114404541463,-0.04556479805479527,0.03496928344095938,-0.04551956570921396,0.028948248169371665,-0.007885915557430255,-0.03754038681730361,-0.032822302828827976,-0.12727932471276368,-0.047168416803215575,-0.08262375301312436,-0.06289522483992938],"w2":[[-0.2436129821713003,-0.08976086851081064,0.24963252726090998,-0.10086603005447795,0.14036316986435227,-0.1370507192914263,0.0822007751332568,0.06525467429104669,-0.09492624562601147,-0.35234052740756916,0.12730459666793273,-3.1978956694082676E-4,0.1447327579580119,0.15827632658061708,0.032745069923435455,0.03884865942015843,-0.19357211800501264,0.4197973552503005,-0.14958726783904763,-0.03386657503649704]],"b2":[0.2947211740928004]}},{"size":{"inSize":2,"hlSize":20,"outSize":1},"layers":{"w1":[[-0.25328393676125266,0.1701808658926196],[0.7417774917351602,0.3145943213392555],[-0.06251720303965266,-0.34400854716572016],[-0.3006436153269271,-0.0030160556802809385],[-0.3883723717460416,-0.23858209932884805],[0.21034306569495356,-0.08255318157708526],[0.02196332342760812,0.15744488202834633],[-0.4395158199886649,-0.08720301875354591],[0.2230590234930685,-0.12857810628235763],[-0.13849776308905715,-0.2738065504122517],[0.18586539561055754,-0.029919258634348272],[0.27459960159713365,0.15430636196079126],[-0.11510973421655904,-0.06440657803784773],[0.2228709913879682,6.38206057092864E-4],[0.5538876855232192,-0.20918589684316027],[-0.25411212026636915,0.2767466065479967],[-0.09500220152319391,0.34701802840258966],[-0.07585618941764061,0.1811938787152507],[0.020222614602120822,-0.40000420519255325],[-0.4503957608337934,-0.12079574689149739]],"b1":[-0.056021151962203954,-0.09449285567267413,-0.018938819120536892,-0.08922289882166158,-0.02177641477939085,-0.0364069414339745,-0.006015456712019954,-0.042697481632993875,-0.013489114404541463,-0.04556479805479527,0.03496928344095938,-0.04551956570921396,0.028948248169371665,-0.007885915557430255,-0.03754038681730361,-0.032822302828827976,-0.12727932471276368,-0.047168416803215575,-0.08262375301312436,-0.06289522483992938],"w2":[[-0.2436129821713003,-0.08976086851081064,0.24963252726090998,-0.10086603005447795,0.14036316986435227,-0.1370507192914263,0.0822007751332568,0.06525467429104669,-0.09492624562601147,-0.35234052740756916,0.12730459666793273,-3.1978956694082676E-4,0.1447327579580119,0.15827632658061708,0.032745069923435455,0.03884865942015843,-0.19357211800501264,0.4197973552503005,-0.14958726783904763,-0.03386657503649704]],"b2":[0.2947211740928004]}},{"size":{"inSize":2,"hlSize":20,"outSize":1},"layers":{"w1":[[-0.25328393676125266,0.1701808658926196],[0.7417774917351602,0.3145943213392555],[-0.06251720303965266,-0.34400854716572016],[-0.3006436153269271,-0.0030160556802809385],[-0.3883723717460416,-0.23858209932884805],[0.21034306569495356,-0.08255318157708526],[0.02196332342760812,0.15744488202834633],[-0.4395158199886649,-0.08720301875354591],[0.2230590234930685,-0.12857810628235763],[-0.13849776308905715,-0.2738065504122517],[0.18586539561055754,-0.029919258634348272],[0.27459960159713365,0.15430636196079126],[-0.11510973421655904,-0.06440657803784773],[0.2228709913879682,6.38206057092864E-4],[0.5538876855232192,-0.20918589684316027],[-0.25411212026636915,0.2767466065479967],[-0.09500220152319391,0.34701802840258966],[-0.07585618941764061,0.1811938787152507],[0.020222614602120822,-0.40000420519255325],[-0.4503957608337934,-0.12079574689149739]],"b1":[-0.056021151962203954,-0.09449285567267413,-0.018938819120536892,-0.08922289882166158,-0.02177641477939085,-0.0364069414339745,-0.006015456712019954,-0.042697481632993875,-0.013489114404541463,-0.04556479805479527,0.03496928344095938,-0.04551956570921396,0.028948248169371665,-0.007885915557430255,-0.03754038681730361,-0.032822302828827976,-0.12727932471276368,-0.047168416803215575,-0.08262375301312436,-0.06289522483992938],"w2":[[-0.2436129821713003,-0.08976086851081064,0.24963252726090998,-0.10086603005447795,0.14036316986435227,-0.1370507192914263,0.0822007751332568,0.06525467429104669,-0.09492624562601147,-0.35234052740756916,0.12730459666793273,-3.1978956694082676E-4,0.1447327579580119,0.15827632658061708,0.032745069923435455,0.03884865942015843,-0.19357211800501264,0.4197973552503005,-0.14958726783904763,-0.03386657503649704]],"b2":[0.2947211740928004]}},{"size":{"inSize":2,"hlSize":20,"outSize":1},"layers":{"w1":[[-0.25328393676125266,0.1701808658926196],[0.7417774917351602,0.3145943213392555],[-0.06251720303965266,-0.34400854716572016],[-0.3006436153269271,-0.0030160556802809385],[-0.3883723717460416,-0.23858209932884805],[0.21034306569495356,-0.08255318157708526],[0.02196332342760812,0.15744488202834633],[-0.4395158199886649,-0.08720301875354591],[0.2230590234930685,-0.12857810628235763],[-0.13849776308905715,-0.2738065504122517],[0.18586539561055754,-0.029919258634348272],[0.27459960159713365,0.15430636196079126],[-0.11510973421655904,-0.06440657803784773],[0.2228709913879682,6.38206057092864E-4],[0.5538876855232192,-0.20918589684316027],[-0.25411212026636915,0.2767466065479967],[-0.09500220152319391,0.34701802840258966],[-0.07585618941764061,0.1811938787152507],[0.020222614602120822,-0.40000420519255325],[-0.4503957608337934,-0.12079574689149739]],"b1":[-0.056021151962203954,-0.09449285567267413,-0.018938819120536892,-0.08922289882166158,-0.02177641477939085,-0.0364069414339745,-0.006015456712019954,-0.042697481632993875,-0.013489114404541463,-0.04556479805479527,0.03496928344095938,-0.04551956570921396,0.028948248169371665,-0.007885915557430255,-0.03754038681730361,-0.032822302828827976,-0.12727932471276368,-0.047168416803215575,-0.08262375301312436,-0.06289522483992938],"w2":[[-0.2436129821713003,-0.08976086851081064,0.24963252726090998,-0.10086603005447795,0.14036316986435227,-0.1370507192914263,0.0822007751332568,0.06525467429104669,-0.09492624562601147,-0.35234052740756916,0.12730459666793273,-3.1978956694082676E-4,0.1447327579580119,0.15827632658061708,0.032745069923435455,0.03884865942015843,-0.19357211800501264,0.4197973552503005,-0.14958726783904763,-0.03386657503649704]],"b2":[0.2947211740928004]}},{"size":{"inSize":2,"hlSize":20,"outSize":1},"layers":{"w1":[[-0.25328393676125266,0.1701808658926196],[0.7417774917351602,0.3145943213392555],[-0.06251720303965266,-0.34400854716572016],[-0.3006436153269271,-0.0030160556802809385],[-0.3883723717460416,-0.23858209932884805],[0.21034306569495356,-0.08255318157708526],[0.02196332342760812,0.15744488202834633],[-0.4395158199886649,-0.08720301875354591],[0.2230590234930685,-0.12857810628235763],[-0.13849776308905715,-0.2738065504122517],[0.18586539561055754,-0.029919258634348272],[0.27459960159713365,0.15430636196079126],[-0.11510973421655904,-0.06440657803784773],[0.2228709913879682,6.38206057092864E-4],[0.5538876855232192,-0.20918589684316027],[-0.25411212026636915,0.2767466065479967],[-0.09500220152319391,0.34701802840258966],[-0.07585618941764061,0.1811938787152507],[0.020222614602120822,-0.40000420519255325],[-0.4503957608337934,-0.12079574689149739]],"b1":[-0.056021151962203954,-0.09449285567267413,-0.018938819120536892,-0.08922289882166158,-0.02177641477939085,-0.0364069414339745,-0.006015456712019954,-0.042697481632993875,-0.013489114404541463,-0.04556479805479527,0.03496928344095938,-0.04551956570921396,0.028948248169371665,-0.007885915557430255,-0.03754038681730361,-0.032822302828827976,-0.12727932471276368,-0.047168416803215575,-0.08262375301312436,-0.06289522483992938],"w2":[[-0.2436129821713003,-0.08976086851081064,0.24963252726090998,-0.10086603005447795,0.14036316986435227,-0.1370507192914263,0.0822007751332568,0.06525467429104669,-0.09492624562601147,-0.35234052740756916,0.12730459666793273,-3.1978956694082676E-4,0.1447327579580119,0.15827632658061708,0.032745069923435455,0.03884865942015843,-0.19357211800501264,0.4197973552503005,-0.14958726783904763,-0.03386657503649704]],"b2":[0.2947211740928004]}},{"size":{"inSize":2,"hlSize":20,"outSize":1},"layers":{"w1":[[-0.25328393676125266,0.1701808658926196],[0.7417774917351602,0.3145943213392555],[-0.06251720303965266,-0.34400854716572016],[-0.3006436153269271,-0.0030160556802809385],[-0.3883723717460416,-0.23858209932884805],[0.21034306569495356,-0.08255318157708526],[0.02196332342760812,0.15744488202834633],[-0.4395158199886649,-0.08720301875354591],[0.2230590234930685,-0.12857810628235763],[-0.13849776308905715,-0.2738065504122517],[0.18586539561055754,-0.029919258634348272],[0.27459960159713365,0.15430636196079126],[-0.11510973421655904,-0.06440657803784773],[0.2228709913879682,6.38206057092864E-4],[0.5538876855232192,-0.20918589684316027],[-0.25411212026636915,0.2767466065479967],[-0.09500220152319391,0.34701802840258966],[-0.07585618941764061,0.1811938787152507],[0.020222614602120822,-0.40000420519255325],[-0.4503957608337934,-0.12079574689149739]],"b1":[-0.056021151962203954,-0.09449285567267413,-0.018938819120536892,-0.08922289882166158,-0.02177641477939085,-0.0364069414339745,-0.006015456712019954,-0.042697481632993875,-0.013489114404541463,-0.04556479805479527,0.03496928344095938,-0.04551956570921396,0.028948248169371665,-0.007885915557430255,-0.03754038681730361,-0.032822302828827976,-0.12727932471276368,-0.047168416803215575,-0.08262375301312436,-0.06289522483992938],"w2":[[-0.2436129821713003,-0.08976086851081064,0.24963252726090998,-0.10086603005447795,0.14036316986435227,-0.1370507192914263,0.0822007751332568,0.06525467429104669,-0.09492624562601147,-0.35234052740756916,0.12730459666793273,-3.1978956694082676E-4,0.1447327579580119,0.15827632658061708,0.032745069923435455,0.03884865942015843,-0.19357211800501264,0.4197973552503005,-0.14958726783904763,-0.03386657503649704]],"b2":[0.2947211740928004]}},{"size":{"inSize":2,"hlSize":20,"outSize":1},"layers":{"w1":[[-0.25328393676125266,0.1701808658926196],[0.7417774917351602,0.3145943213392555],[-0.06251720303965266,-0.34400854716572016],[-0.3006436153269271,-0.0030160556802809385],[-0.3883723717460416,-0.23858209932884805],[0.21034306569495356,-0.08255318157708526],[0.02196332342760812,0.15744488202834633],[-0.4395158199886649,-0.08720301875354591],[0.2230590234930685,-0.12857810628235763],[-0.13849776308905715,-0.2738065504122517],[0.18586539561055754,-0.029919258634348272],[0.27459960159713365,0.15430636196079126],[-0.11510973421655904,-0.06440657803784773],[0.2228709913879682,6.38206057092864E-4],[0.5538876855232192,-0.20918589684316027],[-0.25411212026636915,0.2767466065479967],[-0.09500220152319391,0.34701802840258966],[-0.07585618941764061,0.1811938787152507],[0.020222614602120822,-0.40000420519255325],[-0.4503957608337934,-0.12079574689149739]],"b1":[-0.056021151962203954,-0.09449285567267413,-0.018938819120536892,-0.08922289882166158,-0.02177641477939085,-0.0364069414339745,-0.006015456712019954,-0.042697481632993875,-0.013489114404541463,-0.04556479805479527,0.03496928344095938,-0.04551956570921396,0.028948248169371665,-0.007885915557430255,-0.03754038681730361,-0.032822302828827976,-0.12727932471276368,-0.047168416803215575,-0.08262375301312436,-0.06289522483992938],"w2":[[-0.2436129821713003,-0.08976086851081064,0.24963252726090998,-0.10086603005447795,0.14036316986435227,-0.1370507192914263,0.0822007751332568,0.06525467429104669,-0.09492624562601147,-0.35234052740756916,0.12730459666793273,-3.1978956694082676E-4,0.1447327579580119,0.15827632658061708,0.032745069923435455,0.03884865942015843,-0.19357211800501264,0.4197973552503005,-0.14958726783904763,-0.03386657503649704]],"b2":[0.2947211740928004]}},{"size":{"inSize":2,"hlSize":20,"outSize":1},"layers":{"w1":[[-0.25328393676125266,0.1701808658926196],[0.7417774917351602,0.3145943213392555],[-0.06251720303965266,-0.34400854716572016],[-0.3006436153269271,-0.0030160556802809385],[-0.3883723717460416,-0.23858209932884805],[0.21034306569495356,-0.08255318157708526],[0.02196332342760812,0.15744488202834633],[-0.4395158199886649,-0.08720301875354591],[0.2230590234930685,-0.12857810628235763],[-0.13849776308905715,-0.2738065504122517],[0.18586539561055754,-0.029919258634348272],[0.27459960159713365,0.15430636196079126],[-0.11510973421655904,-0.06440657803784773],[0.2228709913879682,6.38206057092864E-4],[0.5538876855232192,-0.20918589684316027],[-0.25411212026636915,0.2767466065479967],[-0.09500220152319391,0.34701802840258966],[-0.07585618941764061,0.1811938787152507],[0.020222614602120822,-0.40000420519255325],[-0.4503957608337934,-0.12079574689149739]],"b1":[-0.056021151962203954,-0.09449285567267413,-0.018938819120536892,-0.08922289882166158,-0.02177641477939085,-0.0364069414339745,-0.006015456712019954,-0.042697481632993875,-0.013489114404541463,-0.04556479805479527,0.03496928344095938,